tree
version=v4
num_class=1
num_tree_per_iteration=1
label_index=0
max_feature_idx=33
objective=binary sigmoid:1
feature_names=Column_0 Column_1 Column_2 Column_3 Column_4 Column_5 Column_6 Column_7 Column_8 Column_9 Column_10 Column_11 Column_12 Column_13 Column_14 Column_15 Column_16 Column_17 Column_18 Column_19 Column_20 Column_21 Column_22 Column_23 Column_24 Column_25 Column_26 Column_27 Column_28 Column_29 Column_30 Column_31 Column_32 Column_33
feature_infos=[-4.0971659569630603:4.8592690419953692] [-5.2435753953149788:7.5076991533778568] [-4.192990025288811:6.2070558381356706] [-3.1538880958359843:6.4851164241976393] [-2.2563402820478311:13.979514962829917] none none none none none none none none none [-22.581560831228124:6.7478439298540094] [-6.2040469361821913:23.516017337863861] [-4.7389274306414917:0.34065450267052844] [-1.9051692424830573:2.5157819792652236] [-3.4879022220069773:3.2104854933434637] none [-2.3056495284684675:2.0198571246047043] [-0.24864305502040521:7.5164929839657786] none none none none none none none none none none none none
tree_sizes=2424 2573 2468 2582 2472 2359 2365 2681 3013 2581 3229 2796 3228 3227 2898 2691 3007 2793 2786 2804 2905 2902 2802 2909 2905 2794 2687 2694 2802 2584 3022 3025 3026 3027 3011 2888 2887 2904 3019 2905 2902 3118 2933 2922 2940 2702 2602 2809 2917 2602 3005 2681 3030 3021 3242 2784 2916 2928 2946 3137 2604 2604 2712 2611 2702 2822 2928 3024 3023 2898 2714 2717 2808

Tree=0
num_leaves=22
num_cat=0
split_feature=14 17 17 16 14 18 18 17 17 17 17 17 14 17 3 18 17 3 1 14 1
split_gain=204.596 39.1968 27.3385 19.1259 15.4075 11.233 13.5103 15.8009 28.3714 9.41794 14.2142 11.7517 8.96549 3.61216 5.88863 3.26274 2.08503 0.984117 0.493662 0.0992984 1.42109e-14
threshold=-0.056053144630486877 0.23487268975944395 1.7560382168987789 1.0000000180025095e-35 0.03999604182389379 -0.36855125348812184 0.18799177206095771 -0.96532243113067762 -0.57182217635073429 0.88031771076875731 0.57302391301310973 1.2735816160546147 0.0059903236156014757 -1.0681229850888834 -0.055429284742513941 0.2626184577721975 -1.2171674370415901 -0.042376601544587465 -0.22776441320237464 -0.058500557539209477 -0.030427229240590038
decision_type=2 2 2 2 2 2 2 2 2 2 2 2 2 2 2 2 2 2 2 2 2
left_child=3 5 4 -1 9 16 7 13 -9 10 -3 -11 -10 14 -7 17 -2 -6 -8 -5 -18
right_child=1 2 -4 19 15 6 18 8 12 11 -12 -13 -14 -15 -16 -17 20 -19 -20 -21 -22
leaf_value=0.07759375624399012 0.16500219403973782 0.096895231493422676 0.19988050011881969 -0.00066975983590082666 0.018430264921691614 0.18985298712108362 0.1798254741233476 -0.00066975983590081278 0.17839297226652812 0.03141828175685446 0.19245271271308928 0.13303041346724617 0.09960537014145944 0.19988050011881975 0.11393038870965375 0.081373528327393932 0.19988050011881964 0.049467805152779314 0.19988050011881969 0.005597435787684249 0.19988050011881969
leaf_weight=10.221876248717306 5.7342232614755657 9.2246200293302554 6.482165426015853 30.416314691305157 5.2355951517820349 4.9862810969352731 4.9862810969352722 4.9862810969352713 6.9807935357093864 6.2328513711690885 6.7314794808626166 5.2355951517820358 7.4794216454029083 5.9835373163223222 5.2355951517820367 5.4849092066287986 10.221876248717312 4.9862810969352713 7.9780497550964338 7.9780497550964382 6.7314794808626148
leaf_count=41 23 37 26 122 21 20 20 20 28 25 27 21 30 24 21 22 41 20 32 32 27
internal_value=0.103439 0.138268 0.10414 0.0168141 0.0897517 0.162014 0.148457 0.132563 0.102177 0.112368 0.137209 0.0778064 0.137641 0.169027 0.150966 0.0502636 0.191065 0.0335705 0.192167 0.000632515 0.199881
internal_weight=169.534 120.917 49.6135 48.6162 43.1313 71.3038 48.6162 35.6519 19.4465 27.4245 15.9561 11.4684 14.4602 16.2054 10.2219 15.7068 22.6876 10.2219 12.9643 38.3944 16.9534
internal_count=680 485 199 195 173 286 195 143 78 110 64 46 58 65 41 63 91 41 52 154 68
is_linear=0
shrinkage=1


Tree=1
num_leaves=23
num_cat=0
split_feature=14 18 18 18 18 18 14 16 18 18 15 14 3 15 18 18 14 3 0 14 18 0
split_gain=184.472 28.3864 17.7028 17.3232 17.8669 35.5282 18.5534 17.1709 13.7394 10.1521 6.06054 5.28786 4.72316 3.72522 2.40804 2.15266 1.70768 1.66272 1.02891 0.0893229 0.00100517 1.42109e-14
threshold=-0.056053144630486877 -0.36855125348812184 0.64606687189115808 0.38595096555025571 0.18223997967870423 0.16747788340940198 0.0059903236156014757 1.0000000180025095e-35 -0.0089320611955777968 0.034851572869718815 -0.10380036966100088 0.18277188761067706 -0.38509603079540172 -0.049564106329597561 0.11945483702762716 1.3420870160664626 0.00094171721513207753 -0.0092492104968483653 -0.28332584317829929 -0.058500557539209477 -0.51078998834376155 0.11607822033438066
decision_type=2 2 2 2 2 2 2 2 2 2 2 2 2 2 2 2 2 2 2 2 2 2
left_child=7 16 3 4 5 6 10 -1 11 -10 -3 13 -6 -8 17 -4 -2 -12 -14 21 -18 -9
right_child=1 2 15 -5 12 -7 8 19 9 -11 14 -13 18 -15 -16 -17 20 -19 -20 -21 -22 -23
leaf_value=-0.02586786190362135 0.061244819601649708 0.014401320238637187 0.091798621971951988 -0.059870536081957172 0.022069380100899677 -0.10485788469292874 0.034284269147182425 -0.099966526027503735 -0.10254979622979171 -0.010502114930039377 0.073512322635136643 0.064022386108400386 0.062154093046312309 -0.024829574402693465 0.093278565503465763 0.052803302127868705 0.091022402255848234 0.033096492107201135 0.091552535736135449 -0.094030602045885758 0.0918248061924377 -0.099966526027503735
leaf_weight=10.234587013721464 6.6861733496189144 7.4670307785272625 6.9409601837396604 7.7241110652685157 4.9647955149412182 6.4827512949705115 4.9756711125373796 18.749997764825821 4.9952952861785906 7.4825186133384705 5.2122021466493642 5.2121567875146857 4.9634354412555703 5.7391215711832073 6.2121195346117011 7.2208934873342514 8.9122759401798248 4.9727072566747648 7.4337752759456608 7.9999375343322781 6.943918123841283 11.749998599290846
leaf_count=41 27 30 28 31 20 26 20 75 20 30 21 21 20 23 25 29 36 20 30 32 28 47
internal_value=-0.00134143 0.031847 0.0202099 0.0114758 0.0187161 0.00554706 0.0192403 -0.0834309 -0.00806438 -0.0473519 0.0517403 0.0227151 0.0632789 0.00262136 0.068744 0.0719156 0.0824374 0.0537796 0.0797824 -0.0987331 0.0913738 -0.0999665
internal_weight=169.276 120.542 97.9995 83.8377 76.1136 58.7516 52.2688 48.7345 28.4048 12.4778 23.8641 15.9269 17.362 10.7148 16.397 14.1619 22.5424 10.1849 12.3972 38.4999 15.8562 30.5
internal_count=680 485 394 337 306 236 210 195 114 50 96 64 70 43 66 57 91 41 50 154 64 122
is_linear=0
shrinkage=0.05


Tree=2
num_leaves=22
num_cat=0
split_feature=14 17 18 18 18 16 14 18 18 17 18 17 14 17 4 2 17 17 14 14 17
split_gain=166.939 34.1847 23.2138 23.9071 24.5222 15.6119 12.7571 9.0736 11.7871 13.5839 26.3368 6.83569 5.46294 3.74848 3.73215 2.1098 1.97756 0.466615 0.0823985 0.00193229 2.70428e-07
threshold=-0.056053144630486877 0.23487268975944395 0.64606687189115808 0.30586506971936628 0.21876193373719235 1.0000000180025095e-35 0.03999604182389379 -0.36855125348812184 0.18799177206095771 -0.96532243113067762 -0.052013142925004786 0.88031771076875731 0.0059903236156014757 1.7145866895073716 -0.10674270488331128 -0.33055162461870286 -1.2171674370415901 -0.030570737013535736 -0.058500557539209477 0.00094171721513207753 -0.86916223377766311
decision_type=2 2 2 2 2 2 2 2 2 2 2 2 2 2 2 2 2 2 2 2 2
left_child=5 7 3 4 6 -1 11 16 9 14 -11 -3 -12 -4 -9 -8 -2 -10 -7 -18 -21
right_child=1 2 13 -5 -6 18 15 8 17 10 12 -13 -14 -15 -16 -17 19 -19 -20 20 -22
leaf_value=-0.02455335654138547 0.053550904558271273 0.035544077242709762 0.092265531331782932 -0.10155907406912311 0.088767797666161843 -0.095213091467013469 -0.043452760757971172 0.040067733540157933 0.07005598766888442 -0.10140136055615034 0.062785938904469235 -0.033112834121190024 0.0011938141459207946 0.033537803532710554 0.089302843649168906 -0.088854210832713609 0.088509224926702532 0.08950751836950592 -0.08950598995237645 0.087363708348627236 0.087379412051532587
leaf_weight=10.243147000670431 5.6598871648311642 8.6845458149910026 5.4603765010833722 7.242320865392684 6.1474910676479331 30.422906547784802 5.2462401688098907 9.6492702662944811 5.1717166751623154 4.9950748980045327 7.1655550748109853 6.2233215719461432 7.2352206408977509 5.40836001932621 6.4031827747821763 4.9952626526355726 5.653085112571719 7.6343411505222303 7.9843792915344265 5.1401659250259435 5.8748323917388863
leaf_count=41 23 35 22 29 25 122 21 39 21 20 29 25 29 22 26 20 23 31 32 21 24
internal_value=-0.00127306 0.0304035 -0.00149443 -0.0196949 -0.000750943 -0.0793993 -0.0226328 0.0527322 0.0405376 0.0256845 -0.0024734 0.0068831 0.0318409 0.0630422 0.0597072 -0.0655972 0.0790867 0.081652 -0.0940267 0.0877578 0.0873721
internal_weight=168.641 119.99 49.4079 38.5392 31.2969 48.6504 25.1494 70.5823 48.2544 35.4483 19.3959 14.9079 14.4008 10.8687 16.0525 10.2415 22.328 12.8061 38.4073 16.6681 11.015
internal_count=680 485 199 155 126 195 101 286 195 143 78 60 58 44 65 41 91 52 154 68 45
is_linear=0
shrinkage=0.05


Tree=3
num_leaves=23
num_cat=0
split_feature=14 17 17 16 14 18 18 17 18 17 17 17 14 4 17 3 17 17 14 14 17 0
split_gain=151.583 31.2014 21.8787 14.3478 11.97 8.41132 10.8446 12.3754 23.8141 7.53992 12.1023 8.9094 4.98896 3.47473 2.54648 4.3899 1.85985 0.43686 0.0776329 0.00147947 2.07506e-07 1.42109e-14
threshold=-0.056053144630486877 0.23487268975944395 1.7560382168987789 1.0000000180025095e-35 0.03999604182389379 -0.36855125348812184 0.18799177206095771 -0.96532243113067762 -0.052013142925004786 0.88031771076875731 0.57302391301310973 1.2735816160546147 0.0059903236156014757 -0.10674270488331128 1.0897876863686677 -0.042376601544587465 -1.2171674370415901 -0.030570737013535736 -0.058500557539209477 0.00094171721513207753 -0.86916223377766311 0.45440185399859356
decision_type=2 2 2 2 2 2 2 2 2 2 2 2 2 2 2 2 2 2 2 2 2 2
left_child=3 5 4 -1 9 16 7 13 -9 10 -3 -11 -10 -7 15 -6 -2 -8 21 -18 -21 -5
right_child=1 2 -4 18 14 6 17 8 12 11 -12 -13 -14 -15 -16 -17 19 -19 -20 20 -22 -23
leaf_value=-0.023314066622839958 0.051260883082605985 -0.0088902857985897546 0.085496526488051797 -0.091106805305632824 -0.066900238775285795 0.038221318728329158 0.067208555604031647 -0.096452612918199607 0.060104829293814971 -0.065374693810782245 0.079852241974797289 0.023308510451621512 0.0011341559158056693 0.08594806053780904 -0.075572683667635032 -0.00050329620941644835 0.085247285458201039 0.086131218350420591 -0.085550064187011748 0.084238000175171676 0.084251856164247838 -0.091106805305632824
leaf_weight=10.248108506202696 5.618155866861346 9.1847957372665423 6.3117129206657401 21.790377855300903 4.982158511877059 9.6106221526861173 5.1225164532661438 4.9888436794280997 7.1122642606496864 6.2357983291149122 6.6044107824563971 5.1885278522968292 7.2350235730409622 6.3224543035030321 5.7250062227249137 4.9755301624536505 5.5777928531169918 7.5392697155475599 7.937007904052737 5.0661912262439763 5.7903710603713936 8.4190096259117109
leaf_count=41 23 37 26 88 20 39 21 20 29 25 27 21 29 26 23 20 23 31 32 21 24 34
internal_value=-0.00121182 0.0290888 -0.00141931 -0.0758396 -0.014208 0.0505401 0.0387824 0.0245323 -0.0023531 0.0058425 0.0282295 -0.0250979 0.0303672 0.0571599 -0.0490009 -0.0337239 0.0760956 0.0784758 -0.0899506 0.0845854 0.0842454 -0.0911068
internal_weight=167.586 119.191 49.2079 48.3945 42.8962 69.9835 47.931 35.2692 19.3361 27.2135 15.7892 11.4243 14.3473 15.9331 15.6827 9.95769 22.0525 12.6618 38.1464 16.4344 10.8566 30.2094
internal_count=680 485 199 195 173 286 195 143 78 110 64 46 58 65 63 40 91 52 154 68 45 122
is_linear=0
shrinkage=0.05


Tree=4
num_leaves=22
num_cat=0
split_feature=14 17 18 18 18 16 14 18 18 17 17 14 17 17 4 17 1 14 14 17 0
split_gain=138.027 28.5613 20.4802 20.7411 20.7313 13.3078 10.7107 7.82784 10.017 11.2934 21.8387 6.18766 6.17644 3.70989 3.26234 1.76766 0.445966 0.0744468 0.00114412 1.60643e-07 1.42109e-14
threshold=-0.056053144630486877 0.23487268975944395 0.64606687189115808 0.30586506971936628 0.21876193373719235 1.0000000180025095e-35 0.049966199315802019 -0.36855125348812184 0.18799177206095771 -0.96532243113067762 -0.57182217635073429 0.0059903236156014757 0.88031771076875731 1.7145866895073716 -0.10674270488331128 -1.2171674370415901 -0.22776441320237464 -0.058500557539209477 0.00094171721513207753 -0.86916223377766311 0.79174655762087343
decision_type=2 2 2 2 2 2 2 2 2 2 2 2 2 2 2 2 2 2 2 2 2
left_child=5 7 3 4 6 -1 12 15 9 14 -11 -12 -3 -4 -9 -2 -10 20 -17 -20 -7
right_child=1 2 13 -5 -6 17 -8 8 16 10 11 -13 -14 -15 -16 18 -18 -19 19 -21 -22
leaf_value=-0.022144227334095042 0.04911898958364655 0.031272956833927647 0.088842612937643284 -0.094837392147937516 0.082932085274437337 -0.087527230510875603 -0.062696115837285321 0.036480562934574454 0.063719763962712186 -0.092652785306476387 0.063662217946092642 -0.0022292307767564877 -0.032592105495352318 0.03006188101846179 0.082989997214999958 0.082367060297174 0.083126831249304034 -0.082059190183048969 0.081471996779792347 0.081484295057987502 -0.087527230510875603
leaf_weight=10.249962121248243 5.5711814612150219 9.1201833635568672 5.4081221222877485 7.2155869752168647 5.9787610173225394 24.247409015893936 9.4502631276845914 9.5668716877698881 4.8239080160856247 4.9584559202194205 6.8000266700983101 7.4845195859670639 6.4724230021238318 5.3296516388654709 6.2229066342115358 5.486481890082362 7.66205285489559 7.8627376556396511 4.9784809499979055 5.6901980638503975 5.6332364380359641
leaf_count=41 23 37 22 29 25 99 38 39 20 20 28 30 26 22 26 23 32 32 21 24 23
internal_value=-0.00115633 0.0278748 -0.00134793 -0.0184821 -0.000722027 -0.0726675 -0.0206937 0.0485431 0.0371759 0.0234709 -0.0022447 0.0291378 0.00476285 0.059667 0.0548104 0.0734051 0.075629 -0.0863881 0.0817803 0.0814786 -0.0875272
internal_weight=166.213 118.22 48.975 38.2372 31.0216 47.9933 25.0429 69.2451 47.5187 35.0328 19.243 14.2845 15.5926 10.7378 15.7898 21.7263 12.486 37.7434 16.1552 10.6687 29.8806
internal_count=680 485 199 155 126 195 101 286 195 143 78 58 63 44 65 91 52 154 68 45 122
is_linear=0
shrinkage=0.05


Tree=5
num_leaves=21
num_cat=0
split_feature=14 17 17 16 17 17 4 17 17 17 4 17 17 17 17 3 14 14 17 0
split_gain=132.092 21.5547 22.2028 11.4483 7.03141 13.7586 7.65378 7.1607 2.86784 5.86723 4.33308 6.22756 17.0991 4.17628 3.15249 6.04801 0.930968 0.084279 0.00820437 1.42109e-14
threshold=-0.056053144630486877 0.23487268975944395 1.7560382168987789 1.0000000180025095e-35 0.88031771076875731 0.57302391301310973 -0.11212724975888039 1.2735816160546147 -0.16655214569174093 -0.27966209697087868 0.11257629884971569 -0.70336831578216452 -0.96532243113067762 -0.41684418373161175 -1.1403052720786142 -0.016897819404208224 0.011527179890638123 -0.058500557539209477 -0.54903619528403069 -0.69703371153269178
decision_type=2 2 2 2 2 2 2 2 2 2 2 2 2 2 2 2 2 2 2 2
left_child=3 8 4 -1 5 6 -3 -6 9 10 11 12 14 18 15 -2 -10 19 -13 -5
right_child=1 2 -4 17 7 -7 -8 -9 16 -11 -12 13 -14 -15 -16 -17 -18 -19 -20 -21
leaf_value=-0.022164511544830141 0.073026230438289957 0.014037543012885109 0.081158356135423548 -0.084382221109636446 -0.067267252996492541 0.061568523427796319 -0.054029085325440998 -0.001921003984612416 0.081934415681521044 -0.0071071512536283804 0.081169380276064379 0.083259964977521986 -0.058226644320795676 0.029974623848044502 0.082645522187418566 0.001295981367761385 0.053985689924159988 -0.078287125528474388 0.080585375791661681 -0.084382221109636446
leaf_weight=9.749185234308241 5.469724938273429 8.6276387870311755 8.0353245139121992 6.5187721252441397 8.3944630771875399 7.9256284683942786 7.9223328530788448 8.37481841444969 7.3633726835250837 5.0980513393878928 8.7276163846254331 5.2362260222435006 4.8695990145206407 5.854672044515616 4.7697631716728237 6.3505005389451972 5.0046601891517639 7.0378158837556866 6.3377585262060174 22.694984436035156
leaf_count=39 23 35 34 27 34 33 32 34 31 21 37 22 20 24 20 26 21 29 27 94
internal_value=0.00128726 0.0300677 0.00512207 -0.0702636 -0.00969131 0.00739691 -0.0185454 -0.0346324 0.0489566 0.0438726 0.0493308 0.0421853 0.0241534 0.0643876 0.0483342 0.0344886 0.0706251 -0.0831989 0.0817954 -0.0843822
internal_weight=160.363 114.362 49.2802 46.0008 41.2449 24.4756 16.55 16.7693 65.0819 52.7139 47.6159 38.8882 21.4596 17.4287 16.59 11.8202 12.368 36.2516 11.574 29.2138
internal_count=663 474 202 189 168 100 67 68 272 220 199 162 89 73 69 49 52 150 49 121
is_linear=0
shrinkage=0.05


Tree=6
num_leaves=21
num_cat=0
split_feature=14 17 17 16 18 18 18 18 18 17 14 17 18 18 2 14 18 3 17 14
split_gain=120.803 19.8108 20.4539 10.7846 9.88443 18.119 13.4213 5.19924 6.21243 5.747 5.07768 3.68767 6.2695 4.82242 2.89039 2.19247 1.36298 0.0831061 0.00689205 0.00214264
threshold=-0.056053144630486877 0.23487268975944395 1.7560382168987789 1.0000000180025095e-35 0.98355075976453132 0.30586506971936628 0.18223997967870423 -0.36855125348812184 -0.052013142925004786 -1.0681229850888834 0.0044483621236838912 -0.25858403162626292 0.16747788340940198 0.065417860074218986 -0.2886628471571599 -0.0059394517375943598 0.42140836447786223 -0.70048161178417767 -1.1403052720786142 -0.058500557539209477
decision_type=2 2 2 2 2 2 2 2 2 2 2 2 2 2 2 2 2 2 2 2
left_child=3 7 4 -1 5 6 10 15 9 -9 -3 12 13 -10 -12 -2 -13 -5 -17 -19
right_child=1 2 -4 17 -6 -7 -8 8 11 -11 14 16 -14 -15 -16 18 -18 19 -20 -21
leaf_value=-0.021063297981192684 0.04090715176539593 0.0064086398314979771 0.07873177669642023 -0.076271510622145947 0.04455748657361145 -0.088470575979748833 0.061946160719061442 0.047343065163520381 0.020546983650744238 -0.020051686629902171 -0.016031009039664961 0.08172975575070264 -0.0079676769879242128 0.08299573831144369 -0.067849908656685581 0.079616643825046463 0.048133212215412058 -0.081600008540479219 0.077433888407862875 -0.082726573987164043
leaf_weight=9.7460127621889097 5.3094333112239864 9.1214601248502785 7.8729253262281409 9.029648542404173 7.0673448592424384 7.5979058891534796 6.4351086765527716 5.4860993921756744 5.6030798107385653 7.4707744568586332 4.9490898251533508 8.4925735294818896 5.7810048162937155 6.8964166194200516 5.8980779945850355 6.7642711251974115 4.6837594360113135 21.355969458818436 7.7711425721645329 5.2602110207080868
leaf_count=39 23 37 34 38 29 31 27 23 23 31 20 36 24 29 24 29 20 90 34 22
internal_value=0.00124047 0.0288738 0.00490632 -0.0676728 -0.00924602 -0.0204292 -0.000849748 0.0471283 0.0376214 0.00848408 -0.0210864 0.0496229 0.0350887 0.0550022 -0.0442072 0.0684053 0.0697873 -0.0804165 0.0784497 -0.0818227
internal_weight=158.592 113.2 48.9419 45.3918 41.069 34.0016 26.4037 64.2586 44.4137 12.9569 19.9686 31.4568 18.2805 12.4995 10.8472 19.8448 13.1763 35.6458 14.5354 26.6162
internal_count=663 474 202 189 168 139 108 272 186 54 81 132 76 52 44 86 56 150 63 112
is_linear=0
shrinkage=0.05


Tree=7
num_leaves=24
num_cat=0
split_feature=14 17 17 14 16 18 18 18 18 18 18 17 17 14 18 3 14 18 17 17 17 18 3
split_gain=110.673 18.1684 18.89 10.4029 11.0824 8.98705 16.6238 12.4959 8.74642 4.93326 6.04438 8.09749 9.13049 3.48321 3.14248 3.13125 2.09628 0.958183 0.02901 0.0267634 0.00544364 0.00371581 2.64316e-05
threshold=-0.056053144630486877 0.23487268975944395 1.7560382168987789 -0.058500557539209477 1.0000000180025095e-35 0.98355075976453132 0.30586506971936628 0.13404317331304175 0.0098674645942059252 -0.36855125348812184 0.18799177206095771 -0.96532243113067762 -0.5574411422052109 0.036738399696830272 0.18223997967870423 0.24044642738817518 -0.0059394517375943598 0.42140836447786223 0.88031771076875731 -1.1776370650079933 -1.1403052720786142 0.11945483702762716 -0.66663462807879315
decision_type=2 2 2 2 2 2 2 2 2 2 2 2 2 2 2 2 2 2 2 2 2 2 2
left_child=3 9 5 18 -5 6 7 8 -3 16 11 15 -13 -14 -9 -11 -2 -12 19 -1 -18 22 -21
right_child=1 2 -4 4 -6 -7 -8 14 -10 10 17 12 13 -15 -16 -17 20 -19 -20 21 -22 -23 -24
leaf_value=-0.08365452694932729 0.039326346566251391 0.015067446223093618 0.076558432677049301 0.018476791267311481 -0.07282963397972271 0.042644306995150504 -0.085226231374405409 0.0099558228241764853 -0.067048874512208784 0.078131937168962828 0.078876818376912045 -0.056227905999101151 0.047345026270585247 -0.0042169966407333212 0.059593880394998411 0.0306587179671335 0.077353941726108946 0.050457995792495741 -0.084507039817248136 -0.079264648610174959 0.0753917619160656 -0.080628758859674562 -0.079123850085669994
leaf_weight=4.9719974398613003 5.2482898533344295 5.3946671336889294 7.6960703730583182 6.4938549697399139 6.806709870696066 7.0164912045001975 7.4953258186578742 6.3973647952079755 8.1291833221912366 6.6636608242988569 6.7081296145915967 4.8266568183898952 7.2690606862306613 5.9616148173809052 6.3566525131464005 7.2552770227193832 6.617728680372239 5.3169555962085724 4.9878613948822013 4.8907234966754958 7.5872094184160206 6.0838075280189505 10.466861352324486
leaf_count=21 23 22 34 26 29 29 31 26 33 29 29 20 31 24 27 30 29 23 21 21 34 26 45
internal_value=0.0011952 0.0277538 0.00470971 -0.0653117 -0.0282503 -0.00884648 -0.0195439 -0.00080905 -0.0342927 0.0453619 0.0360921 0.0247278 0.00263721 0.0241117 0.0346956 0.0533864 0.0663292 0.0663113 -0.0810098 -0.0803494 0.0763059 -0.079583 -0.0791687
internal_weight=156.642 111.94 48.4858 44.7018 13.3006 40.7897 33.7732 26.2779 13.5239 63.4546 44.0014 31.9763 18.0573 13.2307 12.754 13.9189 19.4532 12.0251 31.4013 26.4134 14.2049 21.4414 15.3576
internal_count=663 474 202 189 55 168 139 108 55 272 186 134 75 55 53 59 86 52 134 113 63 92 66
is_linear=0
shrinkage=0.05


Tree=8
num_leaves=27
num_cat=0
split_feature=14 18 18 18 18 18 18 18 18 14 18 18 18 3 14 14 4 1 18 18 18 3 18 18 4 3
split_gain=101.606 13.0761 11.8732 17.3055 16.5226 27.7634 12.9212 12.9734 9.86273 9.78753 7.13139 5.54152 3.6966 2.48869 2.11393 2.01746 1.99897 0.921139 0.634567 0.0217499 0.0408466 0.00519317 0.00446086 0.00239482 0.000398769 1.37753e-05
threshold=-0.056053144630486877 -0.36855125348812184 0.64606687189115808 0.30586506971936628 0.18223997967870423 0.16747788340940198 0.11945483702762716 -0.0089320611955777968 -0.16486866480168152 -0.058500557539209477 0.034851572869718815 0.15847950897040622 -0.052013142925004786 0.30591196311043828 -0.011234024449902338 -0.0059394517375943598 -0.060679645636748894 -1.0000000180025095e-35 0.21876193373719235 0.11945483702762716 0.21211163571164152 0.096863938168816319 -0.047118024234334789 -0.51078998834376155 -0.10721877946711296 -0.49686209647551766
decision_type=2 2 2 2 2 2 2 2 2 2 2 2 2 2 2 2 2 2 2 2 2 2 2 2 2 2
left_child=9 15 3 4 5 6 7 8 -3 19 -9 -11 16 -4 -5 -2 -10 -8 -6 22 -21 -20 25 24 -17 -1
right_child=1 2 13 14 18 -7 17 10 12 11 -12 -13 -14 -15 -16 23 -18 -19 21 20 -22 -23 -24 -25 -26 -27
leaf_value=-0.076996199653411812 0.037817141759357305 -0.024910271906797822 0.078487126300300497 -0.025576103581731235 0.052982355728872256 -0.099819912010958481 0.056178670770201278 -0.069746571173893379 0.054472927772315542 -0.064685493568710631 7.1339142271812164e-06 0.00087557556681259043 0.084800891610937207 0.037689638780682135 -0.070365161633989037 0.074250550391801465 0.010574677461039602 0.087352422434201632 0.076372607010805296 -0.082826601143921375 -0.076875053589726433 0.07403461215170154 -0.078488262873194464 0.075296500755787116 0.073590719149754832 -0.076883129118508323
leaf_weight=4.5536853969097146 5.1864465624094036 5.7631669044494549 8.0351785123348218 5.1289647370576859 4.7726273834705344 5.4226964563131324 4.7240682393312454 6.3275357931852403 5.5597478300332925 5.6241555809974653 8.705398961901663 7.5497982203960419 5.4549614042043784 6.9897122085094443 5.4166204929351789 4.390012726187706 4.8603587448596963 4.7546966224908811 5.1891169697046262 6.804590627551077 5.0023000240325928 4.3798080086708069 7.7988765239715603 4.6775027811527226 4.7862666249275208 6.5945487171411523
leaf_count=20 23 24 35 22 20 22 20 26 23 24 36 31 23 30 23 20 21 20 23 29 22 20 34 21 22 29
internal_value=0.00115301 0.0267196 0.0188737 0.0108888 0.0204034 0.00720241 0.0197777 0.00632688 0.0311151 -0.0631737 -0.029353 -0.0271134 0.0514541 0.0595078 -0.0485815 0.0644174 0.033997 0.0718159 0.0678747 -0.0786206 -0.0803051 0.0753025 -0.077571 0.0743757 0.0739064 -0.0769293
internal_weight=154.453 110.525 91.4847 76.4598 65.9142 51.5726 46.1499 36.6712 21.6382 43.928 15.0329 13.174 15.8751 15.0249 10.5456 19.0402 10.4201 9.47876 14.3416 30.754 11.8069 9.56892 18.9471 13.8538 9.17628 11.1482
internal_count=663 474 388 323 278 215 193 153 91 189 62 55 67 65 45 86 44 40 63 134 51 43 83 63 42 49
is_linear=0
shrinkage=0.05


Tree=9
num_leaves=23
num_cat=0
split_feature=14 17 17 16 18 18 18 18 18 18 17 17 14 3 2 14 18 3 14 17 18 2
split_gain=93.3074 16.3131 16.7427 9.50582 7.50949 14.3081 10.7846 7.64148 4.26205 5.42695 7.49407 7.88882 3.19525 2.96042 2.64297 1.95267 0.876079 0.0849141 0.00688049 0.0035862 2.59074e-05 1.61061e-06
threshold=-0.056053144630486877 0.23487268975944395 1.7560382168987789 1.0000000180025095e-35 0.98355075976453132 0.30586506971936628 0.13404317331304175 0.0098674645942059252 -0.36855125348812184 0.18799177206095771 -0.96532243113067762 -0.5574411422052109 0.036738399696830272 0.24044642738817518 -0.12066201104610709 -0.0059394517375943598 0.42140836447786223 -0.70048161178417767 -0.058500557539209477 -1.1403052720786142 0.11400543485108496 0.11252089761384551
decision_type=2 2 2 2 2 2 2 2 2 2 2 2 2 2 2 2 2 2 2 2 2 2
left_child=3 8 4 -1 5 6 7 -3 15 10 13 -12 -13 -10 -8 -2 -11 -5 20 -17 21 -19
right_child=1 2 -4 17 -6 -7 14 -9 9 16 11 12 -14 -15 -16 19 -18 18 -20 -21 -22 -23
leaf_value=-0.017571738651576799 0.036373383914604769 0.013705019717961224 0.07310448380227616 -0.069462992018310146 0.038514834662753371 -0.080777172982084186 0.059142243933944919 -0.063273117453757896 0.075652083495826972 0.075446977382557512 -0.052921150871174175 0.04469318707966756 -0.0050034551594893744 0.02900873649567506 0.012518499526819224 0.073502352238973806 0.047865606109954051 -0.074867960275622161 -0.076912327829782912 0.071868087210472525 -0.074767066104259372 -0.074904586373996745
leaf_weight=9.7025628238916379 5.1242994070053127 5.3619233816862133 7.338620424270629 8.4804455637931806 6.8798934519290915 7.2882341444492331 5.2060201317071915 8.085222512483595 6.46907691657543 6.4662527143955213 4.7979755699634579 7.1030545383691805 5.938453197479248 7.1747988164424896 7.3043534457683545 6.2965263426303872 5.1897910535335541 6.8766846954822558 5.0022858977317837 7.1900076270103428 7.7533360719680777 5.3265214860439301
leaf_count=39 23 22 34 38 29 31 22 33 29 29 20 31 24 30 31 29 23 31 22 34 35 24
internal_value=0.00111399 0.0257067 0.00366559 -0.0611431 -0.00903416 -0.018874 -0.00149308 -0.0325788 0.0426486 0.0340207 0.0232301 0.00189641 0.0220638 0.0511241 0.0319203 0.0626479 0.0631665 -0.0737855 -0.0752542 0.0726311 -0.0748385 -0.0748839
internal_weight=152.356 109.215 47.4643 43.1418 40.1256 33.2458 25.9575 13.4471 61.7502 43.1394 31.4834 17.8395 13.0415 13.6439 12.5104 18.6108 11.656 33.4393 24.9588 13.4865 19.9565 12.2032
internal_count=663 474 202 189 168 139 108 55 272 186 134 75 55 59 53 86 52 150 112 63 90 55
is_linear=0
shrinkage=0.05


Tree=10
num_leaves=29
num_cat=0
split_feature=14 18 18 17 14 18 14 16 18 18 17 18 4 4 17 17 4 18 18 14 18 18 3 15 17 15 1 3
split_gain=90.2848 14.1546 11.8211 9.91892 9.98388 9.63982 9.05151 9.23555 8.13592 10.6237 9.83379 4.59281 7.54105 5.5946 3.92224 2.57428 3.54871 2.00465 1.7498 1.02638 0.029785 0.053058 0.00977477 0.00268148 0.00262517 0.00104213 0.000343023 3.62379e-06
threshold=-0.056053144630486877 -0.36855125348812184 0.64606687189115808 0.88031771076875731 -0.0055256756859174807 0.14316365011979157 -0.058500557539209477 1.0000000180025095e-35 -0.16486866480168152 -0.10568008084794782 -0.5574411422052109 0.034851572869718815 -0.12335875949370789 -0.090352867707227863 1.7145866895073716 -1.1776370650079933 -0.091807095480847034 0.21876193373719235 0.12185102784580297 -0.0059394517375943598 0.11945483702762716 0.21211163571164152 -0.82635863374685725 0.03291444494898909 -1.1403052720786142 0.094742542611354369 -0.062272345510784942 -0.25692677804445702
decision_type=2 2 2 2 2 2 2 2 2 2 2 2 2 2 2 2 2 2 2 2 2 2 2 2 2 2 2 2
left_child=6 19 3 4 15 -5 20 -8 -6 -10 -11 -12 -13 -14 23 -3 18 -7 -17 -2 22 -22 -1 -4 -21 27 -26 -24
right_child=1 2 14 5 8 17 7 -9 9 10 11 12 13 -15 -16 16 -18 -19 -20 24 21 -23 25 -25 26 -27 -28 -29
leaf_value=-0.076015895826233637 0.044514984114475756 0.077495635579135427 0.077916362849638723 -0.088302919512625186 -0.060574493343103122 0.023194041604275697 0.020086768883323725 -0.066906607443477054 0.078162395294276599 -0.068865927161440119 -0.018416067951368732 0.06797797974190932 -0.040351165711224567 0.029514354341542193 0.025038012997579254 0.024519521606554944 -0.0023729016262223289 -0.022513350866045344 0.061899315437360658 0.071669202171724664 -0.080323151659627959 -0.073145373745076847 -0.073152029759365286 0.076214737476348993 0.06994584821410732 -0.07402214383890042 0.070592553494858198 -0.073094351002265842
leaf_weight=4.4278155863285091 5.0468665957450893 4.5076104402542141 4.7910458296537382 4.6408966928720465 4.5622468441724768 4.6178687661886197 5.9923840910196304 6.2153634727001172 4.9758085310459128 4.5029372125863949 9.0196159631013959 6.5976614952087376 4.801921665668484 7.1051611602306437 5.934896543622016 4.9306911081075713 4.6539530456066105 4.9921678900718689 8.5765717029571515 5.6854971796274194 5.9433595240116102 4.5422812253236771 4.3264601528644597 4.4801549762487411 4.0760224908590317 4.3535730689764014 4.1260977685451472 7.3482933640480059
leaf_count=20 23 20 21 19 19 19 24 28 22 19 37 29 20 31 27 21 20 23 38 27 26 21 20 20 20 20 20 34
internal_value=0.000834914 0.0243961 0.0164276 0.00861014 0.0169825 -0.0291271 -0.0606628 -0.0242044 0.00242503 0.0101925 -0.000367437 0.0108388 0.0250983 0.00133879 0.0567767 0.0436749 0.0352806 -0.000549778 0.0482542 0.0638258 -0.075047 -0.0772138 -0.0739364 0.0770941 0.0708435 -0.0733619 0.0702712 -0.0731157
internal_weight=155.775 112.626 93.6912 78.4851 64.2342 14.2509 43.1495 12.2077 41.5654 37.0031 32.0273 27.5244 18.5047 11.9071 15.2061 22.6688 18.1612 9.61004 13.5073 18.9345 30.9418 10.4856 20.4561 9.2712 13.8876 16.0283 8.20212 11.6748
internal_count=688 495 405 337 276 61 193 52 177 158 136 117 80 51 68 99 79 42 59 90 141 47 94 41 67 74 40 54
is_linear=0
shrinkage=0.05


Tree=11
num_leaves=25
num_cat=0
split_feature=14 17 17 16 17 17 14 16 17 17 17 17 4 4 4 17 1 14 3 17 1 1 14 17
split_gain=83.1914 11.2579 12.8891 14.8072 14.5202 9.79831 8.60853 8.54987 4.38613 5.38299 6.53526 14.9289 4.96401 4.49832 3.57333 1.95705 1.4024 0.765204 0.0165749 0.0152176 0.0070816 0.0121208 0.00632745 0.00300809
threshold=-0.056053144630486877 0.23487268975944395 1.7560382168987789 1.0000000180025095e-35 0.88031771076875731 0.57302391301310973 -0.058500557539209477 1.0000000180025095e-35 -0.16655214569174093 -0.41684418373161175 -0.70336831578216452 -0.96532243113067762 -0.10674270488331128 -0.15161263235221109 -0.09333774718676853 1.3800088167437337 -0.17646373245991256 0.011527179890638123 -0.94590422318039902 -0.54903619528403069 -0.35087325167751054 -0.0028646775327334476 -0.14510133581937276 -1.2171674370415901
decision_type=2 2 2 2 2 2 2 2 2 2 2 2 2 2 2 2 2 2 2 2 2 2 2 2
left_child=6 8 3 -3 5 14 18 -8 9 10 11 12 13 -2 -5 -6 -11 -10 -1 -12 -20 -22 -23 -14
right_child=1 2 -4 4 15 -7 7 -9 17 16 19 -13 23 -15 -16 -17 -18 -19 20 -21 21 22 -24 -25
leaf_value=-0.075871514711218363 0.064069236969940296 0.074271449746511287 0.071355618447981439 0.00065220879979930701 -0.079818435547995198 0.049127194000120847 0.019071037172527859 -0.065102432757985704 0.073639979566565955 -0.019087823924817702 0.075347240894865136 -0.039261646250861981 0.071489736775951232 1.1187606566665148e-05 -0.051465709458928303 -0.040501135463718869 0.015507997024745368 0.048980430299400746 -0.071425589685512117 0.071523751752844436 -0.07555787625615154 -0.071442499603049367 -0.073617949731229135 0.069827100936520267
leaf_weight=5.0451765805482891 4.3694595992565155 5.0725576281547538 6.2876362651586524 8.8403727263212151 6.2678856551647169 8.5486544370651227 5.9958660006523132 6.0718778520822507 7.3811286240816099 4.9621642231941223 5.2170622944831848 6.538180589675906 5.8769939243793461 7.3516134768724424 5.2371377497911515 6.393353596329689 7.1504026502370817 5.4826992601156235 7.3494170904159573 5.1924060583114642 4.3686032891273561 6.721654519438748 6.6487091183662317 5.0649484992027292
leaf_count=23 20 21 30 37 27 37 24 28 34 21 24 29 28 32 22 27 31 25 35 25 20 32 31 25
internal_value=0.000807053 0.0234842 0.00476718 -0.00560656 -0.017089 0.0069037 -0.0589656 -0.0232808 0.0370025 0.0305045 0.0394242 0.0272984 0.0465007 0.0238912 -0.0187368 -0.059965 0.0013351 0.0631298 -0.0732565 0.07344 -0.0727307 -0.0732714 -0.0725243 0.0707201
internal_weight=153.436 111.235 46.6476 40.36 35.2874 22.6262 42.2013 12.0677 64.5871 51.7232 39.6107 29.2012 22.663 11.7211 14.0775 12.6612 12.1126 12.8638 30.1336 10.4095 25.0884 17.739 13.3704 10.9419
internal_count=688 495 201 171 150 96 193 52 294 235 183 134 105 52 59 54 52 59 141 49 118 83 63 53
is_linear=0
shrinkage=0.05


Tree=12
num_leaves=29
num_cat=0
split_feature=14 18 18 16 17 14 16 18 18 18 17 18 18 17 18 17 17 18 14 18 18 3 15 1 4 17 15 0
split_gain=76.7599 12.7596 10.8681 8.57717 17.3217 8.2145 7.92624 7.09165 24.6107 12.2964 17.3083 11.6568 17.5443 7.8378 4.94989 3.90241 1.70633 1.09581 1.07341 0.0205237 0.0367143 0.00653789 0.00287135 0.00277583 0.00222464 0.000760852 0.000580345 5.43715e-06
threshold=-0.056053144630486877 -0.36855125348812184 0.64606687189115808 1.0000000180025095e-35 0.88031771076875731 -0.058500557539209477 1.0000000180025095e-35 0.18799177206095771 0.16747788340940198 0.034851572869718815 -0.96532243113067762 -0.0089320611955777968 -0.064764861935309226 0.23487268975944395 0.21876193373719235 1.7145866895073716 -1.1856920610194448 0.10621156530699079 -0.0059394517375943598 0.11945483702762716 0.21211163571164152 -0.82635863374685725 0.03291444494898909 0.49388027518371941 -0.10972101709183384 -1.0681229850888834 -0.1224087610797292 -0.2880242236133323
decision_type=2 2 2 2 2 2 2 2 2 2 2 2 2 2 2 2 2 2 2 2 2 2 2 2 2 2 2 2
left_child=5 18 3 -3 7 19 -7 8 9 10 16 12 -12 24 -6 22 -5 -11 -2 21 -21 -1 -4 26 -9 -23 -20 -27
right_child=1 2 15 4 14 6 -8 13 -10 17 11 -13 -14 -15 -16 -17 -18 -19 23 20 -22 25 -24 -25 -26 27 -28 -29
leaf_value=-0.072431088793289411 0.040993569742876663 0.055343695154324891 0.075846111584407738 0.07460793385020982 -0.087261604064263767 0.018110684231630324 -0.06342715912867658 0.071766019117433799 -0.099599179746089547 0.044440034717647951 -0.055602522297632961 -0.089575681576099422 0.060645967138025995 -0.002694346379156162 -0.018329102589111149 0.022286575547266381 0.031941353666136887 0.077334874746852522 0.067629153444461673 -0.076112719830157216 -0.069982903797612073 -0.070780624266237477 0.074057479527159187 0.06959811166468588 0.073361359939237522 -0.070029632378604656 0.068426260184911922 -0.069956907041356806
leaf_weight=4.1962614208459881 4.8518743515014675 8.3634607493877393 4.6561695933341962 4.9467128366231918 5.9548772722482664 5.9980551302433014 5.9243925958871824 4.4134543389081946 5.2098898142576209 4.4950303435325605 7.1861060559749532 5.5459187030792423 5.9190132617950439 5.7275476157665244 4.6284680068492889 5.7678034305572501 4.4524891823530108 5.7965595126152039 4.6208482831716537 5.6833759546279889 4.2840941399335861 4.1157600432634363 4.3308051079511642 4.0319611728191367 4.3282224982976905 4.0841794908046722 4.5142258554697019 6.9323368072509766
leaf_count=20 23 36 21 23 25 24 28 21 21 19 30 23 25 26 22 27 20 26 24 26 21 20 20 20 20 20 23 34
internal_value=0.000780553 0.0226313 0.0150747 0.00753903 0.00171122 -0.0573957 -0.0224063 0.0124415 0.00236584 0.0162209 -0.00093041 -0.0288124 -0.00309813 0.0427686 -0.057115 0.0543841 0.0543964 0.0629675 0.0610974 -0.0716352 -0.0734781 -0.0706848 0.0749842 0.0685054 0.0725559 -0.0702006 0.0680231 -0.0699839
internal_weight=150.96 109.741 91.7225 76.9678 68.6043 41.2185 11.9224 58.0209 43.5517 38.3418 28.0502 18.651 13.1051 14.4692 10.5833 14.7548 9.3992 10.2916 18.0189 29.296 9.96747 19.3285 8.98697 13.167 8.74168 15.1323 9.13507 11.0165
internal_count=688 495 405 337 301 193 52 254 187 166 121 78 55 67 47 68 43 45 90 141 47 94 41 67 41 74 47 54
is_linear=0
shrinkage=0.05


Tree=13
num_leaves=29
num_cat=0
split_feature=14 18 18 18 18 18 18 17 17 17 18 14 16 18 17 17 17 17 15 18 18 14 17 2 1 18 1 18
split_gain=70.9421 12.0005 10.0412 8.49377 14.6842 24.534 13.3518 16.7598 8.74808 12.0542 8.03013 7.86016 7.35737 5.37805 4.91018 3.72079 1.66211 1.59209 1.07572 0.0167944 0.0300219 0.0122543 0.00351964 0.00298963 0.00193223 0.00109805 0.000734474 3.72408e-06
threshold=-0.056053144630486877 -0.36855125348812184 0.64606687189115808 0.30586506971936628 0.18223997967870423 0.16747788340940198 0.13131503306484335 -0.96532243113067762 -0.57182217635073429 0.34808291823979598 0.091318534717077821 -0.058500557539209477 1.0000000180025095e-35 0.065417860074218986 0.52055655719487659 1.7145866895073716 -1.2171674370415901 -1.1776370650079933 -0.061754274731849031 0.11945483702762716 0.21211163571164152 -0.0059394517375943598 -1.0681229850888834 -0.20313570954171808 -0.12108357977020913 -2.5769794893730262 -0.41382627320353765 -0.042508482991276922
decision_type=2 2 2 2 2 2 2 2 2 2 2 2 2 2 2 2 2 2 2 2 2 2 2 2 2 2 2 2
left_child=11 16 3 4 5 6 7 17 -9 13 -11 19 -13 -10 -5 23 -2 -3 -6 22 -21 -18 -1 -4 -20 -23 -24 -28
right_child=1 2 15 14 18 -7 -8 8 9 10 -12 12 -14 -15 -16 -17 21 -19 24 20 -22 25 26 -25 -26 -27 27 -29
leaf_value=-0.07040906873928296 0.030602431823604961 0.073049161930156495 0.07413247481009419 -0.0026670429373961326 0.041642626583420161 -0.092359686551488435 0.081186415717823063 -0.079098424157329553 0.0063404298270752467 -0.0053242806385410619 -0.08291064852982731 0.017201991571285265 -0.061864285475833364 0.076728034462862596 -0.075527555155861667 0.021348006344572474 0.070171139954955261 0.035281626309992195 0.072705911887270977 -0.074255788972458922 -0.068632265154081273 0.067534994534278192 -0.069435876811813485 0.072284141736750601 0.071190058840928869 0.066450883294139867 -0.068657281252377897 -0.068594640314472544
leaf_weight=5.0593934804201153 3.8251530826091793 6.0928152799606323 4.338429555296897 4.8231823891401273 4.4884788841009131 6.1059748232364646 6.4164155423641196 4.6205521076917604 6.9230809062719505 8.6423240154981595 5.4305580407381049 5.9991251975297928 5.7741817235946638 4.463342547416687 4.4418923258781433 5.7215202003717414 4.0959701687097576 5.1482271105050952 4.2517627030611029 5.5379113703966123 4.1532983183860779 4.0158301591873169 3.9984960705041894 4.4132027477025977 4.1582978814840308 5.5826677531003899 5.5411709547042847 4.149493470788002
leaf_count=25 19 29 20 22 21 25 28 20 29 36 23 24 28 20 20 27 20 24 20 26 21 21 20 21 20 30 28 21
internal_value=0.000757176 0.0218654 0.0145313 0.00726288 0.0134905 0.00201154 0.0140824 0.00366226 -0.0158041 -0.00431695 -0.0352639 -0.0559329 -0.0215758 0.0339315 -0.0375981 0.0527021 0.0597422 0.0557522 0.0614077 -0.0701558 -0.0718458 0.0678815 -0.0692822 0.0732004 0.0719564 0.0669045 -0.0688657 -0.0686305
internal_weight=148.213 108 90.4801 76.0069 66.7418 53.8433 47.7373 41.3209 30.0799 25.4593 14.0729 40.2131 11.7733 11.3864 9.26507 14.4732 17.5196 11.241 12.8985 28.4398 9.69121 13.6945 18.7486 8.75163 8.41006 9.5985 13.6892 9.69066
internal_count=688 495 405 337 295 234 209 181 128 108 59 193 52 49 42 68 90 53 61 141 47 71 94 41 40 51 69 49
is_linear=0
shrinkage=0.05


Tree=14
num_leaves=26
num_cat=0
split_feature=14 17 17 16 17 17 14 17 17 17 1 0 17 14 3 17 0 14 14 0 2 3 1 1 14
split_gain=65.826 8.56496 12.0845 11.9614 11.9388 8.6986 4.6781 4.39153 3.81837 4.6438 3.14833 6.00273 5.10283 2.5217 1.92854 1.41058 0.886904 0.822411 0.812857 0.610689 0.541789 0.00977168 0.00422389 0.00712448 0.00371095
threshold=-0.058500557539209477 0.23487268975944395 1.7560382168987789 1.0000000180025095e-35 0.88031771076875731 0.57302391301310973 -0.049632938031194528 0.49604195425020042 -0.16655214569174093 -0.27966209697087868 -0.090612710678202604 0.53036603957756268 -0.70336831578216452 -0.052006039441241422 0.24044642738817518 1.3800088167437337 -0.049223722433742768 0.041204149578785723 0.011527179890638123 -0.29184637049058026 0.55882119649408857 -0.94590422318039902 -0.35087325167751054 -0.0028646775327334476 -0.14510133581937276
decision_type=2 2 2 2 2 2 2 2 2 2 2 2 2 2 2 2 2 2 2 2 2 2 2 2 2
left_child=21 6 3 13 5 7 -2 16 9 10 14 12 -12 -3 17 -6 -5 19 -10 -8 -13 -1 -23 -24 -25
right_child=1 2 -4 4 15 -7 8 -9 18 -11 11 20 -14 -15 -16 -17 -18 -19 -20 -21 -22 22 23 24 -26
leaf_value=-0.070894575791074652 -0.019940299517409329 0.017744824908342401 0.069073067233774835 -0.016277885586159294 -0.073228401807209853 0.041282158956457357 0.032246536687776654 -0.059298755822995666 0.069928135581022857 -0.015287125470340472 -0.031410687231423616 0.036794438194647373 0.036259418010859093 0.06702405460225308 0.025252925894579881 -0.040679961127137426 0.014048887122625576 0.069944984831808499 0.043500516946918838 0.059799921525683898 0.061832267347604219 -0.067323452059158795 -0.07064125422909881 -0.067345576880455491 -0.069089086680346787
leaf_weight=4.6506158560514477 4.4888623952865592 5.4994057714939117 5.992988556623458 5.0787938535213417 6.8787481933832151 8.7432550787925702 4.0842431485652888 5.0802652686834326 6.6822580546140653 5.7876430451869956 7.1456200778484344 4.1359151452779752 4.5659791827201897 4.917162820696829 7.6044508665800086 6.4499221742153168 4.5892559587955546 6.2913287580013266 5.1536792516708374 3.9615882188081759 4.523914247751236 6.6882707178592744 4.023510068655022 6.1189054995775285 6.0889366865157912
leaf_count=23 22 22 30 22 32 39 20 22 33 26 33 20 22 21 36 28 20 32 25 20 22 35 20 32 31
internal_value=0.000734775 0.01703 0.00218853 -0.00629719 -0.0196798 0.00176612 0.0292925 -0.0216602 0.0329797 0.0267195 0.0324652 0.0183106 -0.00502827 0.0410072 0.0456068 -0.0574778 -0.00188229 0.0564025 0.0584209 0.0458132 0.0498743 -0.0688049 -0.0683809 -0.0688166 -0.0682152
internal_weight=145.226 117.655 53.2298 47.2368 36.8202 23.4916 64.4255 14.7483 59.9366 48.1007 42.313 20.3714 11.7116 10.4166 21.9416 13.3287 9.66805 14.3372 11.8359 8.04583 8.65983 27.5702 22.9196 16.2314 12.2078
internal_count=688 547 236 206 163 103 311 64 289 231 205 97 55 43 108 60 42 72 58 40 42 141 118 83 63
is_linear=0
shrinkage=0.05


Tree=15
num_leaves=24
num_cat=0
split_feature=14 16 18 18 18 18 18 18 18 18 14 1 18 14 18 4 14 3 4 14 4 4 1
split_gain=59.4227 9.87642 7.23686 8.17044 7.28106 9.33595 11.6711 8.64891 5.88138 14.2107 4.76019 3.00961 2.64344 2.6297 1.94007 1.04104 0.323064 0.168739 0.486925 0.10175 0.00649725 0.00256626 0.00122028
threshold=-0.056053144630486877 -3.8923304417561542 -0.36855125348812184 0.64606687189115808 0.38595096555025571 0.21211163571164152 0.16747788340940198 0.13131503306484335 -0.16486866480168152 -0.10568008084794782 0.045252696701089855 -0.17646373245991256 1.3420870160664626 0.00094171721513207753 -1.0000000180025095e-35 -0.10325753848170761 -0.021277337636136085 -0.12131092843809274 -0.11009137673039661 -0.058500557539209477 -0.053964518193181356 -0.14192909840846687 -0.17000863033213903
decision_type=2 2 2 2 2 2 2 2 2 2 2 2 2 2 2 2 2 2 2 2 2 2 2
left_child=1 -1 13 4 5 6 7 8 -4 -10 11 -11 -5 -2 -12 -7 -13 18 -3 21 -20 -19 -15
right_child=2 17 3 12 -6 15 -8 -9 9 10 14 16 -14 22 -16 -17 -18 19 20 -21 -22 -23 -24
leaf_value=0.0075523788084888915 0.022126065358918055 -0.048961767805062818 -0.050479865827119157 0.068900161201186971 -0.047057327483461961 0.067951682977717157 -0.05086815874135403 0.069721410333187572 0.072926287668157661 -0.01448345944707736 -0.0073675889761026965 0.039547782367616482 0.023127756087745425 0.065453257500193901 -0.04915824792834525 0.035334146346904037 0.020784889441065164 -0.066132454135374899 -0.069226164758589878 -0.075923730699398437 -0.066776024318337471 -0.067569266798488764 0.06660846047679192
leaf_weight=5.3623580336570731 5.3251134008169165 4.9572331011295345 4.3759185075759808 7.2976050823926908 5.9746360480785361 6.0038843899965286 8.6437235921621305 5.7733679115772238 7.2996989488601569 6.2750683128833655 5.0060582160949707 4.7269148081540946 5.5556455105543137 5.9244417399168006 6.2373478412628156 4.1283530890941602 4.4577173739672125 5.717076301574707 4.6971235275268564 4.1785442978143701 6.3821379691362354 6.8089073598384857 3.7223468720912924
leaf_count=22 27 24 19 37 28 31 37 26 35 28 21 22 25 33 27 20 20 31 24 20 34 36 20
internal_value=-0.00246192 -0.0553484 0.0183713 0.0125187 0.00569186 0.0107001 0.00226323 0.0126648 0.00408174 0.0111034 -0.00579679 0.0122064 0.0491157 0.0503301 -0.0305512 0.0546618 0.0304413 -0.0656504 -0.0619869 -0.0691673 -0.0678148 -0.0669135 0.065899
internal_weight=134.831 38.1034 96.7278 81.7559 68.9027 62.9281 52.7958 44.1521 38.3787 34.0028 26.7031 15.4597 12.8533 14.9719 11.2434 10.1322 9.18463 32.741 16.0365 16.7045 11.0793 12.526 9.64679
internal_count=647 191 456 376 314 286 235 198 172 153 118 70 62 80 48 51 42 169 82 87 58 67 53
is_linear=0
shrinkage=0.05


Tree=16
num_leaves=27
num_cat=0
split_feature=14 17 17 17 16 14 18 18 18 18 18 18 14 17 14 2 17 18 15 17 14 4 17 0 0 18
split_gain=54.9938 9.89176 12.055 16.6949 9.38578 8.05972 3.206 4.56932 5.01212 6.66572 4.95471 3.63317 2.82277 3.76934 2.66341 1.56083 1.3952 0.814729 0.179708 0.16956 0.304144 0.00487737 0.00399742 0.00124884 0.000473281 4.74913e-05
threshold=-0.056053144630486877 0.34808291823979598 1.7560382168987789 1.5450386291819871 -3.8923304417561542 0.03999604182389379 0.47167798563712882 0.16747788340940198 0.065417860074218986 -0.10568008084794782 0.21211163571164152 -0.047118024234334789 0.0017156264890436765 0.88031771076875731 0.00094171721513207753 -0.25893748135392153 -0.86916223377766311 0.17440556605561289 -0.16450090537815978 1.007400875509006 -0.058500557539209477 0.11257629884971569 -1.1776370650079933 -0.054056409649190305 0.39912491272134115 0.12682364760886053
decision_type=2 2 2 2 2 2 2 2 2 2 2 2 2 2 2 2 2 2 2 2 2 2 2 2 2 2
left_child=4 6 3 5 -1 12 7 8 9 14 -9 -11 13 17 -2 -7 18 -3 -16 20 22 -20 -6 25 -25 -24
right_child=1 2 -4 -5 19 15 -8 10 -10 11 -12 -13 -14 -15 16 -17 -18 -19 21 -21 -22 -23 23 24 -26 -27
leaf_value=0.0071710864959231351 0.017642583777071601 0.04128977926143429 0.066636177266295435 -0.097211491722662108 -0.067318211182445381 -0.015874747569297736 0.069781657393393523 -0.043953107778051378 0.072097814468429014 -0.040920691470214259 0.027289558148372469 0.02018286264297138 0.051152329533874219 -0.028529580726645212 0.053674050563597697 -0.055465528638734753 0.028965188255185959 0.01163326869715257 0.068425204816952745 -0.073989408744128723 -0.053734378205927781 0.065867735416712564 -0.065258572959946429 -0.066443802976563937 -0.065678861081768763 -0.065021350517815144
leaf_weight=5.3650348931550971 7.8499070256948462 4.8240497261285835 5.6166280508041373 4.9613179415464392 4.0963016748428407 5.2966476678848267 4.9515856951475135 4.2050107568502408 7.4676122963428488 4.4942519217729568 5.815947487950325 5.3034646809101122 5.4922962486743918 4.5441140979528418 3.6778129041194862 4.6972090899944288 4.2214804291725185 4.4541520178318024 3.8239940851926804 3.9737233221530905 6.7746818512678173 3.6376761943101883 5.1950430572033017 3.6649322658777148 4.511013925075531 3.5525740087032318
leaf_count=22 39 21 30 21 22 23 25 18 36 20 29 23 25 21 20 21 23 21 20 20 33 20 29 20 25 20
internal_value=-0.00237859 0.0177274 -0.00126209 -0.0123902 -0.0539983 0.00196824 0.0313873 0.0276225 0.0351062 0.0267375 -0.0026054 -0.00784558 0.0208289 0.00877991 0.0413356 -0.0344828 0.0534434 0.0270527 0.0627198 -0.0643286 -0.0629474 0.0671784 -0.0659167 -0.0655775 -0.0660218 -0.0651622
internal_weight=132.468 95.3352 39.8864 34.2698 37.1333 29.3085 55.4487 50.4972 40.4762 33.0086 10.021 9.79772 19.3146 13.8223 23.2109 9.99386 15.361 9.2782 11.1395 31.7683 27.7945 7.46167 21.0199 16.9236 8.17595 8.74762
internal_count=647 456 183 153 191 132 273 248 201 165 47 43 88 63 122 44 83 42 60 169 149 40 116 94 45 49
is_linear=0
shrinkage=0.05


Tree=17
num_leaves=25
num_cat=0
split_feature=14 17 17 17 16 14 18 18 18 17 18 17 18 18 17 14 17 17 3 3 4 14 4 4
split_gain=50.913 9.10186 11.2244 15.2139 8.9326 7.33093 3.06268 4.23287 4.76354 6.26036 6.85216 5.58568 9.23635 4.48056 3.38802 2.59105 3.42303 1.17361 0.788448 0.179037 0.541834 0.0753557 0.00459872 0.00184156
threshold=-0.056053144630486877 0.34808291823979598 1.7560382168987789 1.5450386291819871 -3.8923304417561542 0.03999604182389379 0.47167798563712882 0.16747788340940198 0.065417860074218986 -1.2514293561585033 -0.36855125348812184 -0.96532243113067762 -0.052013142925004786 0.21211163571164152 -0.86916223377766311 0.0017156264890436765 0.88031771076875731 0.57302391301310973 -0.0092492104968483653 -0.12131092843809274 -0.11009137673039661 -0.058500557539209477 -0.053964518193181356 -0.14192909840846687
decision_type=2 2 2 2 2 2 2 2 2 2 2 2 2 2 2 2 2 2 2 2 2 2 2 2
left_child=4 6 3 5 -1 15 7 8 9 -2 14 -12 -13 -9 -11 16 18 -7 -3 20 -6 23 -22 -21
right_child=1 2 -4 -5 19 17 -8 13 -10 10 11 12 -14 -15 -16 -17 -18 -19 -20 21 22 -23 -24 -25
leaf_value=0.0068093893233679703 0.067827814744440398 0.010662726649834947 0.065564119967918347 -0.093212023010693146 -0.045273577483046605 -0.050868823786834473 0.068472678395264705 -0.041660669672035903 0.070591807218772243 0.0094066801790213886 0.037947120025275678 -0.079370076466565243 0.017306492606021483 0.026180330148754358 0.065615309207204181 0.049198366445056568 -0.027243190962102756 -0.016454607561451597 0.039928681528970979 -0.064127726676840732 -0.066854923847215794 -0.072784387808395176 -0.064724662791498994 -0.065388128361241485
leaf_weight=5.3674447983503333 6.959011003375049 4.4292566925287247 5.4278301596641532 4.916566774249076 4.7743173092603675 4.7703823298215848 4.7978309988975516 4.2143173664808256 7.2510706484317771 4.4115851372480392 4.4513571411371187 4.7890765219926781 5.1031970381736915 5.7606802135705948 6.8336954712867701 5.4265950620174399 4.5213387161493293 5.1538412421941757 4.7903956174850517 5.3244737982749921 4.4069634526967993 3.9738500118255606 5.9592658132314709 6.3594731539487839
leaf_count=22 37 20 30 21 24 21 25 18 36 25 22 21 22 29 38 25 21 23 22 31 24 20 34 36
internal_value=-0.00229973 0.0170952 -0.00120636 -0.0118631 -0.0527143 0.00188499 0.0303209 0.0266433 0.0339431 0.0257784 0.0143429 -0.0085665 -0.0294969 -0.00248168 0.0435644 0.0199454 0.00839288 -0.0329969 0.0258689 -0.0630879 -0.0592111 -0.0668366 -0.0656303 -0.0648138
internal_weight=130.174 94.008 39.4362 34.0084 36.1658 29.0918 54.5718 49.774 39.799 32.5479 25.5889 14.3436 9.89227 9.975 11.2453 19.1676 13.741 9.92422 9.21965 30.7983 15.1405 15.6578 10.3662 11.6839
internal_count=647 456 183 153 191 132 273 248 201 165 128 65 43 47 63 88 63 44 42 169 82 87 58 67
is_linear=0
shrinkage=0.05


Tree=18
num_leaves=25
num_cat=0
split_feature=14 16 17 17 17 14 21 18 4 17 17 17 17 18 14 14 2 4 4 3 4 14 4 4
split_gain=47.1927 8.51514 8.42834 10.4633 13.9183 6.67078 2.96275 3.35256 3.27614 4.99628 6.10539 3.84203 3.52747 2.55738 2.37965 3.35707 1.46502 1.12334 0.844617 0.182275 0.559213 0.0633564 0.00384641 0.00155027
threshold=-0.056053144630486877 -3.8923304417561542 0.34808291823979598 1.7560382168987789 1.5450386291819871 0.03999604182389379 1.0000000180025095e-35 -1.8374173139954781 0.23175596149094935 -0.70336831578216452 -1.2514293561585033 -0.41684418373161175 -0.16655214569174093 -0.16486866480168152 0.0017156264890436765 -0.035769581191319143 -0.25893748135392153 -0.12515515640294669 -0.11009137673039661 -0.12131092843809274 -0.11009137673039661 -0.058500557539209477 -0.053964518193181356 -0.14192909840846687
decision_type=2 2 2 2 2 2 2 2 2 2 2 2 2 2 2 2 2 2 2 2 2 2 2 2
left_child=1 -1 6 4 5 14 7 -2 9 10 -9 -11 -13 -12 15 -4 -7 -17 -14 20 -3 23 -22 -21
right_child=2 19 3 -5 -6 16 -8 8 -10 11 13 12 18 -15 -16 17 -18 -19 -20 21 22 -23 -24 -25
leaf_value=0.0064662408496579315 0.064248058610573727 -0.043734396027812844 0.044595255629434366 0.064576748376142731 -0.089688821800652518 -0.01354616739949379 0.06361897876022693 0.037105883684064152 0.05334315384276539 0.067508017301610046 -0.056771849410158039 -0.0051498256399060754 0.056849481799871662 -0.0050438708239951505 0.047341348194645923 0.0074723038881213226 -0.052195277393206688 -0.027248590188677153 0.025076021068104859 -0.063250224118116732 -0.065785961054974154 -0.071316492241977517 -0.063803299233926178 -0.06442772929529568
leaf_weight=5.3696138709783545 4.9688858091831198 4.6972129195928565 4.2997365742921838 5.240040034055709 4.8557231277227393 5.2523903548717499 5.66257120668888 4.99482238292694 6.5720878243446341 5.2296796143054953 4.8155406564474097 8.1218207180500013 4.2217377424240095 4.7425290048122362 5.3592195957899085 4.9767355769872665 4.5986262708902341 4.3795141875743901 4.1452068388462173 5.1332710981369001 4.2584104239940634 3.8558544367551795 5.7483998537063625 6.1371920555830002
leaf_count=22 29 24 20 30 21 23 29 25 37 28 24 36 22 23 25 23 21 20 20 31 24 20 34 36
internal_value=-0.00222829 -0.051497 0.0165332 -0.00115454 -0.0113685 0.00180613 0.0294206 0.0253703 0.0208614 0.0149759 -0.00769404 0.0301664 0.018323 -0.0311054 0.0191064 0.00802578 -0.0315882 -0.00878 0.0411081 -0.0619306 -0.0579665 -0.0657841 -0.064647 -0.0638914
internal_weight=127.637 35.2 92.4369 38.962 33.7219 28.8662 53.4749 47.8123 42.8434 36.2713 14.5529 21.7184 16.4888 9.55807 19.0152 13.656 9.85102 9.35625 8.36694 29.8303 14.704 15.1263 10.0068 11.2705
internal_count=647 191 456 183 153 132 273 244 215 178 72 106 78 47 88 63 44 43 42 169 82 87 58 67
is_linear=0
shrinkage=0.05


Tree=19
num_leaves=25
num_cat=0
split_feature=14 18 18 18 18 18 18 14 18 18 18 18 18 18 3 14 18 4 3 18 1 1 2 3
split_gain=43.7398 5.85483 6.98807 6.70482 7.71631 8.83967 7.48827 4.76137 4.6051 7.97743 5.96334 4.80539 6.98242 7.27728 4.34053 2.64891 2.09766 1.08799 0.0210414 0.00517536 0.00863334 0.000527229 0.000224221 5.39563e-05
threshold=-0.056053144630486877 -0.36855125348812184 0.64606687189115808 0.38595096555025571 0.21211163571164152 0.16747788340940198 0.13131503306484335 -0.058500557539209477 -0.0089320611955777968 0.034851572869718815 0.10771228923712411 -0.064764861935309226 -0.16486866480168152 -0.10934576764799532 -0.042376601544587465 0.00094171721513207753 1.3420870160664626 -0.10325753848170761 -0.87777391541436478 0.11945483702762716 -0.090612710678202604 -0.28170933889837779 0.39713142912254545 -0.16500006645164647
decision_type=2 2 2 2 2 2 2 2 2 2 2 2 2 2 2 2 2 2 2 2 2 2 2 2
left_child=7 15 3 4 5 6 8 18 11 -10 -11 12 -3 -14 -9 -2 -4 -6 -1 22 -21 -17 23 -20
right_child=1 2 16 -5 17 -7 -8 14 9 10 -12 -13 13 -15 -16 21 -18 -19 19 20 -22 -23 -24 -25
leaf_value=-0.067533832593109452 0.017213236063747885 -0.048880314089835925 0.065149406704773816 -0.047416968473345415 0.065125019458877553 -0.044733699461846473 0.065839770049437016 -0.0051751243162254622 -0.065652963059098721 0.042733234658410661 -0.026947487601259552 0.060340134225879728 0.071300329844285651 -0.017877963589113977 -0.069968066709521257 0.062591636946984733 0.022907266878013154 0.030752042034458124 -0.062750637036708287 -0.062832505693382307 -0.066259321523011089 0.063374209725003253 -0.063096391260628493 -0.062484284858606659
leaf_weight=3.7797479182481792 4.9963942766189566 4.2440563589334408 6.4712963551282865 5.7298667132854453 5.4744441658258438 8.6011519283056241 5.405069187283515 8.3850673884153348 5.4753828197717764 5.9719259738922101 6.3197917938232422 5.3102872073650387 4.7876360714435489 4.381018951535232 3.7366796135902396 4.4805994927883139 5.3840043842792511 3.9728018194437009 3.3982104808092135 3.8661179393529892 3.50357662141323 4.1416587680578223 3.2561194598674774 4.3166635185480118
leaf_count=21 27 19 37 28 31 37 26 38 24 28 31 24 24 22 20 28 25 20 21 24 20 25 20 27
internal_value=-0.0021547 0.0159456 0.0106344 0.00425652 0.00919587 0.00143651 0.0109153 -0.0503349 0.00277969 -0.0154543 0.00690686 0.0200827 0.00414424 0.0286886 -0.0251484 0.0461813 0.0459654 0.0506703 -0.0641369 -0.0634368 -0.0644616 0.0629675 -0.0627485 -0.0626016
internal_weight=125.39 91.1474 77.5287 65.6734 59.9436 50.4963 41.8952 34.2422 36.4901 17.7671 12.2917 18.723 13.4127 9.16866 12.1217 13.6187 11.8553 9.44725 22.1204 18.3407 7.36969 8.62226 10.971 7.71487
internal_count=647 456 376 314 286 235 198 191 172 83 59 89 65 46 58 80 62 51 133 112 44 53 68 48
is_linear=0
shrinkage=0.05


Tree=20
num_leaves=26
num_cat=0
split_feature=14 17 18 18 18 18 17 17 4 17 17 4 17 14 17 17 4 18 2 18 17 17 14 15 2
split_gain=43.3046 8.76782 8.82142 10.5257 6.66485 5.79945 3.74721 14.9787 5.04913 6.98379 3.159 3.75697 2.55391 1.88562 1.66218 3.36215 1.94727 0.535201 0.0668707 0.0125836 0.0108291 0.00375527 0.000695623 0.000234261 1.94678e-05
threshold=-0.058500557539209477 0.23487268975944395 0.64606687189115808 0.30586506971936628 0.13404317331304175 0.091318534717077821 -0.70336831578216452 -0.96532243113067762 -0.10674270488331128 -1.1403052720786142 0.50637355082147728 -0.17796469868065551 1.7145866895073716 -0.038984118983729221 -0.41684418373161175 -0.16655214569174093 -0.087700660990995091 0.34195195369153342 -0.46559451144107983 -0.73445902742320412 0.88031771076875731 -1.1776370650079933 -0.095960669245488878 0.086819331091158372 -0.42408762896376845
decision_type=2 2 2 2 2 2 2 2 2 2 2 2 2 2 2 2 2 2 2 2 2 2 2 2 2
left_child=20 6 3 4 5 -3 7 8 9 -2 -6 -12 -4 -8 19 16 -16 -17 -10 -15 21 -1 23 24 -23
right_child=1 2 12 -5 10 -7 13 -9 18 -11 11 -13 -14 14 15 17 -18 -19 -20 -21 -22 22 -24 -25 -26
leaf_value=-0.063854545458275208 -0.017447240665053015 -0.0039016450029216812 0.070183650461663014 -0.071747751731408987 -0.0056325284258271283 -0.074805740698643958 0.0072890827423246806 -0.054798564765906083 0.056639231254921943 0.066950614184921306 -0.0035174112853424097 0.055623104786059252 0.016915011670199331 0.062276556325988011 -0.0057427270504290147 0.067312499244496601 0.039195419506032149 0.04419117411675022 0.065600410843808341 0.066417854512632032 -0.065658698712922223 -0.06185849049551382 -0.06270755384796399 -0.06227024798297031 -0.061701781092033496
leaf_weight=3.7772015333175704 7.0777820944786098 8.2529667466878873 4.4804656654596311 6.1102706193923941 8.491371616721155 4.4329982548952094 3.9588856101036098 6.0915936827659598 3.2468274831771851 3.7497271448373803 4.183650895953174 7.4985117465257671 4.5201268345117569 3.4323899298906326 5.0773912668228149 5.5275066494941658 4.5898200422525459 4.5738444626331329 5.8020414263010025 3.9397492259740856 3.0499270856380454 3.2531064152717608 3.4950203299522373 3.1330689191818228 5.0713811963796616
leaf_count=23 34 36 22 30 35 21 22 30 20 20 21 37 25 22 23 30 21 26 34 22 18 21 22 20 33
internal_value=0.00126858 0.0145731 -0.00118306 -0.0114875 -0.000282015 -0.0286785 0.0278176 0.0137963 0.0348189 0.011781 0.0175749 0.0344435 0.043432 0.0395253 0.0442274 0.0366711 0.0155931 0.0568433 0.062385 0.0644897 -0.0628958 -0.0624459 -0.0620901 -0.0619017 -0.061763
internal_weight=126.818 105.038 47.9704 38.9698 32.8595 12.686 57.0676 25.968 19.8764 10.8275 20.1735 11.6822 9.00059 31.0996 27.1407 19.7686 9.66721 10.1014 9.04887 7.37214 21.7797 18.7298 14.9526 11.4576 8.32449
internal_count=668 531 227 180 150 57 304 138 108 54 93 58 47 166 144 100 44 56 54 44 137 119 96 74 54
is_linear=0
shrinkage=0.05


Tree=21
num_leaves=26
num_cat=0
split_feature=14 17 17 17 17 17 4 17 17 4 4 15 17 4 14 3 17 15 15 2 17 17 14 15 2
split_gain=40.4924 8.10413 8.30748 7.48716 5.6401 8.24736 4.15302 3.45349 13.7706 4.83274 6.11333 2.36207 2.07727 2.05745 1.28416 1.00546 1.61212 2.33239 0.951424 0.0633899 0.00917953 0.00316398 0.000587441 0.000198275 1.61818e-05
threshold=-0.058500557539209477 0.23487268975944395 1.7560382168987789 0.88031771076875731 1.5450386291819871 1.2039057810186846 -0.11212724975888039 -0.70336831578216452 -0.96532243113067762 -0.10674270488331128 -0.21563106351603969 -1.0000000180025095e-35 0.44043180487045658 -0.2061390127191412 -0.037789834219026312 0.38455609337847485 -0.41684418373161175 -0.035432967612155607 -0.044897072007540208 -0.32683600602115886 0.88031771076875731 -1.1776370650079933 -0.095960669245488878 0.086819331091158372 -0.42408762896376845
decision_type=2 2 2 2 2 2 2 2 2 2 2 2 2 2 2 2 2 2 2 2 2 2 2 2 2
left_child=20 7 3 6 5 -5 12 8 9 10 -2 -8 -3 -9 -15 16 -16 -18 -14 -11 21 -1 23 24 -23
right_child=1 2 -4 4 -6 -7 11 13 -10 19 -12 -13 18 14 15 -17 17 -19 -20 -21 -22 22 -24 -25 -26
leaf_value=-0.063015344896759043 0.065244059198154444 0.0034412542327708555 0.062480511156132561 -0.053615236920513724 -0.085648772582236077 0.037085524258374102 -0.042261110699424655 0.0040049139884421941 -0.052808039092596938 0.056118770439324367 -0.015082963664740613 0.0067322001198065725 0.055264055180657384 0.016843091946867436 0.063262975055720552 0.067824748046423855 0.0019017552119536944 0.048207538298155939 0.023479112439957317 0.064821856182294246 -0.064710288048455439 -0.061147264238959192 -0.061943454888893704 -0.061534244551288531 -0.0610015936728091
leaf_weight=3.6396153867244765 3.5275098234415081 8.6149823516607302 4.6295164525508872 6.2476457804441434 4.2347597330808631 4.1852571815252304 5.187204897403717 3.8230756521225002 6.0073160529136649 3.4652086198329926 7.2097159475088128 4.6794540286064166 4.1596417278051367 3.9328529834747377 6.0465850234031775 4.908795401453971 4.2529748529195874 7.5414118617772878 5.4247550815343848 5.2806315869092941 2.9426167011260977 3.1295272558927554 3.3645319640636417 3.0150065273046485 4.878009244799614
leaf_count=23 20 36 29 31 19 20 24 19 30 22 34 22 20 22 38 27 21 39 26 32 18 21 22 20 33
internal_value=0.00123006 0.0140826 -0.00114064 -0.00803298 -0.0369833 -0.0172298 0.00709681 0.0269589 0.013375 0.0337816 0.0113069 -0.0190251 0.0212586 0.0383094 0.0432246 0.0477853 0.0422716 0.03151 0.0372738 0.0613736 -0.062121 -0.0616983 -0.0613652 -0.0611886 -0.0610585
internal_weight=124.329 103.359 47.3632 42.7337 14.6677 10.4329 28.066 55.9961 25.4904 19.4831 10.7372 9.86666 18.1994 30.5057 26.6826 22.7498 17.841 11.7944 9.5844 8.74584 20.9693 18.0267 14.3871 11.0225 8.00754
internal_count=668 531 227 198 70 51 128 304 138 108 54 46 82 166 147 125 98 60 46 54 137 119 96 74 54
is_linear=0
shrinkage=0.05


Tree=22
num_leaves=25
num_cat=0
split_feature=14 17 17 16 17 14 17 17 18 18 18 17 17 18 3 0 0 0 17 17 15 14 15 17
split_gain=37.8815 7.54764 8.05269 7.07621 7.17735 3.19454 2.97949 3.71785 2.92288 3.8139 3.53761 6.59771 2.44487 1.71902 1.85087 1.72775 2.81714 0.0433847 0.00779257 0.0026702 0.00110903 0.000496875 0.000168072 4.55148e-06
threshold=-0.058500557539209477 0.34808291823979598 1.7560382168987789 1.0000000180025095e-35 1.5450386291819871 0.046927433836813082 0.96556293439606422 0.57302391301310973 -0.36855125348812184 -0.16486866480168152 -0.10568008084794782 -0.70336831578216452 -1.2171674370415901 0.47167798563712882 0.72286633127717537 0.57623947525031094 -0.2644398104846451 -0.31408389172402257 0.88031771076875731 -1.1776370650079933 -0.046331748962148853 -0.095960669245488878 0.086819331091158372 -0.030570737013535736
decision_type=2 2 2 2 2 2 2 2 2 2 2 2 2 2 2 2 2 2 2 2 2 2 2 2
left_child=18 8 3 -3 5 6 7 -5 12 -10 -11 -12 -2 14 15 16 -13 -14 19 -1 -19 22 23 -21
right_child=1 2 -4 4 -6 -7 -8 -9 9 10 11 13 17 -15 -16 -17 -18 20 -20 21 -22 -23 -24 -25
leaf_value=-0.062236516470246729 0.012212428779911097 0.025076641120849744 0.061725041846728924 -0.01194976113469641 -0.08299709827430235 -0.04018186431856776 -0.030876271293023463 0.044105760310563749 -0.024710559752156403 0.063640702001381402 -0.021492983187141851 0.0041784364835217866 0.055067934882097103 0.054580616640763503 0.052947408891524252 -0.010093223055906262 0.051723125841197794 0.061479302021910945 -0.063830557149707867 -0.060372803862707741 0.062821807671550378 -0.061233580431894842 -0.060850208184266411 -0.060451630931017165
leaf_weight=3.5043310075998351 3.7997521311044684 10.921911180019377 4.456258386373519 6.4789291918277829 4.1536009162664405 7.1018193364143363 5.4885434210300437 5.4430036991834641 4.4247437417507163 4.9803123325109473 7.9373278319835618 6.8063410520553607 3.2967409491538993 5.7567253410816184 4.343539133667945 4.5256085991859427 5.7457388043403732 2.9705940485000601 2.8366987556219092 4.6955162882804897 3.1906258165836334 3.2366001009941074 2.8993824422359467 3.0019814223051062
leaf_count=23 23 46 29 30 19 33 29 28 21 30 39 33 22 33 24 22 30 20 18 33 20 22 20 21
internal_value=0.00119232 0.0135943 -0.00199739 -0.0091704 -0.0222188 -0.0119199 -0.000391695 0.0136426 0.0254797 0.0193428 0.0242044 0.0186112 0.0460879 0.0303236 0.0238048 0.0163927 0.0259421 0.0596974 -0.0614012 -0.0610037 0.0621745 -0.0606914 -0.0605258 -0.0604035
internal_weight=121.997 101.822 44.0441 39.5878 28.6659 24.5123 17.4105 11.9219 57.778 44.5203 40.0956 35.1153 13.2577 27.178 21.4212 17.0777 12.5521 9.45796 20.1745 17.3378 6.16122 13.8335 10.5969 7.6975
internal_count=668 531 214 185 139 120 87 58 317 232 211 181 85 142 109 85 63 62 137 119 40 96 74 54
is_linear=0
shrinkage=0.05


Tree=23
num_leaves=26
num_cat=0
split_feature=14 17 18 18 18 18 17 14 17 17 4 2 17 4 0 14 14 18 0 17 14 17 14 1 18
split_gain=35.4523 6.95947 7.7734 9.61399 5.52351 5.84522 2.96435 3.5921 2.94236 12.3946 4.54893 5.54436 2.44747 2.01748 2.71634 1.03191 0.816067 1.4127 0.0809152 0.00662375 0.00465856 0.00225687 0.000420872 0.000141129 3.72568e-06
threshold=-0.058500557539209477 0.23487268975944395 0.64606687189115808 0.30586506971936628 0.13404317331304175 -0.0044220742351528536 0.50637355082147728 -0.013686068213533969 -0.70336831578216452 -0.96532243113067762 -0.10674270488331128 -0.1887562094571206 1.7145866895073716 -0.2061390127191412 1.0085984612117016 -0.035385583246690465 0.036738399696830272 0.18799177206095771 -0.03740988359329514 0.88031771076875731 0.0017156264890436765 -1.1776370650079933 -0.095960669245488878 -0.23914899844891982 -0.042508482991276922
decision_type=2 2 2 2 2 2 2 2 2 2 2 2 2 2 2 2 2 2 2 2 2 2 2 2 2
left_child=19 8 3 4 5 -3 -6 -8 9 10 11 -2 -4 -10 15 -15 20 -18 -12 21 -17 -1 23 -23 -25
right_child=1 2 12 -5 6 -7 7 -9 13 -11 18 -13 -14 14 -16 16 17 -19 -20 -21 -22 22 -24 24 -26
leaf_value=-0.061512600904732831 0.048905276315109096 0.021423569423931366 0.068503016513974377 -0.069943715548732063 -0.006043707482112172 -0.051366257794699832 -0.0010470729845830165 0.056524377850548625 0.0017642787477310979 -0.051067432392039362 0.063898009375952566 -0.023682330062712757 0.015008914373764649 0.024190416447141077 0.0038168681872866638 0.062671281012888644 0.023976033706664183 0.064362903564214716 0.053656578509340018 -0.063013174145458359 0.064993142899257936 -0.060152116857033339 -0.060573125267295518 -0.059806803695716539 -0.059730509482498119
leaf_weight=3.3716541528701827 4.9784373492002514 4.19291067123413 4.3029700815677625 5.8247230648994437 8.4653651565313357 8.0593390762805956 4.5629739612340918 6.6698221564292899 3.7653436213731792 5.8442349433898917 5.1881382316350937 5.5783416777849206 4.2500879913568497 3.7399881333112779 4.1323494762182227 5.5394747853279132 4.8044471293687803 3.9416715502738953 3.0697858184576035 2.7324620634317389 3.5414348244667053 3.7565161585807827 3.1114644855260822 3.0155876278877285 3.4091506600379908
leaf_count=23 27 18 22 30 35 39 22 36 19 30 33 27 25 21 22 35 24 24 21 18 21 27 22 22 25
internal_value=0.00115415 0.013104 -0.00112093 -0.0108666 -9.65053e-05 -0.0264564 0.0162994 0.0331378 0.0252801 0.0125366 0.0322933 0.010549 0.0419213 0.0359451 0.0409531 0.0480686 0.0530781 0.0421775 0.0600909 -0.0607314 0.0635768 -0.0603572 -0.0600642 -0.0599087 -0.0597663
internal_weight=119.849 100.452 46.3282 37.7751 31.9504 12.2522 19.6982 11.2328 54.1236 24.6589 18.8147 10.5568 8.55306 29.4647 25.6994 21.567 17.827 8.74612 8.25792 19.3968 9.08091 16.6644 13.2927 10.1813 6.42474
internal_count=668 531 227 180 150 57 93 58 304 138 108 54 47 166 147 125 104 48 54 137 56 119 96 74 47
is_linear=0
shrinkage=0.05


Tree=24
num_leaves=26
num_cat=0
split_feature=14 18 18 18 18 18 18 18 18 18 18 14 2 14 14 18 4 14 1 2 18 4 14 0 0
split_gain=33.2154 5.82075 6.57784 6.70114 6.26181 7.49599 6.49129 14.4701 7.51061 4.98221 4.87604 3.8137 2.59058 2.49819 1.77656 1.68218 1.01753 0.530338 0.261359 0.046009 0.00399103 0.00534334 0.00309104 0.000459422 0.00173199
threshold=-0.058500557539209477 -0.36855125348812184 0.64606687189115808 0.38595096555025571 -0.16486866480168152 -0.10568008084794782 0.18223997967870423 0.16747788340940198 0.11945483702762716 -0.0089320611955777968 0.034851572869718815 -0.045842979721183487 0.5798453269923135 -0.014472629064303797 -0.0025183514757739322 1.1894801486944873 -0.085741452351773564 0.054537171845684872 0.11884071187761973 -0.98216191618013771 0.11945483702762716 -0.12279388583219943 0.015764944871933462 0.2365958914006778 -0.054056409649190305
decision_type=2 2 2 2 2 2 2 2 2 2 2 2 2 2 2 2 2 2 2 2 2 2 2 2 2
left_child=20 12 3 4 -3 -6 7 8 9 16 -11 -10 19 -8 -12 -4 -7 -15 -13 -2 23 -22 -21 24 -1
right_child=1 2 15 -5 5 6 13 -9 11 10 14 18 -14 17 -16 -17 -18 -19 -20 22 21 -23 -24 -25 -26
leaf_value=-0.059253184156650388 0.053283019841689407 -0.042374942253247616 0.063988468076318458 -0.044971487078723879 0.065302776588305259 0.036918189075714057 0.0075016968237660402 -0.08243967113223527 0.010515767148209433 -0.064854541603511257 -0.030864777216870889 0.050480629229360474 0.0079634445054389078 0.0409189596938557 0.014111371782144264 0.024944181316972167 0.0022071480112780036 0.065927566292025633 0.069121467482740589 0.061980245979458316 -0.059687503578922524 -0.062588250662603456 0.059743925096666831 -0.05917591216740508 -0.060801320505888927
leaf_weight=5.0057880580425271 2.9074992239475241 5.7847496569156567 5.4053350836038572 6.7059016525745383 5.9665523618459622 4.3104122579097748 4.5597722530364981 5.0509783625602713 8.1191975474357587 5.6180762946605922 3.8794311881065253 3.7099526673555365 3.5212685689330092 4.249303072690962 5.0585546046495535 5.6340505480766296 4.1383319497108371 4.2303023040294647 3.8130029141902924 3.2224719524383536 3.2033610045909882 3.1474097669124594 2.9686121121048927 4.4541018605232239 2.8268499523401269
leaf_count=38 20 27 34 36 36 20 24 22 34 26 21 20 22 24 26 31 20 25 20 21 24 21 22 34 20
internal_value=0.00111916 0.0126626 0.00802116 0.00272999 0.00740056 0.0119926 0.00638646 -0.00285199 0.00754975 -0.0106259 -0.0283533 0.0342805 0.0443783 0.0373466 -0.00541001 0.0440619 0.0199162 0.0533952 0.0599287 0.0584714 -0.0601074 -0.0611251 0.0609079 -0.0595814 -0.0598119
internal_weight=117.491 98.8538 86.2339 75.1945 68.4886 62.7039 56.7373 43.6979 38.647 23.0048 14.5561 15.6422 12.6199 13.0394 8.93799 11.0394 8.44874 8.47961 7.52296 9.09858 18.6375 6.35077 6.19108 12.2867 7.83264
internal_count=668 531 446 381 345 318 282 209 187 113 73 74 85 73 47 65 40 49 40 63 137 45 43 92 58
is_linear=0
shrinkage=0.05


Tree=25
num_leaves=25
num_cat=0
split_feature=14 18 17 18 18 18 14 17 17 0 4 4 17 15 14 15 1 18 17 18 17 15 14 4
split_gain=28.2769 7.21192 9.98921 8.55316 6.29579 6.05295 5.14393 3.10308 3.58441 2.66991 2.35647 3.72339 5.00515 2.83831 2.00419 1.33797 1.27167 1.10488 0.772047 0.00907285 0.000695368 0.000667201 0.000101409 1.49338e-05
threshold=-0.058500557539209477 0.64606687189115808 0.23487268975944395 0.30586506971936628 0.13404317331304175 -0.0044220742351528536 -0.053186163012162412 0.50637355082147728 1.007400875509006 -1.3990514833519938 -0.054625018791655024 -0.12335875949370789 -0.39194491920514535 0.051201678619872314 0.013564902328745238 -0.17862432405160289 0.011360147992335793 0.091318534717077821 -0.96532243113067762 0.15847950897040622 -1.1403052720786142 -0.12129024843211329 -0.098107992881967282 -0.121491943365739
decision_type=2 2 2 2 2 2 2 2 2 2 2 2 2 2 2 2 2 2 2 2 2 2 2 2
left_child=19 2 6 4 5 -4 -2 -6 -9 -8 11 13 14 15 -13 -11 -3 -7 21 20 -1 -12 23 -22
right_child=1 16 3 -5 7 17 9 8 -10 10 18 12 -14 -15 -16 -17 -18 -19 -20 -21 22 -23 -24 -25
leaf_value=-0.059717645662042997 -0.040045358753703728 0.064647897064799079 0.019717309617245691 -0.070280853870810317 -0.010560517970234058 -0.03539201793535144 -0.025125324879602541 0.061994102722468504 0.0048304502206016099 0.029154436068513975 0.059274691270860158 0.0024808690080084512 0.046426492997086836 0.0078376979248279896 -0.041630658705144125 0.066661701712279059 0.028486100953494294 -0.070358308361534727 0.034490422696787384 -0.061519757511035868 -0.058611630576078926 0.060371249163181345 -0.059069656801537009 -0.058761509919097545
leaf_weight=2.6464715376496324 3.3126756548881522 5.957657188177107 4.1358976364135751 5.7749982029199591 7.1885905563831356 4.4099593907594681 2.5565994083881369 5.1702296584844571 5.8397467434406281 3.7820964753627715 2.6302712708711624 5.9455441907048208 4.4974450841546085 5.379598192870616 4.5421732664108276 6.403156317770482 4.1071956008672714 4.6323788613080978 6.5106350779533404 5.0633979812264434 2.7567851915955544 2.9351588785648346 2.5696841925382614 4.1850240975618362
leaf_count=20 18 37 18 30 30 21 13 29 29 21 20 35 24 29 23 37 24 24 35 36 22 21 20 33
internal_value=-0.000758762 0.00985392 0.00514893 -0.0143603 -0.0040679 -0.0303876 0.0200947 0.0149911 0.0316742 0.024504 0.0274807 0.0200894 0.00229941 0.0372168 -0.0166236 0.0527341 0.0498912 -0.0533052 0.0461791 -0.0597414 -0.0590008 0.059853 -0.0588013 -0.058702
internal_weight=112.933 95.712 85.6472 37.1518 31.3768 13.1782 48.4954 18.1986 11.01 45.1827 42.6261 30.55 14.9852 15.5649 10.4877 10.1853 10.0649 9.04234 12.0761 17.2214 12.158 5.56543 9.51149 6.94181
internal_count=649 518 457 181 151 63 276 88 58 258 245 169 82 87 58 58 61 45 76 131 95 41 75 55
is_linear=0
shrinkage=0.05


Tree=26
num_leaves=24
num_cat=0
split_feature=14 18 17 16 14 18 18 18 0 17 17 18 18 18 17 18 1 17 1 1 18 17 3
split_gain=26.5554 6.72169 9.16598 9.34946 4.7235 4.67609 4.85501 5.11842 3.39995 2.94441 6.21526 2.18736 2.49467 7.52613 4.36477 6.50526 2.79766 1.66272 3.77538 1.25946 0.00773254 0.000591199 0.000121375
threshold=-0.058500557539209477 0.64606687189115808 0.23487268975944395 1.0000000180025095e-35 -0.053186163012162412 0.30586506971936628 0.18223997967870423 -0.0044220742351528536 -1.5362647396340534 0.50637355082147728 0.88031771076875731 -1.8374173139954781 0.18799177206095771 0.16429580106234667 -1.2514293561585033 0.065417860074218986 0.50490149078903823 -0.54903619528403069 -0.20639783878947093 0.011360147992335793 0.15847950897040622 -1.1403052720786142 -0.055429284742513941
decision_type=2 2 2 2 2 2 2 2 2 2 2 2 2 2 2 2 2 2 2 2 2 2 2
left_child=20 2 4 -4 -2 6 7 -5 -6 -9 -11 -10 13 14 -13 16 17 18 -16 -3 21 -1 -23
right_child=1 19 3 5 8 -7 -8 9 11 10 -12 12 -14 -15 15 -17 -18 -19 -20 -21 -22 22 -24
leaf_value=-0.059161949943536546 -0.038779995513394318 0.06378822008041718 0.030846902313559878 0.018786231428028072 -0.036287933862547389 -0.068973792615549742 0.027482755883387527 -0.076619648389502401 0.061105424888261463 0.01782736714157605 -0.067217007573507973 0.064607547641252483 0.05082407223921738 -0.049983353232898403 0.031803172299388137 0.064562224626100798 -0.034616655813242761 0.038228446162097113 -0.035738020130628927 0.027397476164830237 -0.060859911637558654 -0.058477213176671344 -0.058112350548328362
leaf_weight=2.5404464453458795 3.2513092905282965 5.7415292114019376 8.867040276527403 4.1241414994001451 2.2466967999935141 5.5947845429182044 4.6686640828847876 4.7343915402889278 4.1938337534666053 4.0260872542858106 4.6063850969076157 5.8110420405864707 6.6723584681749335 3.6839870214462271 4.3334743976593044 5.2228880226612082 4.211201883852481 4.1804635822773077 3.9594545960426322 4.0581469908356667 4.8673460111021987 4.6802350357174873 4.443275660276413
leaf_count=20 18 37 38 18 11 30 28 22 29 20 25 37 38 17 30 31 20 24 21 24 36 38 37
internal_value=-0.000736679 0.00952199 0.00497026 -0.0138495 0.0193988 -0.0281291 -0.0178168 -0.0299081 0.0236481 -0.044932 -0.0275533 0.0268339 0.023059 0.0171595 0.0260832 0.0158645 0.000620337 0.0125169 -0.000444335 0.0487184 -0.0591859 -0.0584874 -0.0582995
internal_weight=110.719 94.1879 84.3882 36.6215 47.7667 27.7545 22.1597 17.491 44.5154 13.3669 8.63247 42.2687 38.0749 31.4025 27.7185 21.9075 16.6846 12.4734 8.29293 9.79968 16.5313 11.664 9.12351
internal_count=649 518 457 181 276 143 113 85 258 67 45 247 218 180 163 126 95 75 51 61 131 95 75
is_linear=0
shrinkage=0.05


Tree=27
num_leaves=24
num_cat=0
split_feature=14 18 18 18 18 18 15 15 1 18 0 3 1 18 14 14 14 1 3 18 3 18 18
split_gain=24.9601 6.26039 6.98562 6.42684 7.50668 7.35064 4.70695 4.80319 4.58529 2.50284 2.49153 2.4285 2.26293 2.16324 3.31252 1.53408 1.42118 1.24862 0.0544807 0.00659601 0.000406234 0.000810165 6.50785e-06
threshold=-0.058500557539209477 0.64606687189115808 0.30586506971936628 0.21211163571164152 0.16747788340940198 0.17851142444847665 0.030529990541781089 0.48342706851362277 0.011360147992335793 0.10621156530699079 0.7496877475954169 0.43822440286629993 -0.21834187460210483 -0.36855125348812184 0.03568505743152308 -0.056053144630486877 -0.021277337636136085 0.011360147992335793 0.088627192084929488 0.15847950897040622 -0.01374514208788421 -0.047118024234334789 -0.0089320611955777968
decision_type=2 2 2 2 2 2 2 2 2 2 2 2 2 2 2 2 2 2 2 2 2 2 2
left_child=19 2 3 4 6 -6 8 11 13 10 -10 12 -8 -2 15 -15 -4 -3 -5 20 21 -1 -22
right_child=1 17 16 18 5 -7 7 -9 9 -11 -12 -13 -14 14 -16 -17 -18 -19 -20 -21 22 -23 -24
leaf_value=-0.057754525825367733 0.041983170010149104 0.062988576428740103 -0.01726219223997923 0.063064637806251655 -0.079621742721384212 0.0062384483125564501 0.022826637692727973 0.034821513038050762 0.011793871751919998 0.078474688222772968 0.059848802243956903 -0.053393858119342136 -0.025116278154622924 -0.0023059717971554102 -0.027117115315235703 0.032419950052038612 -0.059382092481644937 0.026343358606273223 0.053628934534018485 -0.060243480624137924 -0.057705924500798526 -0.058868831831149854 -0.057586996816366746
leaf_weight=3.6018732637166968 3.9978794828057209 5.529080927371977 3.7946865260601044 3.2292947322130194 4.7839981317520124 5.2047925293445587 3.7081790044903755 5.0548349544405928 6.4709677770733816 3.8807826191186896 4.625273771584034 4.2734235823154441 7.3197093009948748 5.8902480751275954 6.6210384219884864 6.9129770696163364 4.2408475726842862 4.0107368975877762 2.9068424627184868 4.6761343330144873 2.314045138657093 2.9813694357872009 2.2873132452368727
leaf_count=31 30 37 22 20 21 25 22 30 36 21 26 23 39 25 35 39 23 24 20 36 20 24 20
internal_value=-0.000716806 0.00922446 0.00481124 0.00956544 0.00518906 -0.0348831 0.0120016 -0.0074354 0.0223055 0.0439125 0.0318247 -0.0213951 -0.00899525 0.00848922 0.00159554 0.016444 -0.0394915 0.0475822 0.0585947 -0.0586665 -0.0580072 -0.0582592 -0.0576468
internal_weight=108.316 92.4556 82.9158 74.8802 68.7441 9.98879 58.7553 20.3561 38.3992 14.977 11.0962 15.3013 11.0279 23.4221 19.4243 12.8032 8.03553 9.53982 6.13614 15.8607 11.1846 6.58324 4.60136
internal_count=649 518 457 412 372 46 326 114 212 83 62 84 61 129 99 64 45 61 40 131 95 55 40
is_linear=0
shrinkage=0.05


Tree=28
num_leaves=25
num_cat=0
split_feature=14 18 17 16 14 18 18 18 0 17 17 4 4 17 15 3 14 17 17 14 18 15 17 3
split_gain=23.4584 5.84239 8.22802 8.40516 4.36637 4.16889 4.10972 4.62836 3.07811 2.60817 5.7556 2.08399 3.07344 4.4614 2.53838 1.80247 1.35026 1.2847 0.832539 0.00843486 0.00563208 0.000716112 0.000433992 8.55264e-05
threshold=-0.058500557539209477 0.64606687189115808 0.23487268975944395 1.0000000180025095e-35 -0.053186163012162412 0.30586506971936628 0.18223997967870423 -0.0044220742351528536 -1.5362647396340534 0.50637355082147728 0.88031771076875731 -0.054625018791655024 -0.12335875949370789 -0.39194491920514535 0.051201678619872314 -0.016897819404208224 0.036738399696830272 1.7145866895073716 -0.96532243113067762 -1.0000000180025095e-35 0.15847950897040622 -0.089762924220539567 -1.1403052720786142 -0.055429284742513941
decision_type=2 2 2 2 2 2 2 2 2 2 2 2 2 2 2 2 2 2 2 2 2 2 2 2
left_child=20 2 4 -4 -2 6 7 -5 -6 -9 -11 12 14 15 16 -14 19 -3 21 -10 22 -13 -1 -24
right_child=1 17 3 5 8 -7 -8 9 11 10 -12 18 13 -15 -16 -17 -18 -19 -20 -21 -22 -23 23 -25
leaf_value=-0.05815991086973802 -0.03789126448743961 0.059929695082595213 0.028994339095422934 0.017631591243916247 -0.034434054535309365 -0.067022970057603201 0.024949537797796437 -0.073898926738001566 0.065557775319092002 0.016770301150676358 -0.066095285013270041 0.058316464474760833 0.0016544961699140064 0.044510729684122341 0.0070695843812148456 -0.0410923356830461 0.024149246447131876 0.020764797590851123 0.031702649071085082 0.061885991546587998 -0.059666962175015929 0.05949636217186749 -0.057545164662230641 -0.057225618687881855
leaf_weight=2.3384439051151267 3.192727878689765 6.0965627655386907 8.7952447533607465 4.0857354402542176 2.2346997261047354 5.3061325550079337 4.5007530599832526 4.5491483509540585 3.3427282720804135 3.9763012379407865 4.4300948232412338 2.6748047098517418 6.1567638143897048 4.4411364495754233 5.2732445895671836 4.1137823686003676 3.2520501241087914 3.1891685277223587 6.2169739454984718 2.9395369589328793 4.4899636432528487 2.4767100661993027 4.3005018383264524 4.0811770036816597
leaf_count=20 18 39 38 18 11 30 28 22 20 20 25 22 36 25 29 23 18 22 35 20 36 19 38 37
internal_value=-0.000692612 0.00889037 0.00463171 -0.0134272 0.0185296 -0.0273242 -0.0175458 -0.0287692 0.0227069 -0.0434024 -0.0268991 0.0258299 0.0188247 0.00263869 0.034906 -0.0154674 0.0503017 0.0464786 0.0440195 0.0638397 -0.0581803 0.0588837 -0.0575576 -0.0573896
internal_weight=106.454 91.2443 81.9586 35.6434 46.3152 26.8482 21.542 17.0413 43.1224 12.9555 8.4064 40.8877 29.5192 14.7117 14.8076 10.2705 9.53432 9.28573 11.3685 6.28227 15.2101 5.15151 10.7201 8.38168
internal_count=649 518 457 181 276 143 113 85 258 67 45 247 171 84 87 59 58 61 76 40 131 41 95 75
is_linear=0
shrinkage=0.05


Tree=29
num_leaves=23
num_cat=0
split_feature=18 17 16 18 18 18 18 17 18 18 18 18 18 17 17 17 20 18 17 4 17 1
split_gain=6.90205 5.92389 6.75006 3.21588 3.94146 2.98866 2.72497 2.65023 5.72637 2.55063 2.40447 5.44294 4.62838 5.30273 2.15836 4.95632 1.87156 2.64788 1.5453 1.27279 0.238002 0.174592
threshold=0.64606687189115808 0.23487268975944395 1.0000000180025095e-35 0.30586506971936628 0.18223997967870423 -1.8374173139954781 -0.0044220742351528536 -1.2647499072213282 0.065417860074218986 -0.10934576764799532 -0.0089320611955777968 -0.052013142925004786 -0.10568008084794782 -1.1403052720786142 0.50637355082147728 0.88031771076875731 0.93848046133640872 0.17099763330188142 1.7145866895073716 -0.12206696207414887 0.50637355082147728 -0.084429639743899512
decision_type=2 2 2 2 2 2 2 2 2 2 2 2 2 2 2 2 2 2 2 2 2 2
left_child=1 5 20 4 6 -1 -4 9 10 -7 11 12 13 -9 -8 -16 17 -10 21 -15 -3 -2
right_child=18 2 3 -5 -6 7 14 8 16 -11 -12 -13 -14 19 15 -17 -18 -19 -20 -21 -22 -23
leaf_value=0.044190336524613044 0.063249727920801302 0.0094725459941463162 -0.0031732832845857506 -0.065272373258638314 0.017236870865752388 0.057140043526781252 -0.069790305082457246 -0.056763821686183248 0.034961737935052889 0.0015469075155313179 -0.053754894861648875 0.037822507142698414 -0.074002347342665975 0.040646109439788344 0.0088916387964978107 -0.063865357062628303 0.043831463363338007 -0.01263256953659141 0.013106095456173287 -0.0012667136130346556 0.024985531010539047 0.046342396892696099
leaf_weight=4.6947259902954093 3.0971632823348045 5.4087092131376249 5.5851485654711786 5.5445381477475157 4.8602676615118972 3.9752822443842888 5.2795336917042759 4.0135261043906194 5.1975295990705508 4.2895525619387609 4.0309236943721798 4.3802616149187115 3.7108314484357825 2.8381507173180562 4.3968963846564275 5.0053782165050507 5.3447843194007865 6.6758267283439636 3.4631596356630325 5.0067648813128489 4.5543889105319977 3.0116833075880987
leaf_count=36 21 22 32 34 32 27 30 27 33 28 23 25 22 20 24 32 37 39 25 37 23 20
internal_value=-0.000675861 -0.00476183 -0.0191919 -0.0308064 -0.0232012 0.00606504 -0.0328988 0.00244645 -0.00273731 0.0282865 -0.0185328 -0.011416 -0.0252687 -0.0100186 -0.0442067 -0.0298411 0.0192618 0.00820171 0.0397881 0.0138966 0.0165639 0.0549144
internal_weight=104.365 94.793 40.6349 30.6718 25.1272 54.1582 20.267 49.4634 41.1986 8.26483 23.9805 19.9495 15.5693 11.8584 14.6818 9.40227 17.2181 11.8734 9.57201 7.84492 9.9631 6.10885
internal_count=649 583 229 184 150 354 118 318 263 55 154 131 106 84 86 56 109 72 66 57 45 41
is_linear=0
shrinkage=0.05


Tree=30
num_leaves=27
num_cat=0
split_feature=14 18 17 17 18 18 18 18 17 18 18 18 17 14 17 2 14 15 14 3 17 17 1 1 2 14
split_gain=20.8622 5.97257 5.79226 12.4439 5.61643 7.63675 11.154 13.2803 8.0274 8.23736 5.94386 12.0557 6.39724 2.77888 2.66841 2.33788 1.95063 1.41764 0.226073 0.158632 0.151488 0.00239607 0.000643353 0.00035494 0.000670324 9.17581e-05
threshold=-0.058500557539209477 -0.36855125348812184 1.7560382168987789 1.5450386291819871 0.77028459817993766 0.30586506971936628 0.18223997967870423 0.16747788340940198 -0.96532243113067762 -0.064764861935309226 -0.0089320611955777968 0.034851572869718815 0.88031771076875731 -0.010751043087121983 -1.2171674370415901 -0.46559451144107983 -0.047896520983977668 -0.029401972989057747 0.015764944871933462 0.19238288611103357 0.57302391301310973 0.88031771076875731 0.15470793781220335 0.096099678424020576 -0.23811467151817198 -0.12048292263537337
decision_type=2 2 2 2 2 2 2 2 2 2 2 2 2 2 2 2 2 2 2 2 2 2 2 2 2 2
left_child=21 14 3 4 5 6 7 8 15 -10 -11 -12 16 -7 -2 -3 -13 -18 -17 22 -8 23 -16 24 -1 -25
right_child=1 2 -4 -5 -6 13 20 -9 9 10 11 12 -14 -15 19 18 17 -19 -20 -21 -22 -23 -24 25 -26 -27
leaf_value=-0.057002869163374319 0.00080045526976219451 0.010409022209453922 0.058622454699344323 -0.086267915251012975 0.057114403943220385 -0.017094208008795252 0.053199962806667514 -0.074457943494745563 -0.053950722571528192 0.055529756427734757 -0.074515327386021915 0.010394229140146108 -0.040314477306866624 -0.075946679410426682 0.058618993513179375 0.066989015478009326 0.024250530717282011 0.066262377210541221 0.049220864577152169 0.04489497207863509 0.066519339738619412 -0.058912677208762726 0.059666782907032624 -0.056755823343519744 -0.058084058603060484 -0.057154301642546923
leaf_weight=3.307368241250515 3.1481276527047148 3.496955431997776 4.3796119764447203 4.0095788836479178 4.6909831240773192 4.1923595666885376 4.4852522909641248 5.6463809609413138 6.8680489808320848 5.1697995811700705 4.8042104393244243 7.5761398673057476 4.2941649705171576 3.8456570953130704 3.2961030304431898 4.5098302215337593 3.9226513803005139 4.1138874068856408 2.9686282873153687 2.9483817741274834 4.0736303329467773 2.4520889222621909 2.6371365785598755 3.4545154646039 2.5303616821765882 2.4831564724445352
leaf_count=31 22 21 35 20 32 27 28 27 33 26 24 33 23 22 27 27 22 24 19 22 24 21 20 33 22 23
internal_value=-0.00102239 0.00742759 0.00265806 -0.000457589 0.0041509 0.000599959 0.00655111 -0.00194644 0.00663257 -0.00457408 0.00677504 -0.00342494 0.0137316 -0.0452512 0.0403542 0.0441557 0.0285967 0.0457563 0.0599358 0.0543742 0.0595394 -0.0574908 0.0590847 -0.0571947 -0.0574715 -0.0569225
internal_weight=109.305 95.0775 83.0478 78.6682 74.6586 69.9676 61.9296 53.3707 47.7243 36.7489 29.8809 24.7111 19.9068 8.03802 12.0297 10.9754 15.6127 8.03654 7.47846 8.88162 8.55888 14.2275 5.93324 11.7754 5.83773 5.93767
internal_count=688 558 467 432 412 380 331 279 252 185 152 126 102 49 91 67 79 46 46 69 52 130 47 109 53 56
is_linear=0
shrinkage=0.05


Tree=31
num_leaves=27
num_cat=0
split_feature=14 18 17 17 18 18 18 18 17 18 18 18 17 14 14 2 2 2 14 0 17 4 4 17 0 18
split_gain=19.6586 5.55195 5.46621 11.4846 5.25084 7.0045 10.41 12.332 7.42558 7.51042 5.45995 11.1885 5.8438 2.69816 2.64129 2.25314 1.85584 0.566341 0.222409 0.187513 0.00205547 0.000701481 0.000297584 0.000472746 0.000395709 0.000183538
threshold=-0.058500557539209477 -0.36855125348812184 1.7560382168987789 1.5450386291819871 0.77028459817993766 0.30586506971936628 0.18223997967870423 0.16747788340940198 -0.96532243113067762 -0.064764861935309226 -0.0089320611955777968 0.034851572869718815 0.88031771076875731 0.00094171721513207753 -0.010751043087121983 -0.46559451144107983 -0.05536451716822096 0.22664586629086711 0.015764944871933462 -0.31785253246956929 0.88031771076875731 -0.12073684699921676 -0.030919887020795681 -0.030570737013535736 -0.054056409649190305 -0.9757871386577136
decision_type=2 2 2 2 2 2 2 2 2 2 2 2 2 2 2 2 2 2 2 2 2 2 2 2 2 2
left_child=20 13 3 4 5 6 7 8 15 -10 -11 -12 16 -2 -7 -3 -13 -18 -17 -8 22 -15 23 24 -1 -23
right_child=1 2 -4 -5 -6 14 19 -9 9 10 11 12 -14 21 -16 18 17 -19 -20 -21 -22 25 -24 -25 -26 -27
leaf_value=-0.056735107050412507 0.0088798375777191345 0.0099213298309610634 0.058131931629945302 -0.08376065684966294 0.05610035034419119 -0.016295737703414314 0.048758712474453479 -0.072772785876320342 -0.051754620331599069 0.053662388831275033 -0.072888020487102398 0.052652525622963603 -0.038776311192735002 0.058940061732642574 -0.074114471267094126 0.065984949598734827 0.006973724272597819 0.031306455085682125 0.048090508899452433 0.064255712317068142 -0.058422122499652278 0.058217041039586873 -0.056360302516926197 -0.056499862071814025 -0.057643564028043763 0.057594772992212273
leaf_weight=2.0637941733002645 4.4758158698677999 3.4857040718197823 4.2002767622470847 3.9252571165561667 4.5408144593238822 4.1782609075307846 3.1408522352576256 5.4921836405992499 6.8031738698482398 5.0844093710184017 4.6693183332682038 4.9661746546626029 4.2426142022013655 2.5008909925818443 3.7462295666337004 4.353496290743335 6.7883413061499667 3.6918235644698143 2.8885350823402405 5.1569144576787931 2.3515876308083525 2.3635890483856201 2.8979467079043379 3.4561954811215401 2.859596461057663 2.376376174390316
leaf_count=20 30 21 35 20 32 27 20 27 33 26 24 28 23 20 22 27 29 22 19 32 21 20 29 34 26 21
internal_value=-0.000993724 0.00721905 0.00258461 -0.000439388 0.00402685 0.000584385 0.00635048 -0.00187984 0.00640901 -0.00440616 0.00653442 -0.00330281 0.0131996 0.0393981 -0.043629 0.0429503 0.0274757 0.0155454 0.0588476 0.0583898 -0.0570774 0.0582625 -0.0567971 -0.0569481 -0.0572628 0.0579051
internal_weight=106.7 93.0711 81.3544 77.1541 73.2288 68.688 60.7635 52.4658 46.9736 36.2459 29.4427 24.3583 19.689 11.7167 7.92449 10.7277 15.4463 10.4802 7.24203 8.29777 13.6291 7.24086 11.2775 8.37959 4.92339 4.73997
internal_count=688 558 467 432 412 380 331 279 252 185 152 126 102 91 49 67 79 51 46 52 130 61 109 80 46 41
is_linear=0
shrinkage=0.05


Tree=32
num_leaves=27
num_cat=0
split_feature=14 18 17 17 18 18 18 18 17 17 17 14 17 17 14 2 14 14 14 3 14 17 14 4 17 14
split_gain=18.5312 5.17034 5.16138 10.6174 4.9104 6.42403 9.72401 11.4675 6.871 7.0126 4.94795 7.54638 3.3773 2.66253 2.51213 2.17277 1.89011 3.09799 0.219763 0.170976 0.170304 0.00176416 0.000678669 0.000253266 0.00040332 0.000191505
threshold=-0.058500557539209477 -0.36855125348812184 1.7560382168987789 1.5450386291819871 0.77028459817993766 0.30586506971936628 0.18223997967870423 0.16747788340940198 -0.96532243113067762 -0.57182217635073429 -0.27966209697087868 0.13806639757273245 0.88031771076875731 -1.2171674370415901 -0.010751043087121983 -0.46559451144107983 0.0044483621236838912 -0.047896520983977668 0.015764944871933462 0.19238288611103357 0.0052301269429500044 0.88031771076875731 0.011999092368540416 -0.030919887020795681 -0.030570737013535736 -0.12048292263537337
decision_type=2 2 2 2 2 2 2 2 2 2 2 2 2 2 2 2 2 2 2 2 2 2 2 2 2 2
left_child=21 13 3 4 5 6 7 8 15 -10 -11 12 16 -2 -7 -3 17 -12 -17 22 -8 23 -15 24 25 -1
right_child=1 2 -4 -5 -6 14 20 -9 9 10 11 -13 -14 19 -16 18 -18 -19 -20 -21 -22 -23 -24 -25 -26 -27
leaf_value=-0.057172745259501716 -0.0014324240719233484 0.0094551767684889158 0.057673058879697085 -0.0814711343585766 0.055114518205320873 -0.015532015313800149 0.048180319617874688 -0.071235908015780711 -0.066961453908607901 0.051573425339200854 0.0069783056699138993 -0.063562529707372639 -0.035279883625222212 0.058861551285958505 -0.07236237726691272 0.065052015124407642 -0.0060921169233549921 0.057964705051862853 0.046987599867680786 0.043122680528718531 0.063107767810314269 -0.057961661135517421 0.057747760150075093 -0.056011906066144548 -0.056142937502863914 -0.056535199718852874
leaf_weight=2.4252112135291082 3.0536560565233222 3.4749582409858704 4.0264096260070792 3.8360504135489455 4.3946596831083289 4.1648753881454468 3.126963406801222 5.3341487497091284 3.9632881581783179 4.5929144322872082 7.4603780657052958 4.5157621502876273 3.8781736940145484 2.495499871671198 3.6476088166236869 4.1990506649017174 6.4094626307487479 4.960080124437857 2.8105164766311646 2.8221330642700195 4.9123847112059593 2.2542191296815863 3.0263250842690468 2.7733239829540244 3.30800611525774 2.2901435717940331
leaf_count=23 22 21 35 20 32 27 20 27 22 28 32 21 21 20 22 27 32 29 19 22 32 21 27 29 34 23
internal_value=-0.000966842 0.00701546 0.00251129 -0.000423432 0.00390397 0.000567407 0.00615228 -0.00181705 0.00618671 -0.00424389 0.00356858 -0.00453028 0.00720896 0.0385148 -0.0420658 0.0417828 0.0159599 0.0273396 0.057809 0.0531343 0.0573016 -0.0566894 0.0582511 -0.0564238 -0.0565662 -0.0568631
internal_weight=104.156 91.1053 79.7077 75.6813 71.8452 67.4506 59.6381 51.5987 46.2646 35.7801 31.8168 27.2239 22.7081 11.3976 7.81248 10.4845 18.8299 12.4205 7.00957 8.34396 8.03935 13.0509 5.52182 10.7967 8.02336 4.71535
internal_count=688 558 467 432 412 380 331 279 252 185 163 135 114 91 49 67 93 61 46 69 52 130 47 109 80 46
is_linear=0
shrinkage=0.05


Tree=33
num_leaves=27
num_cat=0
split_feature=14 18 18 18 14 14 16 18 18 14 18 16 18 15 15 2 4 2 3 14 18 4 4 1 3 14
split_gain=17.4756 4.80376 4.13644 7.29893 3.30034 3.75931 4.0999 3.1108 6.75111 2.74277 2.69878 2.13844 2.27177 1.91259 2.76908 1.01841 0.774899 0.748192 0.607249 0.528127 0.00124273 0.00174017 0.000632958 0.000227474 0.000153853 7.93822e-06
threshold=-0.058500557539209477 -0.36855125348812184 -0.16486866480168152 -0.10568008084794782 0.034937518603932453 -0.053186163012162412 1.0000000180025095e-35 0.18223997967870423 0.30586506971936628 0.00094171721513207753 -0.0089320611955777968 1.0000000180025095e-35 0.64606687189115808 -0.21576923938835205 0.14330584228295318 -0.041714632227249561 -0.11139665763418484 -0.55119835431773134 0.55583349006911897 0.085635962757124665 0.11945483702762716 -0.12279388583219943 -0.12073684699921676 0.089328040925960348 -0.48179973700295187 -0.1993954842259851
decision_type=2 2 2 2 2 2 2 2 2 2 2 2 2 2 2 2 2 2 2 2 2 2 2 2 2 2
left_child=20 9 -3 -4 5 6 -5 10 -9 -2 -6 -7 13 -13 15 17 -17 -15 -14 -12 23 -22 -11 -1 -24 -25
right_child=1 2 3 4 7 11 -8 8 -10 22 19 12 18 14 -16 16 -18 -19 -20 -21 21 -23 24 25 -26 -27
leaf_value=-0.056246302728270942 0.0066334685060874497 -0.039169741678982593 0.062269583415266561 0.0081219459782425341 0.0030882410811016504 0.053549522039298941 -0.051772165392245106 0.053752556238765931 -0.031170223219519556 0.058196815012313011 -0.057055580476604098 -0.020127825571992719 0.059014710638065959 0.028897822089884957 -0.019618919941287373 0.05762255720025198 0.022640324373048859 -0.0048331513358032758 0.024714836086493781 -0.033428736425301246 -0.056084011849610017 -0.058051215186305849 0.057461357379141612 -0.055635214807156198 0.056869894998878436 -0.055770022751805051
leaf_weight=3.5593454688787443 4.352249436080454 5.5479829609394065 5.2733840495347968 7.6606865525245667 4.5413685888051996 3.8160085678100613 4.5567900016903788 4.3824944868683797 5.0221016630530357 2.3451580256223679 4.1741991713643074 5.1207108572125426 2.832381233572959 3.3910633772611618 4.3966888338327399 3.2583231776952761 3.0788871422410136 3.1909250169992465 2.3702389448881149 5.4575842693448067 2.4505508244037628 2.0769582763314247 2.3122370988130569 1.9990334361791608 2.0963127017021179 2.4068017899990082
leaf_count=37 30 28 38 31 21 23 30 31 33 20 24 30 23 20 27 21 20 20 18 29 26 19 21 22 20 26
internal_value=-0.000940477 0.0068182 0.00244133 0.00562453 0.00118276 0.00932132 -0.0142169 -0.0138922 0.00840336 0.0375864 -0.0286864 0.0184638 0.0136197 0.00671693 0.0146555 0.0263199 0.0406267 0.0125452 0.0433882 -0.0436681 -0.056325 -0.0569865 0.0575332 -0.055949 0.0571801 -0.0557089
internal_weight=101.67 89.1778 78.0718 72.5238 67.2505 43.6727 12.2175 23.5777 9.4046 11.106 14.1732 31.4552 27.6392 22.4366 17.3159 12.9192 6.33721 6.58199 5.20262 9.63178 12.4927 4.52751 6.75371 7.96518 4.40855 4.40584
internal_count=688 558 467 439 401 263 61 138 64 91 74 202 179 138 108 81 41 40 41 53 130 45 61 85 41 48
is_linear=0
shrinkage=0.05


Tree=34
num_leaves=27
num_cat=0
split_feature=14 17 17 17 14 14 4 4 4 17 2 15 4 15 4 4 4 4 3 17 2 17 17 1 2 14
split_gain=16.4778 4.26447 6.32631 7.65849 4.12675 2.62509 2.01134 1.90307 6.77446 2.48094 2.68628 2.1708 1.85568 1.6767 1.64721 1.21255 0.937985 0.887914 0.819784 0.777649 0.553945 0.00130596 0.000504212 0.000191334 0.000366086 4.95005e-05
threshold=-0.058500557539209477 0.23487268975944395 1.7560382168987789 1.5450386291819871 -0.052006039441241422 -0.010987519568052349 -0.11212724975888039 -0.10903594179205219 -0.12335875949370789 -0.96532243113067762 -0.21908943748632864 0.11169455782963066 -0.0066817549972740288 0.15085289727842299 -0.16305201433291347 -0.11894568422287385 -0.13005186331655197 -0.15892722347057855 -0.54122970581361807 -0.34626374463773085 -0.041714632227249561 0.88031771076875731 -1.2171674370415901 0.096099678424020576 -0.23811467151817198 -0.12048292263537337
decision_type=2 2 2 2 2 2 2 2 2 2 2 2 2 2 2 2 2 2 2 2 2 2 2 2 2 2
left_child=21 4 3 6 -2 13 14 8 11 22 -11 17 18 20 -3 16 -16 -7 -8 -12 -6 23 -9 24 -1 -25
right_child=1 2 -4 -5 5 7 12 9 -10 10 19 -13 -14 -15 15 -17 -18 -19 -20 -21 -22 -23 -24 25 -26 -27
leaf_value=-0.0555856619237192 -0.033741320515273593 -0.017539530352603337 0.05699941249665106 -0.079230258236455076 0.037360106344250472 0.061603798556453676 -0.04469955607215545 0.057687446810458148 -0.048206679849768834 -0.022545200487736051 0.012109309633980506 -0.0076173471204192822 0.015398104978971728 0.0062220857492855291 0.012987768291386568 0.00026571839296008398 0.047947866944276545 0.024459565098295239 -0.016535659948836059 0.04613017591996664 0.061205023986114306 -0.057124036462026045 0.05662657003673436 -0.055390746737761953 -0.056456906433531087 -0.055710339112142973
leaf_weight=2.7725970670580864 3.6684710010886183 5.4444693326950064 3.7551726698875418 3.7143402546644202 4.4693793952465048 2.9350453764200202 4.512744575738906 2.2343442216515541 4.7845472320914242 3.5628345534205383 3.0181757584214157 3.497163750231266 3.1049232557415989 2.756066493690013 4.3743168041110012 7.6146756932139406 3.4176478236913681 3.5608276873826972 6.0446057915687552 3.7876316010952209 5.3526572287082628 2.0701900124549857 2.2457410842180208 2.893878571689128 2.1334930732846242 2.0841937586665162
leaf_count=31 21 31 35 20 30 21 27 20 28 22 21 21 20 17 27 34 20 25 33 24 39 21 22 33 22 23
internal_value=-0.000907105 0.00658684 -0.00492804 -0.0110113 0.0171253 0.0215467 -0.00366953 0.0134215 0.000718656 0.0260635 0.0126292 0.0241435 -0.018581 0.0406846 0.00610094 0.0144551 0.0283217 0.0412425 -0.0285743 0.0310429 0.0503547 -0.0559821 0.0571557 -0.0557429 -0.0559645 -0.0555246
internal_weight=99.8101 87.8558 41.9829 38.2277 45.8729 42.2044 34.5134 29.6263 14.7776 14.8487 10.3686 9.99304 13.6623 12.5781 20.8511 15.4066 7.79196 6.49587 10.5574 6.80581 9.82204 11.9544 4.48009 9.88416 4.90609 4.97807
internal_count=688 558 247 212 311 290 192 204 95 109 67 67 80 86 112 81 47 46 60 45 69 130 42 109 53 56
is_linear=0
shrinkage=0.05


Tree=35
num_leaves=26
num_cat=0
split_feature=18 17 17 16 17 18 18 17 17 18 18 18 1 15 3 18 1 18 4 16 3 17 17 3 4
split_gain=3.79274 5.19609 8.41354 4.99656 4.04967 3.42143 3.39711 10.1466 4.58149 4.03354 9.82477 4.19246 2.80457 2.82447 2.63065 2.21624 1.36542 1.12361 1.74917 0.526871 0.45882 0.295976 0.211568 0.0826154 0.0569474
