tree
version=v4
num_class=1
num_tree_per_iteration=1
label_index=0
max_feature_idx=18
objective=binary sigmoid:1
feature_names=Column_0 Column_1 Column_2 Column_3 Column_4 Column_5 Column_6 Column_7 Column_8 Column_9 Column_10 Column_11 Column_12 Column_13 Column_14 Column_15 Column_16 Column_17 Column_18
feature_infos=[-3.8455600638234322:4.4570590465055639] [-3.0406348814829833:7.0837103486178492] [-2.894118053092158:6.120491802582344] [-3.1607673169884136:6.3920368327297519] [-2.2819524100451489:14.562956688714433] none none none none none none none none none [-10.852194542961119:10.609902775441045] [-13.404736220914293:6.8667906283308788] [-5.2981721893984322:0.33086893205348816] [-1.8708587268159247:2.5109827066904518] [-3.4125326480672391:3.1933734133226501]
tree_sizes=2435 2343 2569 2464 2567 3000 3004 2773 2883 2880 3095 3215 3102 3000 3003 3003 2899 2895 2896 2897 3000 3007 3090 2997 3122 2999 2803 3208 2909 2994 3208 2794 3015 3121 3100 3099 3006 3099 3323 3028 3218 3115 3115 3223 2905 3128 3099 3138 3009 3249 3019 3125 3020 3123 3203 3019 2793 3001 2888

Tree=0
num_leaves=22
num_cat=0
split_feature=14 17 17 17 17 16 14 17 18 18 14 18 18 17 17 18 0 17 14 0 0
split_gain=236.869 46.8398 32.8723 22.6405 22.4245 17.1546 8.49208 6.56165 6.45854 9.74738 7.03325 9.2801 16.8246 3.62803 3.10516 1.99617 1.7128 0.96345 0.900617 2.84217e-14 1.42109e-14
threshold=-0.12684515503708918 0.25025140034646959 1.7579599905816743 0.88998651486116132 0.58541118079250321 1.0000000180025095e-35 -0.048359395888816471 1.2797714249517649 -0.33624916819060829 -0.13537873423231561 -0.0414448307104592 0.21260991583549302 -0.077007340679053959 -1.1889433049537408 -0.32574403118753831 0.091728327224866249 -0.13010247245482845 -0.020726029130837657 -0.036260716129787769 0.80235882347568666 -0.084048329494051763
decision_type=2 2 2 2 2 2 2 2 2 2 2 2 2 2 2 2 2 2 2 2 2
left_child=5 8 3 4 6 -1 -3 16 13 -10 15 12 -12 -2 -14 -11 -5 -13 -6 -7 -15
right_child=1 2 -4 7 18 19 -8 -9 9 10 11 17 14 20 -16 -17 -18 -19 -20 -21 -22
leaf_value=0.021134738796211628 0.1021425840830095 0.074742871706592606 0.14979425778112596 -0.010315365844545184 0.13978740630452149 -0.050342771750962988 -0.0016607915945089022 0.031194536576925093 0.039718891538477033 0.11340570695710975 0.1497942577811259 0.14979425778112593 0.02849908836773872 0.1497942577811259 0.077017156133093609 0.14979425778112596 -0.050342771750962974 0.11977370335131263 0.10976685187470817 -0.050342771750962988 0.14979425778112598
leaf_weight=10.492810875177382 5.2464054375886944 5.9958919286727896 7.4948649108409873 4.9965766072273263 4.9965766072273254 32.727576777338982 9.2436667233705538 6.7453784197568885 4.9965766072273246 5.4962342679500606 5.7460630983114269 5.7460630983114243 8.2443514019250888 7.9945225715637251 5.4962342679500571 11.991783857345579 5.7460630983114251 4.9965766072273237 4.9965766072273237 9.2436667233705503 8.744009062647816
leaf_count=42 21 24 30 20 20 131 37 27 20 22 23 23 33 32 22 48 23 20 20 37 35
internal_value=0.0531083 0.0905537 0.0532107 0.0362662 0.066569 -0.0360473 0.0283997 -0.00745627 0.115657 0.106162 0.11312 0.0985195 0.0779502 0.138423 0.0479063 0.138358 -0.0317254 0.135831 0.124777 -0.0503428 0.149794
internal_weight=177.378 124.914 50.2156 42.7207 25.2327 52.4641 15.2396 17.488 74.6988 52.7139 47.7173 30.2293 19.4866 21.9849 13.7406 17.488 10.7426 10.7426 9.99315 41.9712 16.7385
internal_count=710 500 201 171 101 210 61 70 299 211 191 121 78 88 55 70 43 43 40 168 67
is_linear=0
shrinkage=1


Tree=1
num_leaves=21
num_cat=0
split_feature=14 18 16 18 18 18 18 18 18 18 18 18 18 0 18 14 16 3 0 18
split_gain=213.918 22.223 15.4939 15.3913 28.415 17.8204 37.1496 14.5957 12.6053 16.066 14.5613 7.34388 7.2262 4.80363 3.79414 1.84592 0.574733 0.143276 0.104596 0.000918927
threshold=-0.12684515503708918 -0.33624916819060829 1.0000000180025095e-35 0.66436057690957917 0.40783597496342339 0.20693753588729877 0.19237925330226283 0.1450192397197739 0.018404922183013411 -0.13537873423231561 0.061584055125527469 -0.077007340679053959 0.13195881194974476 -0.34316999448677715 1.3507710811448599 -0.080048259976173528 1.0000000180025095e-35 -0.077081667418976554 0.06541639406412611 -0.93510121811638625
decision_type=2 2 2 2 2 2 2 2 2 2 2 2 2 2 2 2 2 2 2 2
left_child=2 15 -1 4 5 6 7 8 9 -3 -10 -11 -12 -7 -5 -2 -9 19 -15 -17
right_child=1 3 -4 14 -6 13 -8 16 10 11 12 -13 -14 18 -16 17 -18 -19 -20 -21
leaf_value=-0.029631431594062108 0.056979738301102978 -0.030775423906581313 -0.097545171677723377 0.093812214099729951 -0.066780725955757847 0.037603936160878419 -0.10047606010585462 0.08862466324280549 -0.078435757476114407 0.09356759472735271 0.047388393035903364 0.030027993485695501 -0.030809301109027139 0.084519203146296407 0.040530477860621195 0.093235753982315539 0.066148454493340225 0.083670273725106839 0.09395026754949487 0.094141887266774069
leaf_weight=10.498827785253523 5.4729935228824642 6.2438050955533937 41.973398923873901 9.2069114148616773 8.7367823272943479 6.9749999493360546 6.247894048690795 6.2365890294313431 6.242926403880122 9.2055419981479627 7.226861894130705 8.987235665321359 4.9972259849309921 5.2262741774320585 5.2442944943904868 5.4707548618316686 5.2287881821393949 5.2221520245075199 6.7201189249753952 5.7268199026584625
leaf_count=42 22 25 168 37 35 28 25 25 25 37 29 36 20 21 21 22 21 21 27 23
internal_value=0.000731298 0.0363902 -0.0839568 0.0266428 0.0188121 0.0282139 0.0149912 0.0282603 0.0148681 0.0384282 -0.016308 0.062179 0.0154211 0.0705743 0.0744764 0.0821274 0.0783744 0.0905096 0.0898244 0.0936992
internal_weight=177.091 124.619 52.4722 102.726 88.275 79.5383 60.6169 54.369 42.9036 24.4366 18.467 18.1928 12.2241 18.9214 14.4512 21.8927 11.4654 16.4197 11.9464 11.1976
internal_count=710 500 210 412 354 319 243 218 172 98 74 73 49 76 58 88 46 66 48 45
is_linear=0
shrinkage=0.05


Tree=2
num_leaves=23
num_cat=0
split_feature=14 17 17 17 17 16 4 17 18 18 17 18 17 17 4 17 0 17 4 14 14 3
split_gain=193.883 40.9392 27.9302 19.5551 19.0537 14.1712 7.63883 5.34986 5.06868 8.47972 30.3798 4.76684 15.0435 3.3812 2.44673 2.32322 1.38929 1.09489 0.849766 0.0293629 0.00171991 0.000141721
threshold=-0.12684515503708918 0.25025140034646959 1.7579599905816743 0.88998651486116132 0.58541118079250321 1.0000000180025095e-35 -0.081292687985314235 1.2797714249517649 -0.33624916819060829 0.091728327224866249 -0.93932623695865602 0.19237925330226283 -0.28570254210285612 -1.1889433049537408 -0.063380248232990835 -1.1497626369548215 -0.13010247245482845 -0.012843790562647447 -0.10466836019972638 -0.057028300191418989 -0.068343293745945596 -0.20917096980382102
decision_type=2 2 2 2 2 2 2 2 2 2 2 2 2 2 2 2 2 2 2 2 2 2
left_child=5 8 3 4 6 -1 -3 16 13 10 15 19 -13 -2 -12 -10 -5 -14 -6 -11 -15 -22
right_child=1 2 -4 7 18 -7 -8 -9 9 11 14 12 17 20 -16 -17 -18 -19 -20 -21 21 -23
leaf_value=-0.028147106937117351 0.043468467401217931 0.0058420220307330789 0.089453839218263456 -0.059106808584071496 0.081039030632633235 -0.093126389503516038 -0.066674863139282156 -0.021544766221113617 0.094476861414193203 0.090312325861660159 -0.013682623719342769 -0.022524661543533098 0.062151662311405724 0.09046248292722231 -0.06319515093379327 0.050820128349140015 -0.09518289960963533 0.091873782993518463 0.051756013598971695 0.095385892936262998 0.089197929576976295 0.089551636687621783
leaf_weight=10.499810367822645 5.2043772190809277 9.2238324582576734 7.39510154724121 4.9935902655124673 4.9508765637874603 41.77118968963623 5.9897541403770473 6.7413399368524543 7.9506643116474152 6.6718234270811081 4.9881098121404648 4.9699860364198711 5.1927008181810406 4.9442073702812239 4.9924827665090543 4.9413347840309161 5.7318477630615243 7.6828346401452974 4.9589993059635145 4.980640187859537 6.6510057896375692 4.9319228827953268
leaf_count=42 21 37 30 20 20 168 24 27 32 27 20 20 21 20 20 20 23 31 20 20 27 20
internal_value=0.000700868 0.0347267 -0.000241218 -0.0158153 0.0124343 -0.0800738 -0.0227087 -0.0564483 0.0583142 0.0498904 0.0270421 0.067607 0.0513652 0.0786144 -0.0384497 0.0777438 -0.0783865 0.0798869 0.0663855 0.0924809 0.0896818 0.0893485
internal_weight=176.358 124.087 49.9853 42.5902 25.1235 52.271 15.2136 17.4668 74.1021 52.3706 22.8726 29.498 17.8455 21.7315 9.98059 12.892 10.7254 12.8755 9.90988 11.6525 16.5271 11.5829
internal_count=710 500 201 171 101 210 61 70 299 211 92 119 72 88 40 52 43 52 40 47 67 47
is_linear=0
shrinkage=0.05


Tree=3
num_leaves=22
num_cat=0
split_feature=14 17 17 16 17 17 16 17 17 17 17 3 4 17 4 17 1 14 4 17 1
split_gain=176.275 37.2934 25.5006 18.7759 23.5104 23.8979 13.1014 4.36914 4.81845 7.66827 21.8922 3.90518 3.62345 4.52292 3.78783 2.93505 1.70083 0.838405 0.788642 0.00969619 0.000306649
threshold=-0.12684515503708918 0.25025140034646959 1.7579599905816743 1.0000000180025095e-35 0.88998651486116132 0.58541118079250321 1.0000000180025095e-35 -0.14762224453009304 -0.39570008292934827 -0.67968948940419971 -0.93932623695865602 -0.30564131357610841 -0.044698679041907698 -1.1127610984080236 -0.1123606154988898 1.3358426241250945 0.17207683882794253 -0.025261528997528548 -0.10466836019972638 -0.52672266253833067 -0.40662968817138095
decision_type=2 2 2 2 2 2 2 2 2 2 2 2 2 2 2 2 2 2 2 2 2
left_child=6 7 3 -3 5 11 -1 8 9 10 12 -5 13 14 -2 -6 -10 -9 -7 -11 -14
right_child=1 2 -4 4 15 18 -8 17 16 19 -12 -13 20 -15 -16 -17 -18 -19 -20 -21 -22
leaf_value=-0.026748421724686638 0.062874624768499157 0.07612309261437758 0.086078250496148853 -0.070839851132203757 -0.092795574164349665 0.077742012031120147 -0.089291516158432588 0.089167859604706801 0.037945874042066112 0.089337897346428649 -0.041064597516057143 -0.01515381007933129 0.087218294156647169 0.087000173111593984 0.0049575267816912884 -0.046829624184626301 -0.00052219226822846807 0.06553665873956914 0.049428137138619321 0.08667199188784909 0.087778024688711959
leaf_weight=10.496475845575331 5.1873141974210704 4.9823330640792838 7.303117722272872 5.7293775975704158 9.4296110272407514 4.9039552509784698 41.395933270454407 9.0939902365207654 6.4204111546277982 7.3760623335838318 6.1941281855106416 6.9889204949140602 4.890554741024971 5.3770565837621698 6.1938735246658325 5.497497856616973 5.2012186050415039 6.391254410147666 4.9335596710443479 6.3445436358451825 4.8972297012805921
leaf_count=42 21 20 30 23 38 20 168 37 26 30 25 28 20 22 25 22 21 26 20 26 20
internal_value=0.000673007 0.033202 -0.000225821 -0.0150683 -0.0271897 0.00502411 -0.0766407 0.0558158 0.0495242 0.0567269 0.043577 -0.0402394 0.0633269 0.0492093 0.031355 -0.0758668 0.0207296 0.0794145 0.0635425 0.0881052 0.0874984
internal_weight=175.228 123.336 49.7684 42.4653 37.4829 22.5558 51.8924 73.5676 58.0824 46.4608 32.7402 12.7183 26.546 16.7582 11.3812 14.9271 11.6216 15.4852 9.83751 13.7206 9.78778
internal_count=710 500 201 171 151 91 210 299 236 189 133 51 108 68 46 60 47 63 40 56 40
is_linear=0
shrinkage=0.05


Tree=4
num_leaves=23
num_cat=0
split_feature=14 18 18 18 18 18 18 16 18 18 18 18 18 0 18 14 16 3 18 4 0 2
split_gain=160.711 17.5444 13.3179 22.4888 15.1248 30.2647 12.4074 12.2241 10.5539 14.5689 11.8482 5.7494 5.48788 4.05157 2.82702 1.79868 0.556879 0.160768 0.126629 0.00327897 1.42109e-14 1.42109e-14
threshold=-0.12684515503708918 -0.33624916819060829 0.66436057690957917 0.40783597496342339 0.20693753588729877 0.19237925330226283 0.1450192397197739 1.0000000180025095e-35 0.018404922183013411 -0.13537873423231561 0.061584055125527469 0.13195881194974476 -0.077007340679053959 -0.34316999448677715 1.3507710811448599 -0.080048259976173528 1.0000000180025095e-35 -0.077081667418976554 0.26168815610066137 0.0049056222964592409 1.3151394537302201 -0.27198714952060737
decision_type=2 2 2 2 2 2 2 2 2 2 2 2 2 2 2 2 2 2 2 2 2 2
left_child=7 15 3 4 5 6 8 -1 9 -3 -10 -12 -11 -6 -4 -2 -8 19 -15 -17 21 -9
right_child=1 2 14 -5 13 -7 16 20 10 12 11 -13 -14 18 -16 17 -18 -19 -20 -21 -22 -23
leaf_value=-0.025428411050269564 0.047940689722405311 -0.032478836216911909 0.085175216651739064 -0.060868320725678438 0.033293333781556217 -0.092687576733502544 0.080956722905560885 -0.085935198997685147 -0.072970127614130229 0.084130255838075138 0.040876452915319633 -0.02930119233617904 0.028724740120235837 0.086860350793386304 0.038852778483816033 0.08402132692800296 0.058596937204308676 0.074121995585526762 0.076433639825113309 0.085757765816031784 -0.085935198997685119 -0.085935198997685106
leaf_weight=10.489458203315733 5.3314653038978603 6.2199185490608171 8.9357725679874402 8.61715419590473 6.8865867257118252 6.1891467571258536 6.1335293352603912 13.381677344441409 6.224464654922488 8.918178513646124 7.0884624570608121 4.9612187594175339 8.9590804427862256 5.8509348630905134 5.2165308594703665 5.2952870279550552 5.100030303001402 5.0549487024545643 5.7969470173120499 5.5872859060764313 5.3526709377765647 22.140593424439434
leaf_count=42 22 25 37 35 28 25 25 55 25 37 29 20 36 24 21 22 21 21 24 23 22 91
internal_value=0.000647016 0.0318038 0.02312 0.0157984 0.0242327 0.0120002 0.0240873 -0.0735787 0.0117014 0.0334321 -0.0169539 0.0119822 0.0563641 0.0636961 0.0681008 0.0730805 0.0708054 0.0814903 0.0816712 0.0849128 -0.0859352 -0.0859352
internal_weight=173.731 122.367 101.098 86.9457 78.3285 59.794 53.6049 51.3644 42.3713 24.0972 18.2741 12.0497 17.8773 18.5345 14.1523 21.269 11.2336 15.9375 11.6479 10.8826 40.8749 35.5223
internal_count=710 500 412 354 319 243 218 210 172 98 74 49 73 76 58 88 46 66 48 45 168 146
is_linear=0
shrinkage=0.05


Tree=5
num_leaves=27
num_cat=0
split_feature=14 17 17 17 14 14 3 18 18 17 17 0 17 17 18 18 0 18 2 0 18 18 1 17 14 0
split_gain=137.51 26.5524 21.6502 14.9532 12.9369 9.32491 8.75171 7.52891 9.21249 38.8676 6.8989 4.74896 3.24092 3.17288 2.85245 6.57029 1.64166 1.44611 0.899101 0.353448 0.0221524 0.0514808 0.00249105 0.00134533 0.000631606 7.10543e-15
threshold=-0.13298424773079157 0.36246011855434829 1.7579599905816743 0.88998651486116132 0.019849236179226171 -0.136113290591349 -0.077081667418976554 -0.33624916819060829 -0.024081358250630614 -0.93932623695865602 1.2797714249517649 -0.86118922931191 -1.1889433049537408 0.58541118079250321 0.19237925330226283 0.49237940028934013 -1.0000000180025095e-35 0.091728327224866249 -0.21255996974895505 -0.33810285343333496 0.1450192397197739 0.23639676727808881 0.015465181742019456 -0.61032682907669811 -0.046757052336624014 0.33626022481967993
decision_type=2 2 2 2 2 2 2 2 2 2 2 2 2 2 2 2 2 2 2 2 2 2 2 2 2 2
left_child=5 7 3 4 13 20 -7 12 9 19 18 -10 -2 -3 17 16 -16 -13 -5 -9 22 -22 -1 -14 -25 -24
right_child=1 2 -4 10 -6 6 -8 8 11 -11 -12 14 23 -15 15 -17 -18 -19 -20 -21 21 -23 25 24 -26 -27
leaf_value=-0.084051563649025884 0.035849274701945461 0.017276142201752057 0.082184760328865986 -0.088218437001812033 -0.044372251689421022 -0.0060826693064772305 -0.087155209989754637 0.07431068673075393 0.0039030846992873037 -0.099764414919982738 -0.014674900583156833 0.052812008099228716 0.082010228310701427 0.068488985574483269 0.039271302171153599 0.088129264075783253 -0.00038663087077194327 0.084328141407483098 -0.059164656629897443 0.055132608367099857 -0.089037596158785495 -0.082976067769252759 -0.082976067769252773 0.081508106682104342 0.080690714449403053 -0.082976067769252759
leaf_weight=8.8907283544540423 5.0806665420532253 5.663352310657503 6.3549166470766059 5.8668008446693412 6.1493824124336234 8.8418395817279798 5.3387025743722907 4.7914233803749076 4.9224033951759329 5.7376076728105536 8.4651760160922986 5.9491615146398571 7.1323724538087889 6.4904354363679886 5.0961894094943965 5.1153162717819205 5.3479990214109439 9.3763547539710981 4.8759080618619945 4.8184679597616187 6.8357480317354185 7.1842990815639496 7.6632523536682111 4.7410095483064687 4.7124174833297658 5.9869159013032913
leaf_count=37 21 23 27 24 25 36 22 20 20 23 34 24 30 27 21 21 22 39 20 20 28 30 32 20 20 25
internal_value=-0.00230686 0.0275739 -0.00315706 -0.0176152 0.0147243 -0.0710219 -0.0366049 0.0460855 0.0356225 0.00321222 -0.0484315 0.0495139 0.0707889 0.0446251 0.0567833 0.0417028 0.0189643 0.072094 -0.0750315 0.0646947 -0.0843709 -0.0859315 -0.0834003 0.0814918 0.0811006 -0.0829761
internal_weight=167.429 116.687 43.866 37.5111 18.3032 50.7415 14.1805 72.8214 51.1549 15.3475 19.2079 35.8074 21.6665 12.1538 30.885 15.5595 10.4442 15.3255 10.7427 9.60989 36.5609 14.02 22.5409 16.5858 9.45343 13.6502
internal_count=691 481 180 153 75 210 58 301 210 63 78 147 91 50 127 64 43 63 44 40 152 58 94 70 40 57
is_linear=0
shrinkage=0.05


Tree=6
num_leaves=27
num_cat=0
split_feature=14 17 17 16 17 17 14 16 18 18 17 17 18 18 18 18 17 0 4 18 18 4 15 17 14 1
split_gain=125.854 24.2774 19.8952 20.074 19.7611 15.0002 8.794 8.23597 7.05637 8.37797 35.3319 4.63993 8.17952 5.43382 3.49269 3.3085 3.08354 0.335006 0.0390739 0.0173539 0.0402582 0.014084 0.00220987 0.001056 0.000494285 1.36682e-06
threshold=-0.13298424773079157 0.36246011855434829 1.7579599905816743 1.0000000180025095e-35 0.88998651486116132 0.58541118079250321 -0.136113290591349 1.0000000180025095e-35 -0.33624916819060829 -0.024081358250630614 -0.93932623695865602 -0.22533883933986412 0.19237925330226283 0.10985591213230732 0.55307264485411578 0.32885578940492971 -1.1889433049537408 -0.33810285343333496 -0.10553872155563492 0.1450192397197739 0.23639676727808881 -0.08597725983617284 0.10468608358488685 -0.61032682907669811 -0.046757052336624014 0.021596927528314738
decision_type=2 2 2 2 2 2 2 2 2 2 2 2 2 2 2 2 2 2 2 2 2 2 2 2 2 2
left_child=6 8 3 -3 5 -5 19 -8 16 10 17 12 13 -11 18 21 -2 -10 -6 22 -21 -13 25 -18 -25 -1
right_child=1 2 -4 4 14 -7 7 -9 9 11 -12 15 -14 -15 -16 -17 23 -19 -20 20 -22 -23 -24 24 -26 -27
leaf_value=-0.08031765597092444 0.034289535380000256 0.072168752776126707 0.07970299454630897 -0.043361571711445335 -0.091618064380723119 0.053535257761646943 0.0022753007166487205 -0.074190234775180067 0.071698385806191187 0.012856096563392001 -0.095058727173824381 0.082526606643072778 -0.022459402111499625 0.082692796834656787 -0.038892141463941099 0.042476369302882046 0.079492760528548187 0.052910111068733029 -0.085493799840099818 -0.085753498962011621 -0.080350287253831559 0.086310593852486461 -0.081365153882697799 0.079042833262444781 0.078312302699070468 -0.080350287253831573
leaf_weight=5.1697111725807217 5.0470497906208065 5.4152795225381842 6.2283442318439475 7.6479730159044328 4.9119781404733649 8.3600607961416227 7.2241557240486145 6.8705772608518583 4.7195118069648734 4.9218621253967303 5.7208698987960807 4.7614096701145154 5.3854450434446326 6.4165078699588776 5.4131619036197653 8.9478060752153379 6.9938251674175307 4.7710327357053748 5.5441200435161582 6.7449109405279142 7.0514622330665588 5.0854304879903829 8.5002904236316663 4.6468071341514623 4.6152126491069723 8.4617546796798688
leaf_count=22 21 22 27 31 20 35 29 29 20 20 23 20 22 27 22 37 30 20 23 28 30 21 36 20 20 36
internal_value=-0.00221534 0.0264658 -0.00301882 -0.0168344 -0.0319542 0.00724198 -0.0684693 -0.0349984 0.0442799 0.0341388 0.0030897 0.0474362 0.0282783 0.0523775 -0.0714931 0.0644832 0.0684294 0.0622533 -0.0883708 -0.0816001 -0.0829919 0.0844809 -0.0807325 0.079029 0.0786788 -0.0803379
internal_weight=165.577 115.554 43.5209 37.2926 31.8773 16.008 50.0229 14.0947 72.0328 50.7299 15.2114 35.5185 16.7238 11.3384 15.8693 18.7946 21.3029 9.49054 10.4561 35.9281 13.7964 9.84684 22.1318 16.2558 9.26202 13.6315
internal_count=691 481 180 153 131 66 210 58 301 210 63 147 69 47 65 78 91 40 43 152 58 41 94 70 40 58
is_linear=0
shrinkage=0.05


Tree=7
num_leaves=25
num_cat=0
split_feature=14 18 18 18 18 18 18 18 18 18 14 3 18 18 15 18 14 1 1 18 18 4 15 1
split_gain=115.497 17.0502 11.3279 15.8707 14.5243 22.9583 11.3123 8.34713 12.9453 8.62405 8.311 7.98982 6.85079 4.20867 3.1212 2.90886 2.17025 1.28 0.376887 0.0137099 0.0317605 0.00410514 0.00177175 1.07115e-06
threshold=-0.13298424773079157 -0.33624916819060829 0.66436057690957917 0.40783597496342339 0.20693753588729877 0.19237925330226283 0.1450192397197739 0.018404922183013411 -0.13537873423231561 0.061584055125527469 -0.136113290591349 -0.077081667418976554 -0.077007340679053959 0.13195881194974476 -0.27194636992905941 1.3507710811448599 -0.039627479939804221 -0.053871886453223598 -0.10360543467181881 0.1450192397197739 0.23639676727808881 0.21841573183457297 0.10468608358488685 -1.0000000180025095e-35
decision_type=2 2 2 2 2 2 2 2 2 2 2 2 2 2 2 2 2 2 2 2 2 2 2 2
left_child=10 16 3 4 5 6 7 8 -3 -9 19 -12 -10 -11 -6 -4 -2 -8 -16 22 -21 -18 23 -1
right_child=1 2 15 -5 14 -7 17 9 12 13 11 -13 -14 -15 18 -17 21 -19 -20 20 -22 -23 -24 -25
leaf_value=-0.077977839236499036 0.04393481238330784 -0.039467888012917077 0.080247911527563165 -0.055776754635006448 0.025856558291846583 -0.087172311711246037 0.045089065066446929 -0.075086378945373428 0.077913820635485798 0.032848405867368473 -0.0044866600422178793 -0.08273535416076791 0.015072468154408734 -0.030194092694127806 0.082423540405937495 0.032599258297892751 0.077226623156334065 0.080710896270569321 0.064010230810966462 -0.08285144299190432 -0.078007033707677462 0.079014901297508183 -0.078925303934107946 -0.07800703370767742
leaf_weight=5.0613277852535221 7.1533903479576137 6.1466412097215608 7.3714113384485227 8.3915668129920942 4.9941226691007641 6.0488456636667243 4.9452745318412781 5.4342893660068539 8.2677435725927335 5.4778490811586362 8.7810720801353437 5.1907120645046225 9.1222494542598813 5.123563677072525 5.694750353693963 5.6642895638942719 8.6529775410890561 5.1460433453321439 5.4276417940855 6.6348634064197523 6.9038419425487518 5.1011033356189719 8.3292224854230863 8.2846103310585057
leaf_count=22 31 25 32 35 21 25 21 22 36 23 36 22 37 21 24 23 38 22 23 28 30 22 36 36
internal_value=-0.00213327 0.025463 0.0163139 0.00928911 0.0168906 0.00479776 0.0159994 0.00394891 0.0229035 -0.023872 -0.0661865 -0.0335571 0.0449492 0.00238056 0.0586936 0.0595436 0.0662723 0.0632543 0.073438 -0.0791328 -0.0803811 0.0778899 -0.0783531 -0.077996
internal_weight=163.349 114.164 93.2563 80.2206 71.829 55.7125 49.6637 39.5723 23.5366 16.0357 49.1857 13.9718 17.39 10.6014 16.1165 13.0357 20.9075 10.0913 11.1224 35.2139 13.5387 13.7541 21.6752 13.3459
internal_count=691 481 390 335 300 232 207 164 98 66 210 58 73 44 68 55 91 43 47 152 58 60 94 58
is_linear=0
shrinkage=0.05


Tree=8
num_leaves=26
num_cat=0
split_feature=18 18 17 18 17 18 18 18 18 18 16 18 17 1 3 18 18 18 3 3 2 3 3 1 18
split_gain=15.4919 11.1893 14.6755 11.3034 19.1344 9.43073 12.5575 7.62381 14.6359 7.82656 7.58221 6.73127 5.02471 8.77417 3.39137 3.04619 12.7166 4.11548 2.92416 2.89135 2.36402 2.15428 0.768787 0.397594 0.155492
threshold=-0.33624916819060829 0.66436057690957917 0.88998651486116132 0.12985752975632933 -1.2361048384980327 -0.13537873423231561 -0.077007340679053959 0.18924110454803614 0.21260991583549302 0.32092833005349575 1.0000000180025095e-35 1.2002711887794157 -0.84401671738224204 -1.0000000180025095e-35 1.1389612103288156 0.018404922183013411 -0.024081358250630614 0.061584055125527469 0.10653213073345057 -0.17585057692831227 -0.10145239559972234 -0.33235397421770668 0.16985290852454457 -1.0000000180025095e-35 0.24295524760259435
decision_type=2 2 2 2 2 2 2 2 2 2 2 2 2 2 2 2 2 2 2 2 2 2 2 2 2
left_child=12 2 3 4 -2 -6 -7 21 -9 -10 -4 -3 13 -1 24 16 -8 23 -11 -14 -13 -5 -23 -17 -12
right_child=1 11 10 7 5 6 15 8 9 18 14 20 19 -15 -16 17 -18 -19 -20 -21 -22 22 -24 -25 -26
leaf_value=0.042267697337124925 0.074334488882571312 0.068861198699656026 -0.0005627597839044377 0.059838886833616968 -0.092102644539110934 0.032853686677198554 -0.063047450797040494 -0.062360459767569987 0.054088572286079641 -0.039477183725509221 -0.083866895360123581 0.029873628421183643 0.075346902240394031 -0.040540667790404987 -0.029505835931550567 -0.084229500320519346 0.029506342807094018 -0.021771765464210811 0.016209113134307819 0.026188869216297702 -0.01852635307043439 0.012618808998364154 0.036513929303118073 -0.063752246623270004 -0.072645232269195101
leaf_weight=8.8202308863401395 4.6435653567314139 6.5589846074581173 5.8594610244035747 6.3040208667516735 5.7464721798896781 7.8824590742588034 8.3225899040698987 7.8769749253988293 8.5305070132017153 4.7784786373376829 7.7954524308443087 4.6957267969846734 7.5804099291563034 5.019227251410487 4.6208567917346945 4.7551137506961787 6.6981640756130245 6.2547597736120215 4.6530360728502274 4.9409489035606367 5.4523145407438252 6.8138222247362119 6.6525304764509201 4.7268877625465411 5.1108927428722382
leaf_count=39 20 29 24 27 24 35 35 33 37 20 33 20 34 22 20 20 28 27 20 22 23 28 29 20 22
internal_value=-0.002055 -0.00891343 -0.0143346 -0.00557018 -0.0222363 -0.0323393 -0.0234514 0.0123459 -0.00553536 0.0193844 -0.049802 0.0293844 0.0329992 0.0122352 -0.066263 -0.0378811 -0.0217752 -0.0532541 -0.0120044 0.0559491 0.00386941 0.035716 0.0244233 -0.0740214 -0.0794231
internal_weight=161.094 134.733 118.026 94.6394 49.03 44.3864 38.64 45.6094 25.839 17.962 23.3867 16.707 26.3608 13.8395 17.5272 30.7575 15.0208 15.7368 9.43151 12.5214 10.148 19.7704 13.4664 9.482 12.9063
internal_count=691 574 502 403 209 189 165 194 110 77 99 72 117 61 75 130 63 67 40 56 43 84 57 40 55
is_linear=0
shrinkage=0.05


Tree=9
num_leaves=26
num_cat=0
split_feature=18 18 17 18 17 18 18 16 18 18 18 18 17 1 3 18 18 18 3 3 0 3 3 1 18
split_gain=14.1466 10.1826 13.4131 10.2919 17.4945 8.65357 11.4269 7.01838 6.90926 13.3073 7.14669 6.23649 4.66548 7.9786 3.22721 2.79611 11.6015 3.85517 2.78469 2.64197 2.24116 1.98825 0.702592 0.37809 0.143875
threshold=-0.33624916819060829 0.66436057690957917 0.88998651486116132 0.12985752975632933 -1.2361048384980327 -0.13537873423231561 -0.077007340679053959 1.0000000180025095e-35 0.18924110454803614 0.21260991583549302 0.32092833005349575 1.2002711887794157 -0.84401671738224204 -1.0000000180025095e-35 1.1389612103288156 0.018404922183013411 -0.024081358250630614 0.061584055125527469 -0.17585057692831227 0.10653213073345057 0.30330358846379196 -0.33235397421770668 0.16985290852454457 -1.0000000180025095e-35 0.24295524760259435
decision_type=2 2 2 2 2 2 2 2 2 2 2 2 2 2 2 2 2 2 2 2 2 2 2 2 2
left_child=12 2 3 4 -2 -6 -7 -4 21 -10 -11 -3 13 -1 24 16 -8 23 -14 -12 -13 -5 -23 -17 -9
right_child=1 11 7 8 5 6 15 14 9 10 19 20 18 -15 -16 17 -18 -19 -20 -21 -22 22 -24 -25 -26
leaf_value=0.040530513560073936 0.071816478328044914 0.066572102779202863 -0.00053461863311528204 0.057388984617243101 -0.088600479535379278 0.031357336897483178 -0.060593373722142102 -0.081210106438864671 -0.059687855561547737 0.051926473752227191 -0.037544407006292108 0.02564850942520859 0.073509514964456554 -0.0386549422130468 -0.028061841030910431 -0.081514367182726435 0.028044452964543838 -0.020709826824414496 0.024967228570422315 0.015412798121714403 -0.021472040405255313 0.011980577090981111 0.034846107535696141 -0.061389089630457173 -0.070316048855937327
leaf_weight=8.7404191046953184 4.56797170639038 6.4481115639209774 5.8594781160354641 6.2459539026021984 5.6766594201326361 7.8466003984212866 8.2290508002042753 7.6515758931636828 7.8196338117122677 8.4436343014240283 4.7733698934316617 5.4123005419969541 7.3863053321838379 5.001334726810458 4.615828573703765 4.66996473073959 6.6950283795595196 6.2469122111797324 4.9240119159221631 4.6488742679357529 4.7276857495307922 6.8178605735301954 6.6231458783149719 4.6649789810180682 5.01852086186409
leaf_count=39 20 29 24 27 24 35 35 33 33 37 20 23 34 22 20 20 28 27 22 20 20 28 29 20 22
internal_value=-0.00196925 -0.00853703 -0.0137301 -0.00533222 -0.021321 -0.0309839 -0.0224559 -0.047825 0.0117929 -0.00528898 0.0185206 0.0281267 0.0317376 0.0117108 -0.0638552 -0.0362975 -0.0208299 -0.051112 0.0540931 -0.0114157 0.00367894 0.0340795 0.0232477 -0.0714571 -0.0768951
internal_weight=159.755 133.703 117.115 93.9696 48.5972 44.0292 38.3525 23.1454 45.3725 25.6855 17.8659 16.5881 26.0521 13.7418 17.2859 30.5059 14.9241 15.5819 12.3103 9.42224 10.14 19.687 13.441 9.33494 12.6701
internal_count=691 574 502 403 209 189 165 99 194 110 77 72 117 61 75 130 63 67 56 40 43 84 57 40 55
is_linear=0
shrinkage=0.05


Tree=10
num_leaves=28
num_cat=0
split_feature=18 18 16 18 18 17 17 1 18 17 18 18 18 17 18 18 18 3 3 2 1 0 17 2 0 3 3
split_gain=14.6576 18.4768 11.3711 10.9414 14.0915 19.1495 10.4181 10.074 7.83953 10.7537 6.66128 9.60025 5.31063 5.05467 3.62384 11.1408 3.61625 3.02918 2.85426 2.63598 1.81953 1.25426 1.52094 0.860061 0.451783 0.175763 0.0205797
threshold=-0.077007340679053959 0.24295524760259435 1.0000000180025095e-35 0.32092833005349575 0.66436057690957917 0.25025140034646959 0.88998651486116132 -0.30988136260875349 -1.7848352496201734 -1.2229021272179155 0.061584055125527469 0.19237925330226283 1.3507710811448599 -1.0412173694609821 0.018404922183013411 -0.024081358250630614 0.12985752975632933 -0.3410474305420661 0.1170155321072172 -0.61837785991680871 0.073475400955343093 0.15263051965082783 0.51935043866696362 -0.051205654866170375 -0.14124898329533947 -0.36469507377296501 0.30221492897684693
decision_type=2 2 2 2 2 2 2 2 2 2 2 2 2 2 2 2 2 2 2 2 2 2 2 2 2 2 2
left_child=7 2 21 24 5 -5 10 17 -9 -10 14 16 23 -11 15 -4 -12 -1 -18 -19 -13 22 -2 -6 -3 -16 -8
right_child=1 3 6 4 12 -7 26 8 9 13 11 20 -14 -15 25 -17 18 19 -20 -21 -22 -23 -24 -25 -26 -27 -28
leaf_value=0.074424883634429992 -0.011664626638903421 0.053315394985006065 -0.064354896855815039 0.037685793843217248 0.075228097174875011 -0.081096613588277897 -0.077255603120957916 0.051934577894328517 0.054348250786914992 -0.068655641016879543 -0.010949101271048251 -0.024584393449377656 0.0044330405335146744 -0.0093508323649012775 -0.059405550830833757 0.029634863217841086 0.063809625293362357 0.053829861532121985 0.0084635524031660015 0.0080681050959353212 -0.066236999256839874 0.032410386945002603 0.024586228562370485 0.044371029100710106 0.075194572642878765 -0.072587632928136345 -0.081682629706638935
leaf_weight=7.6468680053949383 7.1659488081932086 4.5544766485691071 7.9140577614307404 5.6469392478466061 4.6025118976831436 8.5011169165372831 5.1603803932666761 6.0882198810577419 4.5278903692960784 6.0909320563077971 6.9654292762279573 5.3431096971034986 8.1541447192430478 8.7609382271766574 4.6229610592126846 5.2405242919921893 4.7509516477584821 7.5404700785875329 4.57048399746418 5.4007447063922855 5.1480740904808044 5.1769705563783637 4.8529487103223801 4.4334025532007235 4.895568445324896 5.5819996595382673 5.3434448838233948
leaf_count=35 29 20 34 24 21 37 23 28 20 27 30 23 34 39 20 22 21 34 20 24 22 22 20 20 22 24 23
internal_value=-0.000473685 -0.00976834 -0.0240529 0.0174914 0.00327072 -0.0336868 -0.0342296 0.0234663 0.00244123 -0.0131073 -0.0247438 -0.00772186 0.0336881 -0.0336725 -0.0442569 -0.0269112 0.016306 0.0494749 0.0366724 0.0347322 -0.0450235 0.0118351 0.00297262 0.0600883 0.0646498 -0.066616 -0.0795077
internal_weight=164.682 118.625 77.8373 40.7882 31.3381 14.1481 60.6414 46.0561 25.468 19.3798 50.1376 26.778 17.1901 14.8519 23.3595 13.1546 16.2869 20.5881 9.32144 12.9412 10.4912 17.1959 12.0189 9.03591 9.45005 10.205 10.5038
internal_count=718 511 333 178 136 61 262 207 114 86 216 116 75 66 100 56 71 93 41 58 45 71 49 41 42 44 46
is_linear=0
shrinkage=0.05


Tree=11
num_leaves=29
num_cat=0
split_feature=14 17 18 16 18 18 18 18 17 14 18 18 14 16 17 17 18 17 17 18 18 3 3 14 3 2 1 1
split_gain=106.048 19.4815 15.7953 10.1473 13.9052 15.9008 15.1985 7.1757 5.37467 4.60394 4.32525 10.0768 10.3099 3.52364 3.10069 9.84776 2.66547 1.95566 2.47731 0.798789 0.0367582 0.0168298 0.0165459 0.0128692 0.00608662 0.00510475 0.00288608 0.000635893
threshold=-0.13298424773079157 0.25025140034646959 0.15940616134758123 1.0000000180025095e-35 0.66436057690957917 0.32885578940492971 0.24295524760259435 0.11727140279591015 1.7168751626577043 -0.136113290591349 0.21260991583549302 -0.077007340679053959 -0.0414448307104592 1.0000000180025095e-35 -1.2229021272179155 -1.1127610984080236 -0.33624916819060829 -0.53026270094844996 -0.25973157263546282 0.44280382938609636 0.12985752975632933 -0.072391157937866921 -0.39079571705349975 -0.019396720561659638 -0.090017622159837454 0.18013117729650918 0.69175440515730002 0.10388510522982361
decision_type=2 2 2 2 2 2 2 2 2 2 2 2 2 2 2 2 2 2 2 2 2 2 2 2 2 2 2 2
left_child=9 10 7 -4 5 6 -5 -3 -6 20 11 14 -13 -11 23 -16 24 -14 -19 -12 21 26 -22 -2 27 -24 -1 -17
right_child=1 2 3 4 8 -7 -8 -9 -10 13 19 12 17 -15 15 16 -18 18 -20 -21 22 -23 25 -25 -26 -27 -28 -29
leaf_value=-0.07267055858432063 0.078211655971101718 -0.013902816709865595 0.083043380578566195 -0.044535728982214549 0.090785492628689124 -0.079943258434609032 0.073989037405764888 -0.084048756644944309 0.019748272468409659 -0.013740040871894689 0.077114587631938666 0.054737345584274968 -0.041306269100630601 -0.067433417343749288 -0.021156603957466224 0.070523047144974968 0.031410174592795319 0.022225762883624448 -0.027418559513945243 0.051738380908438221 -0.080515795715994973 -0.07653655918269181 -0.075851631324558577 0.074584782888452911 0.073235828447784687 -0.078130942844552048 -0.0743381305908139 0.071387390227285449
leaf_weight=5.9748309701681119 4.959839254617691 8.9564468115568143 5.2373430877923957 5.1605565398931557 4.8988073617219907 6.7999155521392813 5.6835455894470215 6.1488267779350272 5.833303302526474 6.2100508660078049 7.9398260414600355 8.2207867503166216 4.8007167279720298 6.0152668058872205 4.7814794778823844 4.1214418113231641 5.9619710296392521 5.0425350069999686 5.0092967003583899 5.0886301398277283 4.6484312862157831 7.1467187702655819 5.3455450832843745 4.8253117799758858 4.5405286997556695 4.5450294613838196 4.5863324850797653 4.3992242068052292
leaf_count=28 22 38 22 23 20 30 26 26 27 25 35 36 20 27 21 20 27 21 21 22 20 32 24 22 21 20 21 21
internal_value=-0.000455403 0.0242694 1.28782e-05 0.019098 0.00729563 -0.020002 0.0175848 -0.0424568 0.0521741 -0.0662869 0.0412262 0.0352533 0.00981266 -0.040159 0.0527289 0.0429892 0.0591122 -0.0150529 -0.00251432 0.0672032 -0.0761924 -0.0746627 -0.0780554 0.0764232 0.0717572 -0.076899 -0.0733947 0.0709693
internal_weight=162.883 118.41 48.7187 33.6135 28.3761 17.644 10.8441 15.1053 10.7321 44.4722 69.6916 56.6631 23.0733 12.2253 33.5898 23.8046 19.0232 14.8525 10.0518 13.0285 32.2469 17.7079 14.539 9.78515 13.0612 9.89057 10.5612 8.52067
internal_count=718 521 212 148 126 79 49 64 47 197 309 252 98 52 154 110 89 62 42 57 145 81 64 44 62 44 49 41
is_linear=0
shrinkage=0.05


Tree=12
num_leaves=28
num_cat=0
split_feature=14 17 18 16 18 18 18 18 17 14 18 18 17 18 16 17 17 17 14 18 18 3 3 3 2 1 14
split_gain=97.7295 17.8784 14.4146 9.35221 12.6884 14.7038 14.047 6.70018 4.94155 4.44429 4.1417 7.83395 12.551 18.2681 3.32959 3.22499 1.9346 1.3372 1.89722 0.779797 0.0293202 0.0135872 0.0131322 0.00668942 0.0040999 0.00232755 0.000953903
threshold=-0.13298424773079157 0.25025140034646959 0.15940616134758123 1.0000000180025095e-35 0.66436057690957917 0.32885578940492971 0.24295524760259435 0.11727140279591015 1.7168751626577043 -0.136113290591349 -0.33624916819060829 0.21260991583549302 -0.93932623695865602 -0.024081358250630614 1.0000000180025095e-35 -1.1889433049537408 -0.39570008292934827 -1.0412173694609821 -0.045401973482202186 0.44280382938609636 0.12985752975632933 -0.072391157937866921 -0.39079571705349975 -0.20712851817635178 0.18013117729650918 0.69175440515730002 -0.018861176252987052
decision_type=2 2 2 2 2 2 2 2 2 2 2 2 2 2 2 2 2 2 2 2 2 2 2 2 2 2 2
left_child=9 10 7 -4 5 6 -5 -3 -6 20 15 12 17 -14 -11 -2 -15 18 -12 -13 21 25 -22 26 -24 -1 -17
right_child=1 2 3 4 8 -7 -8 -9 -10 14 11 19 13 16 -16 23 -18 -19 -20 -21 22 -23 24 -25 -26 -27 -28
leaf_value=-0.071090209175646388 0.026915640968509055 -0.013213350984266179 0.080430324160963004 -0.042631225629323144 0.087298328257975191 -0.077740515899223483 0.072281866601535211 -0.081375080746628997 0.018873168162934849 -0.0130652698851128 0.063268325662017441 0.075112673402065677 -0.084185809028226394 0.047798991118391546 -0.065575292563962814 0.070320307774779767 0.0091488418882685295 0.072215640425294658 0.019043261059574188 0.049819029027007924 -0.078189112716176942 -0.074610495947141184 -0.073979268974974421 0.071913206738863061 -0.076047209243407118 -0.072608649915171436 0.069292073990587261
leaf_weight=5.8065358996391314 5.8744704723358181 8.9526960551738721 5.1395807564258567 5.1225216984748894 4.8411850780248624 6.6468296498060218 5.5307630002498627 6.0361449420452109 5.7994730770587921 6.204384371638298 4.9904143661260596 7.748703792691229 5.527757763862609 5.0764598548412296 5.8798713982105237 4.0995746701955795 8.9382727593183589 5.7428268194198564 4.7174439728260031 5.0221468359231949 4.5499048978090277 6.9691460579633739 5.2102219909429532 5.9202192127704594 4.4387751221656799 4.4638986736536026 5.0146675705909729
leaf_count=28 26 38 22 23 20 30 26 26 27 25 22 35 23 22 27 20 38 27 21 22 20 32 24 28 20 21 25
internal_value=-0.000439471 0.0234006 1.33053e-05 0.0184438 0.00704162 -0.0193833 0.0170271 -0.0406627 0.0500046 -0.0643864 0.0397711 0.0316469 0.019414 -0.00721168 -0.0386152 0.05833 0.0231488 0.053091 0.0417776 0.0651659 -0.0742922 -0.0729065 -0.0759747 0.0706046 -0.0749306 -0.0717502 0.0697546
internal_weight=160.265 116.742 48.0692 33.0804 27.9408 17.3001 10.6533 14.9888 10.6407 43.5227 68.673 47.764 34.9932 19.5425 12.0843 20.9089 14.0147 15.4507 9.70786 12.7709 31.4385 17.2396 14.1989 15.0345 9.649 10.2704 9.11424
internal_count=718 521 212 148 126 79 49 64 47 197 309 210 153 83 52 99 60 70 43 57 145 81 64 73 44 49 45
is_linear=0
shrinkage=0.05


Tree=13
num_leaves=27
num_cat=0
split_feature=14 17 17 16 17 17 14 4 17 17 17 17 14 0 1 17 1 1 16 17 1 1 17 17 17 1
split_gain=90.2082 16.4575 13.1528 15.5232 10.3589 10.2841 4.30986 3.79069 3.71613 3.81055 3.38165 5.75698 3.20749 3.19003 4.93612 4.83577 6.89294 3.94828 3.15281 2.27909 0.959657 0.116356 0.0146585 0.0145043 0.0122494 0.00623629
threshold=-0.13298424773079157 0.25025140034646959 1.7579599905816743 1.0000000180025095e-35 0.88998651486116132 0.58541118079250321 -0.136113290591349 -0.081292687985314235 -0.012843790562647447 -1.2229021272179155 1.5488270032367972 1.1637130440750305 -0.037647771818140684 -0.92303503122627617 0.41364027105227857 -0.67968948940419971 -0.26254548821776597 1.4421337173298372 1.0000000180025095e-35 -1.6142820764835482 -0.34916386429754021 0.073475400955343093 -0.53026270094844996 -1.1577463747296413 -0.012843790562647447 -0.16899426797487885
decision_type=2 2 2 2 2 2 2 2 2 2 2 2 2 2 2 2 2 2 2 2 2 2 2 2 2 2
left_child=6 8 3 -3 5 7 22 -5 9 19 11 -6 -7 -11 15 16 -15 -16 -8 -2 -17 -22 23 -1 -24 -26
right_child=1 2 -4 4 10 12 18 -9 -10 13 -12 -13 -14 14 17 20 -18 -19 -20 -21 21 -23 24 -25 25 -27
leaf_value=-0.073337368048057502 0.029918516869783668 0.070390812657402255 0.071086303313218011 -0.0062854327144489215 -0.072671751168787671 0.073028881964432246 -0.012424168679462786 -0.063318509660786712 0.075426947395992219 -0.0057761359060916166 -0.089069917360358283 0.0012908094878567036 0.013544281593597957 0.052854612765966737 -0.016689244112605469 0.047131845354403699 -0.023107738407618598 0.040357988699694175 -0.063851031427190688 0.07531435477644903 0.074461557180615853 0.063716720977605432 -0.075415172384698637 -0.06975291420408844 -0.071344717482038619 -0.07353713151538542
leaf_weight=4.7037569880485535 4.2162978798151007 5.2763992995023719 5.7231144458055487 7.3205493390560115 5.533679470419882 4.2467278242111206 6.1984646320343018 4.8394258618354851 6.1765122711658469 5.9598815441131583 4.5517168194055548 5.015531450510025 4.8592356294393522 6.8104602843523026 7.3644901663064939 7.9916406273841849 5.3186265379190392 5.1568885892629623 5.7402739673852903 8.0314687490463239 6.2593349814415067 4.2170892506837845 5.5271480083465603 7.0554076731205004 5.5984831899404535 7.711066305637357
leaf_count=22 19 23 28 31 26 20 25 21 28 27 19 23 21 33 32 37 23 24 27 37 29 20 25 35 27 36
internal_value=-0.000426094 0.0226072 1.40722e-05 -0.00975352 -0.0213815 0.00110555 -0.0626298 -0.0289835 0.0384606 0.0347376 -0.053049 -0.0375069 0.041286 0.0285113 0.0332506 0.0440728 0.019545 0.00680547 -0.0371508 0.0596868 0.0601817 0.0701364 -0.0725719 -0.0711867 -0.0734366 -0.0726149
internal_weight=157.404 114.869 47.3664 41.6433 36.3669 21.2659 42.5346 12.16 67.5027 61.3262 15.1009 10.5492 9.10596 49.0784 43.1185 30.5972 12.1291 12.5214 11.9387 12.2478 18.4681 10.4764 30.5959 11.7592 18.8367 13.3095
internal_count=718 521 212 184 161 93 197 52 309 281 68 49 41 225 198 142 56 56 52 56 86 49 145 57 88 63
is_linear=0
shrinkage=0.05


Tree=14
num_leaves=27
num_cat=0
split_feature=14 18 18 18 18 18 18 18 18 18 18 18 14 16 4 18 4 4 18 2 2 18 18 4 15 2
split_gain=83.3176 11.3185 9.3708 10.4931 12.4499 18.315 9.54922 5.14204 11.4101 9.01505 6.10447 5.0783 4.1962 2.99064 2.50014 2.26279 2.23975 0.876777 0.0193034 0.0086118 0.00712975 0.00708732 0.00601124 0.00531614 0.00368914 0.000951766
threshold=-0.13298424773079157 -0.33624916819060829 0.66436057690957917 0.40783597496342339 0.20693753588729877 0.19237925330226283 0.15671568731595784 0.018404922183013411 -0.13537873423231561 0.061584055125527469 0.13343881605339222 -0.077007340679053959 -0.136113290591349 1.0000000180025095e-35 -0.093590939093185735 1.3507710811448599 -0.034471806597714885 -0.14303760905479973 0.12985752975632933 -0.10145239559972234 0.80752007604155629 -0.47652407622467413 -0.077007340679053959 -0.10135830603420475 0.050381099452876998 -0.12265495141280487
decision_type=2 2 2 2 2 2 2 2 2 2 2 2 2 2 2 2 2 2 2 2 2 2 2 2 2 2
left_child=12 14 3 4 5 6 7 8 -3 -9 -11 24 18 -14 -2 -4 17 -6 20 -20 22 25 -1 -21 -10 -16
right_child=1 2 15 -5 16 -7 -8 9 11 10 -12 -13 13 -15 21 -17 -18 -19 19 23 -22 -23 -24 -25 -26 -27
leaf_value=-0.071652380402051671 0.032962672388171348 -0.036517041443304032 0.071276063339836812 -0.050178738954534445 0.044382294486803579 -0.078134096674520523 0.074773214442555969 -0.060641516327654313 0.068870591279753576 0.040690092707403799 -0.026797639908570182 0.015786995432747433 -0.011814902241977808 -0.062243415055273116 0.069115766558458774 0.029758730934718099 0.022327457791464785 0.072643007869753959 -0.070628127721915776 -0.072126405855039183 -0.068038381422166755 0.071151510144569885 -0.069424947133818957 -0.074564220634665265 0.070983108843339068 0.068051580002016929
leaf_weight=5.632879152894021 7.4804575145244625 6.4058159738779024 7.5504373610019666 7.068901613354682 4.2185433208942422 6.2859817147254935 5.4702357798814765 6.810396924614909 4.1394953131675702 7.3472850769758207 6.1599695831537247 9.0998874902725309 6.1923564672470093 5.5977360755205137 4.5683142691850662 5.8052275776863098 4.7790443152189246 7.8544298708438882 4.5144367069005975 4.6199714243412009 4.0737294554710379 4.1380391716957066 6.5523690134286925 4.3344360291957829 4.1270699352025986 3.8902128934860229
leaf_count=27 36 27 37 33 20 28 25 29 21 32 29 38 25 27 23 24 22 37 22 22 21 20 33 20 20 20
internal_value=-0.000412189 0.0218088 0.0144677 0.00797757 0.0136325 0.00226612 0.0124637 0.00473297 0.0205189 -0.013737 0.00991238 0.0415572 -0.0609983 -0.0357575 0.0558589 0.05323 0.0512996 0.0627681 -0.0710089 -0.0724087 -0.0698492 0.0694559 -0.0704546 -0.0733064 0.0699253 0.0686263
internal_weight=154.718 113.2 93.1227 79.7671 72.6982 55.8461 49.5602 44.0899 23.7723 20.3177 13.5073 17.3665 41.5179 11.7901 20.077 13.3557 16.852 12.073 29.7278 13.4688 16.259 12.5966 12.1852 8.95441 8.26657 8.45853
internal_count=718 521 422 361 328 249 221 196 106 90 61 79 197 52 99 61 79 57 145 64 81 63 60 42 41 43
is_linear=0
shrinkage=0.05


Tree=15
num_leaves=27
num_cat=0
split_feature=14 17 17 16 17 17 17 4 17 3 4 15 4 17 15 1 2 2 3 3 1 4 17 17 1 4
split_gain=73.6116 16.7275 11.1665 7.61178 5.50465 6.38528 3.91576 3.83079 2.99134 4.13391 5.39322 2.32608 1.75854 3.39228 2.46671 1.14941 1.07237 0.448455 0.0928658 0.0881037 0.166334 0.00556656 0.00355934 0.00277795 0.00196083 0.000739789
threshold=-0.13298424773079157 0.25025140034646959 1.7579599905816743 1.0000000180025095e-35 0.88998651486116132 0.45399204403358673 1.2797714249517649 -0.099092733657684826 -0.012843790562647447 0.19742552802582106 -0.10823900287931006 0.089524292666670391 0.14752885866552226 -0.67968948940419971 0.028137073717961956 0.41364027105227857 -0.17817849607807176 -0.35326657323115479 -0.52284767049951009 -0.7303095100763578 0.19135390510287639 -0.11669450348805528 0.45399204403358673 0.53340797557732789 -0.35501593326935849 -0.081130090347695194
decision_type=2 2 2 2 2 2 2 2 2 2 2 2 2 2 2 2 2 2 2 2 2 2 2 2 2 2
left_child=3 8 4 -1 5 -3 16 -7 9 12 11 -11 13 14 -2 17 -6 -15 -14 20 -5 23 25 24 -21 -23
right_child=1 2 -4 19 6 7 -8 -9 -10 10 -12 -13 18 15 -16 -17 -18 -19 -20 21 -22 22 -24 -25 -26 -27
leaf_value=-0.017337681087077735 0.040190699913014022 -0.03579926535120416 0.068413655937154108 -0.055229056481051621 -0.070032670840512415 0.047918086898131866 -0.0051103261891130673 -0.0073361591100032809 0.073878954104500169 0.060266937876535302 -0.019970007855642031 0.015627976124831501 0.068702404579004381 0.049099608918144751 -0.0098820324812015393 0.032326719570882831 -0.036871776896136618 0.070023526688116566 0.05862347022065359 -0.070835607122959318 -0.069088022539130226 -0.068184342096118941 -0.066802576697550284 -0.068479337210306385 -0.069337922831830698 -0.069154475556292255
leaf_weight=9.904381722211836 5.1392964124679548 5.9482555389404324 4.9894969612359992 3.8510510921478254 4.63359458744526 8.1196999996900541 7.8143717199563971 5.1116569191217414 5.748308300971984 5.5665752887725848 6.4889395534992209 6.1343294382095337 5.4666948169469833 4.0320618003606761 4.7170082926750183 4.4643550813198081 5.1451414674520501 7.0178514868021065 3.9272707104682905 4.3460553139448121 4.9450281113386154 3.8835363388061523 3.7467130869626999 3.911129117012023 4.3959873914718655 3.978000149130823
leaf_count=41 23 25 26 20 23 38 33 23 27 26 29 28 28 20 21 20 25 35 20 21 25 20 20 20 22 20
internal_value=-0.00101096 0.0224131 -0.00177578 -0.0557874 -0.0112994 0.00722837 -0.031498 0.0265718 0.0396215 0.0359028 0.0165897 0.0368645 0.0460081 0.0391652 0.016227 0.053738 -0.0525849 0.0623885 0.0644888 -0.0673073 -0.0630204 -0.0688615 -0.0680708 -0.0695869 -0.0700825 -0.0686752
internal_weight=143.427 100.465 41.7622 42.9619 36.7727 19.1796 17.5931 13.2314 58.7027 52.9544 18.1898 11.7009 34.7645 25.3706 9.8563 15.5143 9.77874 11.0499 9.39397 33.0575 8.79608 24.2614 11.6082 12.6532 8.74204 7.86154
internal_count=679 470 193 209 167 86 81 61 277 250 83 54 167 119 44 75 48 55 48 168 45 123 60 63 43 40
is_linear=0
shrinkage=0.05


Tree=16
num_leaves=26
num_cat=0
split_feature=14 17 18 16 16 18 18 18 17 4 17 17 4 0 15 17 3 14 15 18 4 17 17 3 4
split_gain=67.9985 15.3811 11.4233 12.9119 7.40754 6.33811 8.49503 5.69003 4.90571 2.86088 6.85069 6.8539 5.9184 2.36494 1.41186 0.724866 0.101564 0.0928139 0.0864954 0.0203531 0.00830638 0.00331995 0.00414884 0.00301196 0.0020228
threshold=-0.13298424773079157 0.25025140034646959 0.66436057690957917 1.0000000180025095e-35 1.0000000180025095e-35 0.32885578940492971 0.22323072941204028 0.11727140279591015 1.7168751626577043 0.14752885866552226 -0.67968948940419971 -1.2229021272179155 -0.12744798920704062 0.83412194826845287 0.15474712982468941 -0.32574403118753831 -0.51363923087430619 -0.136113290591349 0.062260905254954431 0.21260991583549302 -0.11669450348805528 0.45399204403358673 -0.53026270094844996 0.99667320731857767 0.031079131625123085
decision_type=2 2 2 2 2 2 2 2 2 2 2 2 2 2 2 2 2 2 2 2 2 2 2 2 2
left_child=4 9 3 -3 -1 6 7 -5 -4 10 11 -2 -13 14 15 -12 -11 20 -9 -17 23 22 24 -6 -22
right_child=1 2 8 5 17 -7 -8 18 -10 16 13 12 -14 -15 -16 19 -18 -19 -20 -21 21 -23 -24 -25 -26
leaf_value=-0.016514664832162029 0.052954600387566386 0.065258146115828905 0.08365795426246353 -0.0021081521807460152 -0.069243510285619231 -0.073635003484721392 0.039437326637945143 -0.067248062293066554 0.012979852411125823 0.067564449053563569 0.049849910639052399 0.039128725364933399 -0.033685810077596294 0.017559325798196277 0.038034796081585998 0.074517204773634785 0.05701899833273863 -0.060580282556866587 -0.057132222707896335 0.069970326719134043 -0.06557237644034164 -0.065510645173943421 -0.068433583534931439 -0.067460163465836179 -0.067209262945486126
leaf_weight=9.8787395656108838 6.2880660295486477 4.1869966387748745 4.5025022774934751 7.3719593882560792 5.7817827314138395 6.1671579629182807 5.202387034893035 4.2449201345443708 5.3991703689098358 5.6890567243099213 5.9200721830129668 4.078275293111802 8.8389507979154516 5.0615762919187537 8.0161541402339918 4.2558860927820277 3.8139025866985303 6.2630007117986706 4.207817479968071 5.8363308161497116 3.6019915193319285 4.4884412735700598 3.9238481223583239 4.0095728039741516 3.9648569971323013
leaf_count=41 28 19 19 32 29 30 26 20 27 30 30 20 39 23 38 20 20 32 20 29 20 25 20 21 21
internal_value=-0.0009784 0.0216053 -0.00170458 -0.0164787 -0.0543666 -0.0290634 -0.0159907 -0.0342127 0.0451187 0.0382546 0.0333201 0.0101437 -0.0106965 0.0486212 0.0551644 0.0637399 0.0633322 -0.0660397 -0.0622123 0.0718877 -0.0673665 -0.0666638 -0.0671142 -0.0685132 -0.0664301
internal_weight=140.993 99.0812 41.2829 31.3812 41.9122 27.1942 21.0271 15.8247 9.90167 57.7983 48.2953 19.2053 12.9172 29.09 24.0284 16.0123 9.50296 32.0335 8.45274 10.0922 25.7705 15.9791 11.4907 9.79136 7.56685
internal_count=679 470 193 147 209 128 98 72 46 277 227 87 59 140 117 79 50 168 40 49 136 86 61 50 41
is_linear=0
shrinkage=0.05


Tree=17
num_leaves=26
num_cat=0
split_feature=14 17 17 16 17 14 17 17 17 3 4 15 15 17 17 17 3 15 2 14 4 17 17 3 4
split_gain=62.8756 14.1383 10.1842 7.2219 4.9771 5.68523 4.84215 3.19074 2.83129 3.90133 4.69896 2.13954 1.6669 1.71649 3.10154 1.48722 0.94827 0.589334 0.348034 0.0951908 0.00677763 0.002717 0.00337621 0.00245586 0.00166294
threshold=-0.13298424773079157 0.25025140034646959 1.7579599905816743 1.0000000180025095e-35 0.88998651486116132 0.054330798086472246 0.58541118079250321 1.2797714249517649 -0.012843790562647447 0.19742552802582106 -0.10823900287931006 0.089524292666670391 0.28123490635710574 -0.93932623695865602 -0.54930706823138664 1.0976034217485175 -0.99351934021435706 0.028137073717961956 0.40444714604041404 -0.136113290591349 -0.11669450348805528 0.45399204403358673 -0.53026270094844996 0.99667320731857767 0.031079131625123085
decision_type=2 2 2 2 2 2 2 2 2 2 2 2 2 2 2 2 2 2 2 2 2 2 2 2 2
left_child=3 8 4 -1 5 6 -3 15 9 12 11 -11 13 18 -15 -6 -16 -18 -2 20 23 22 24 -5 -22
right_child=1 2 -4 19 7 -7 -8 -9 -10 10 -12 -13 -14 14 16 -17 17 -19 -20 -21 21 -23 -24 -25 -26
leaf_value=-0.015730861328992148 0.070322594094334986 -0.00099556898392131037 0.066893996268505188 -0.067961584931069435 -0.026670860461678676 -0.030784410223093056 0.062121143929912026 -0.0066356336830468224 0.071166195954945125 0.056828601139408352 -0.019524393986795091 0.013434154227715165 0.018723537408526888 -9.0512315408539418e-05 0.070391832956566466 -0.067159218592169875 0.027021123616956723 0.053484721301762676 0.052323331599577041 -0.059264556913534321 -0.064587531888477975 -0.06453140708094475 -0.067216902382307958 -0.066324656898900283 -0.066097540445022321
leaf_weight=9.8530773520469648 6.9783678650856 6.8721713423728961 4.7821233123540869 5.600886285305025 3.9195451587438601 6.5338135808706275 5.4474381059408188 7.7324101179838172 5.4677700698375693 5.3494356721639651 6.482685759663581 6.056298241019249 5.6887608170509329 4.0158186554908779 4.028736576437951 5.3828786015510559 4.0099650323390961 4.4257108271121979 4.3659205585718155 6.0864390879869488 3.4772320687770844 4.3326723724603644 3.7983122915029508 3.8776521235704422 3.8333017975091934
leaf_count=41 36 31 26 29 19 28 27 33 27 26 29 28 28 20 20 29 20 22 21 32 20 25 20 21 21
internal_value=-0.000950508 0.0208617 -0.00164842 -0.0530206 -0.0107817 0.00691756 0.0269131 -0.0303705 0.0369599 0.0333213 0.014467 0.0337867 0.0433851 0.0484272 0.0381238 -0.0500996 0.0504357 0.040905 0.0633955 -0.0648703 -0.0662395 -0.0655934 -0.0660076 -0.0672919 -0.0653793
internal_weight=138.399 97.5399 40.6704 40.8596 35.8883 18.8534 12.3196 17.0348 56.8695 51.4017 17.8884 11.4057 33.5133 27.8245 16.4802 9.30242 12.4644 8.43568 11.3443 31.0065 24.9201 15.4415 11.1088 9.47854 7.31053
internal_count=679 470 193 209 167 86 58 81 277 250 83 54 167 139 82 48 62 42 57 168 136 86 61 50 41
is_linear=0
shrinkage=0.05


Tree=18
num_leaves=26
num_cat=0
split_feature=14 14 3 4 18 18 14 15 4 3 3 15 18 18 2 3 18 2 0 3 18 18 2 2 1
split_gain=58.1532 7.20409 7.22899 7.14768 7.47672 6.62796 3.53968 4.09581 2.66844 3.87957 3.46902 3.26654 2.96991 7.82352 2.48544 2.25586 2.09468 2.29008 1.82564 0.315034 0.0156279 0.0147484 0.00779913 0.00380207 0.00135773
threshold=-0.13298424773079157 -0.136113290591349 -0.077081667418976554 0.21841573183457297 1.7041850807160766 -1.7848352496201734 -0.10052223506922929 -0.039875967446798478 -0.10865403756931659 0.064046018149433018 -0.23313244769704042 -0.2947637750966699 0.018404922183013411 0.1450192397197739 -0.12265495141280487 0.76415438250211976 0.19237925330226283 0.013578027850161165 -0.066374912950740009 -0.41528369057560072 0.1450192397197739 0.23639676727808881 -0.043807680516225696 -0.79586192804860978 0.92145990417420676
decision_type=2 2 2 2 2 2 2 2 2 2 2 2 2 2 2 2 2 2 2 2 2 2 2 2 2
left_child=1 20 -3 4 5 -2 7 -7 9 -8 11 -10 -11 -14 -12 -15 17 -13 -18 -5 22 -22 23 -1 -24
right_child=3 2 -4 19 -6 6 8 -9 10 12 14 16 13 15 -16 -17 18 -19 -20 -21 21 -23 24 -25 -26
leaf_value=-0.065511840624760551 0.066915601178252307 0.0062379977845738576 -0.072914320646195949 0.066705924621820151 0.080985479195781862 -0.0031879029654139166 0.052657787680628225 0.059606260283709384 -0.028193959129197272 0.034654926724082387 -0.0037314194064470051 0.0077660444282265165 -0.05722613809310341 -0.011641060569225974 -0.045153393569130888 0.033831246725907531 0.023779962814327357 0.058047601463559785 -0.023471093781666886 0.048378586148565106 -0.069924452351131663 -0.066143174335869054 -0.063977804626786525 -0.067763123261407321 -0.065228863115499622
leaf_weight=3.7517042458057404 5.1742042005062094 8.4250900298356992 4.3865069299936286 6.3687309771776199 4.1433965414762488 4.2842712700366974 5.6322013735771135 6.5930517911910993 4.96972075104713 6.6812818050384548 7.4346108585596085 4.2861381173133868 4.9936328083276775 4.268654912710188 7.0607949942350512 7.5542236417531967 3.9714472740888596 4.8010628670454025 4.2126132100820524 3.7110545188188535 4.8557975441217405 5.4991019517183304 5.6042274534702319 3.7500115036964443 3.5376806259155273
leaf_count=21 28 38 22 35 18 21 28 32 23 32 35 20 23 20 32 39 20 23 21 20 25 30 33 20 20
internal_value=-0.000920673 -0.0517393 -0.0208626 0.0201223 0.0154566 0.0121422 0.00844923 0.0348734 0.00408548 0.0153872 -0.0048762 0.00752784 0.0064538 -0.00475064 -0.0239083 0.0174135 0.0178066 0.0343314 -0.000541757 0.0599584 -0.0663912 -0.0679164 -0.0654424 -0.0666372 -0.0644619
internal_weight=135.951 39.8101 12.8116 96.1411 86.0613 81.9179 76.7437 10.8773 65.8664 29.13 36.7364 22.241 23.4978 16.8165 14.4954 11.8229 17.2713 9.0872 8.18406 10.0798 26.9985 10.3549 16.6436 7.50172 9.14191
internal_count=679 209 60 470 415 397 369 53 316 142 174 107 114 82 67 59 84 43 41 55 149 55 94 41 53
is_linear=0
shrinkage=0.05


Tree=19
num_leaves=26
num_cat=0
split_feature=14 14 3 4 18 18 14 15 4 3 3 15 18 18 0 2 0 15 4 3 18 18 2 2 1
split_gain=53.8427 6.94614 6.76888 6.7578 6.93292 6.25827 3.24072 3.80958 2.43506 3.58645 3.13622 2.96035 2.71208 7.15529 2.45662 3.04894 2.26851 2.05322 1.44297 0.320062 0.0129235 0.0122931 0.00648177 0.00317404 0.00112536
threshold=-0.136113290591349 -0.13298424773079157 -0.077081667418976554 0.21841573183457297 1.7041850807160766 -1.7848352496201734 -0.10052223506922929 -0.039875967446798478 -0.10865403756931659 0.064046018149433018 -0.23313244769704042 -0.2947637750966699 0.018404922183013411 0.1450192397197739 -0.30830586097009388 0.15288354684795627 -0.096405360200613868 0.011133431548630076 -0.058754760810131555 -0.41528369057560072 0.1450192397197739 0.23639676727808881 -0.043807680516225696 -0.79586192804860978 0.92145990417420676
decision_type=2 2 2 2 2 2 2 2 2 2 2 2 2 2 2 2 2 2 2 2 2 2 2 2 2
left_child=20 2 -2 4 5 -3 7 -7 9 -8 11 -10 -11 -14 -12 -16 -15 -13 -19 -5 22 -22 23 -1 -24
right_child=1 3 -4 19 -6 6 8 -9 10 12 14 17 13 16 15 -17 -18 18 -20 -21 21 -23 24 -25 -26
leaf_value=-0.064534645925961753 0.0059171283411003951 0.065837579905167296 -0.071411088186292729 0.065656991774455928 0.078633830342551586 -0.0030277587013785041 0.050989390182015704 0.057760579924938528 -0.026781518774263071 0.033298158355872569 -0.052004272735228119 0.04103559747736741 -0.055142748229854405 0.037249783234121606 0.021638603272760015 -0.034573188300115798 -0.0067862253725293588 -0.011915695456832878 0.023960826057907982 0.046944178426177124 -0.068623779235690449 -0.065113936132804293 -0.063114236808145943 -0.066627333621754103 -0.064273941390287928
leaf_weight=3.6213907599449158 8.4375356733798963 5.0003869533538809 4.2581583559513083 6.1524373888969421 4.0561477690935126 4.2853047400712967 5.5283329486846879 6.4667734354734403 4.9702113270759538 6.607746064662936 4.7949418872594824 5.8667216002941158 4.9249465167522457 6.2533547282218995 4.537439808249486 5.1506207883358002 5.4940832853317181 6.099625468254084 5.1852838695049321 3.6351761966943723 4.7042838633060438 5.3114797323942184 5.4019873887300491 3.6263757050037428 3.4138664454221725
leaf_count=21 38 28 22 35 18 21 28 32 23 32 22 29 23 32 22 23 27 30 25 20 25 30 33 20 20
internal_value=-0.000891457 0.014717 -0.0200189 0.0193586 0.0148395 0.0116515 0.00809408 0.033533 0.00391265 0.0147869 -0.00464556 0.00719637 0.00618994 -0.00455382 -0.0227333 -0.00824618 0.0166549 0.0170425 0.00456915 0.0587069 -0.0653529 -0.0667625 -0.064474 -0.0655817 -0.0635633
internal_weight=133.785 107.705 12.6957 95.0095 85.2219 81.1658 76.1654 10.7521 65.4133 28.8085 36.6048 22.1218 23.2801 16.6724 14.483 9.68806 11.7474 17.1516 11.2849 9.78761 26.0794 10.0158 16.0636 7.24777 8.81585
internal_count=679 530 60 470 415 397 369 53 316 142 174 107 114 82 67 45 59 84 55 55 149 55 94 41 53
is_linear=0
shrinkage=0.05


Tree=20
num_leaves=27
num_cat=0
split_feature=14 18 18 18 18 18 4 18 14 3 4 14 15 0 18 15 18 1 4 0 18 18 4 14 1 2
split_gain=58.0985 5.53227 5.71408 6.73745 7.46594 16.0675 7.13022 6.68337 3.96406 4.34495 3.70563 3.86742 3.95336 2.98221 2.48879 2.28928 2.21865 1.41766 0.413804 0.083349 0.0105872 0.00622102 0.00762023 0.00409676 0.00385718 0.000861972
threshold=-0.13298424773079157 -1.7848352496201734 0.66436057690957917 0.40783597496342339 0.20693753588729877 0.19237925330226283 0.14752885866552226 0.1450192397197739 -0.136113290591349 -0.077081667418976554 -0.38733567067808305 0.054330798086472246 0.32330316677125986 -0.14124898329533947 0.018404922183013411 -0.25958064409927845 1.3507710811448599 0.56751626636816876 -0.069166734370555302 -0.20037646717557173 0.12985752975632933 0.32092833005349575 -0.10135830603420475 -0.27567585958545365 0.24043886785840804 0.27216827779598846
decision_type=2 2 2 2 2 2 2 2 2 2 2 2 2 2 2 2 2 2 2 2 2 2 2 2 2 2
left_child=8 -2 3 4 5 6 7 10 20 -10 -3 12 13 -12 -13 -6 -4 -15 -17 -8 23 22 -22 24 -1 -25
right_child=1 2 16 -5 15 -7 19 -9 9 -11 11 14 -14 17 -16 18 -18 -19 -20 -21 21 -23 -24 25 -26 -27
leaf_value=-0.065347230188047362 0.064614498503927198 0.039140547277870447 0.066986044048909385 -0.039563478863808225 0.016535808757109718 -0.07658417659112382 0.055893384141099692 0.050274385407975346 -0.0046240036316551663 -0.07025880414212296 0.038773595837693207 -0.0088099478439660605 -0.03381562692343025 0.015571740420480483 -0.057620970313813281 0.067356448287256718 0.02292694738473813 -0.021447863331835751 0.046823614900093895 0.066542558727692991 -0.06449830710690424 -0.063785731637661811 -0.067657851201955763 -0.062967330353695214 -0.063041442186834787 -0.06187282219453686
leaf_weight=3.5174456685781461 6.3472022861242285 5.2837058156728594 6.9455798566341382 5.9572026133537284 4.279432252049447 5.1537853032350531 3.4858694672584534 8.0117795914411527 6.9602908343076706 3.9538291394710523 8.1282885372638631 5.730415001511572 5.0513311177492133 5.5574035793543111 4.7981768548488617 6.7289205342531195 4.8543187528848648 4.8370313942432404 3.8621782362461063 3.8854743689298621 3.5890476405620575 4.2089675515890121 4.0752147138118726 4.0399588048458135 3.7445490658283234 3.2427203953266144
leaf_count=20 37 27 38 30 21 24 21 39 31 21 39 25 23 26 22 36 21 22 20 22 21 25 22 25 23 21
internal_value=-0.000604141 0.0194573 0.0163604 0.0116112 0.0156872 0.00781776 0.0157599 0.00864544 -0.0537499 -0.0284013 0.000177482 -0.00585927 0.00539337 0.016086 -0.0310545 0.0473985 0.0488607 -0.00165526 0.0598689 0.0615066 -0.0642223 -0.0653301 -0.0661783 -0.0633179 -0.0641583 -0.06248
internal_weight=136.23 98.8981 92.5509 80.751 74.7938 59.9233 54.7695 47.3981 37.332 10.9141 39.3864 34.1026 23.5741 18.5227 10.5286 14.8705 11.7999 10.3944 10.5911 7.37134 26.4179 11.8732 7.66426 14.5447 7.26199 7.28268
internal_count=702 493 456 397 367 290 266 223 209 52 184 157 110 87 47 77 59 48 56 43 157 68 43 89 43 46
is_linear=0
shrinkage=0.05


Tree=21
num_leaves=27
num_cat=0
split_feature=14 18 4 18 18 16 18 18 14 3 4 14 0 18 0 1 18 14 14 3 18 18 18 14 1 2
split_gain=53.911 5.26998 5.40075 7.37886 12.6659 7.37344 4.78999 10.8142 3.93043 4.11883 3.73365 4.71964 3.48841 2.89491 2.55159 1.98775 1.42493 1.16646 0.968619 0.220056 0.0126124 0.00882091 0.00626096 0.00315611 0.00338295 0.000966986
threshold=-0.13298424773079157 -1.7848352496201734 0.26215134023656933 0.20693753588729877 0.19237925330226283 1.0000000180025095e-35 0.32885578940492971 0.49237940028934013 -0.136113290591349 -0.077081667418976554 -0.38733567067808305 0.054330798086472246 -0.59023510537478241 -0.10372700421305721 -0.037792290362401011 -0.14883366446775978 0.018404922183013411 -0.075642843946239671 -0.019396720561659638 -0.51363923087430619 0.25134052773914628 0.1450192397197739 0.23639676727808881 -0.27567585958545365 0.22891042385969521 0.27216827779598846
decision_type=2 2 2 2 2 2 2 2 2 2 2 2 2 2 2 2 2 2 2 2 2 2 2 2 2 2
left_child=8 -2 3 4 5 -3 18 -8 21 -10 -7 12 -12 -14 -15 -9 -13 -16 -5 -4 -20 23 -23 24 -1 -25
right_child=1 2 19 6 -6 10 7 15 9 -11 11 16 13 14 17 -17 -18 -19 20 -21 -22 22 -24 25 -26 -27
leaf_value=-0.064356971371894306 0.063711521513161867 0.057211229704974415 0.064230676810465084 0.036204869726416525 -0.07471312304825066 0.039421373903099431 -0.042054761278833612 0.060232768678283158 -0.0043974820564411298 -0.06897246773701074 0.049144709168611071 -0.01449706397401395 -0.025427887618310347 0.044530844000585067 0.016146271063593978 0.021957540672398499 -0.050977840149357981 -0.020243214246483576 0.069084932817690986 0.046994693175642227 0.065064571544109079 -0.065734614377496711 -0.06328593293332109 -0.062322328254624138 -0.062254664896912643 -0.061162030891369082
leaf_weight=3.7364601790904981 6.1210344880819312 6.7441518753767005 4.1191815584897995 3.7635881155729294 5.0220480263233176 5.4351766854524604 5.6155564934015301 6.5579213201999691 6.9530731737613678 3.8293475210666639 4.0761672258377031 5.3230602890253049 7.8476943075656882 4.3020971417427054 4.3108367919921839 7.0265639722347215 5.3842124789953232 4.5021257996559267 3.9263476431369799 3.3642752170562735 3.8770558089017868 5.0209094583988172 5.4375156760215759 4.2312283664941823 3.9223174601793289 3.1195059418678284
leaf_count=22 37 34 25 20 24 28 29 33 31 21 20 23 36 21 20 35 25 21 20 20 22 29 33 27 25 21
internal_value=-0.000586865 0.0188002 0.0157859 0.0121479 0.000832152 0.00874843 0.0316214 0.0163087 -0.0526341 -0.0273311 0.000811825 -0.00505872 0.00682195 -0.00140763 0.0129654 0.0404349 -0.0328416 -0.0024434 0.0570391 0.056482 0.0670874 -0.0633467 -0.0644615 -0.06257 -0.0632803 -0.0618299
internal_weight=133.569 97.3191 91.1981 83.7146 52.9476 47.9255 30.767 19.2 36.2504 10.7824 41.1814 35.7462 25.0389 20.9628 13.1151 13.5845 10.7073 8.81296 11.567 7.48346 7.8034 25.4679 10.4584 15.0095 7.65878 7.35073
internal_count=702 493 456 411 252 228 159 97 209 52 194 166 118 98 62 68 48 41 62 45 42 157 62 95 47 48
is_linear=0
shrinkage=0.05


Tree=22
num_leaves=28
num_cat=0
split_feature=18 18 18 18 18 16 4 1 3 18 18 4 3 3 18 1 1 2 2 4 4 2 1 0 2 2 4
split_gain=7.19232 6.02619 4.83031 3.53942 7.36656 4.83785 5.80031 4.64011 2.99023 2.92391 3.76483 2.14154 2.92669 4.18597 3.8466 2.32009 2.55901 2.5448 1.71186 1.40592 1.38417 0.897952 0.865998 0.676282 0.45347 0.148095 0.105524
threshold=-1.7848352496201734 0.66436057690957917 1.2002711887794157 0.40783597496342339 0.24295524760259435 1.0000000180025095e-35 0.26215134023656933 0.02692575737308139 -0.41528369057560072 0.19237925330226283 0.21260991583549302 -0.38733567067808305 0.80041850997191488 0.1170155321072172 0.12985752975632933 0.51391157635607498 -0.3185808987284251 0.075659887496076425 -0.10145239559972234 -0.13894457017600084 -0.12337830071196265 -0.262822039713344 0.20698246787841248 -0.032249763717064957 -0.043807680516225696 0.075659887496076425 -0.096183343551933378
decision_type=2 2 2 2 2 2 2 2 2 2 2 2 2 2 2 2 2 2 2 2 2 2 2 2 2 2 2
left_child=24 3 -3 4 5 22 9 -8 -6 11 -11 21 13 14 15 16 -13 -18 -4 -14 -15 -7 26 -22 -1 -10 -2
right_child=1 2 18 -5 8 6 7 -9 25 10 -12 12 19 20 -16 -17 17 -19 -20 -21 23 -23 -24 -25 -26 -27 -28
leaf_value=0.063227844959205706 0.013092891958360579 0.059860986092490902 0.025255295467390016 -0.041833492566055841 -0.0012835679190651463 0.025832386484289711 0.058209371234668496 -0.014021490116116987 0.059299109628618132 -0.071229405183458036 -0.010016412735355376 -0.047017011586605713 -0.028117205202950659 -0.01273502641687875 0.018281432863979128 -0.058394760791233402 0.020589887001474391 -0.034071291055277134 -0.02154753404245812 -0.065644848889098134 0.0078591191356433398 -0.0087881800150595556 0.031615908207117974 0.036009507605577494 0.036880605829904704 0.044951910325319061 0.0032246092902528719
leaf_weight=3.3896734863519669 4.4580275267362603 6.3444329500198346 3.7930709570646286 6.9142027497291556 4.0080876499414444 3.9307226091623306 4.5603951662778837 4.3388258069753647 3.834836006164549 5.7725257575511915 4.4469239264726639 6.1718216836452386 6.4021700620651245 4.3218416869640341 4.329847812652587 6.4692649394273749 4.5874403566122339 3.9737232327461243 4.0289333611726761 4.0902176201343519 4.2488230019807807 3.5776588916778413 5.2717422544956198 4.285462111234664 3.1514779031276694 3.3874528557062149 6.9047958552837381
leaf_count=21 22 36 20 37 22 22 29 27 22 30 24 32 34 23 23 34 23 21 20 21 21 20 26 21 20 20 31
internal_value=-0.000569978 -0.00325595 0.0274427 -0.00719923 -0.00488267 -0.00954247 -0.0149199 0.0229931 0.0333497 -0.0199853 -0.044593 -0.0155256 -0.0193445 -0.0129483 -0.0246643 -0.0334345 -0.0224744 -0.00478148 0.00114824 -0.0427465 0.0103196 0.00933608 0.0148669 0.0219947 0.0505339 0.0525699 0.00709628
internal_weight=130.994 124.453 14.1664 110.287 103.373 92.1422 75.5077 8.89922 11.2304 66.6084 10.2194 56.389 48.8806 38.3882 25.5321 21.2023 14.733 8.56116 7.822 10.4924 12.8561 7.50838 16.6346 8.53429 6.54115 7.22229 11.3628
internal_count=702 661 76 585 548 484 405 56 64 349 54 295 253 198 133 110 76 44 40 55 65 42 79 42 41 42 53
is_linear=0
shrinkage=0.05


Tree=23
num_leaves=27
num_cat=0
split_feature=14 18 4 18 18 18 18 18 14 3 18 18 4 14 18 1 18 18 14 3 18 18 18 14 1 2
split_gain=49.5109 4.71497 4.81289 6.31662 11.1261 5.33529 4.42607 9.68833 3.87465 3.94335 3.45914 9.21577 6.59782 4.62274 3.92468 1.85984 1.54584 1.22556 0.969614 0.225595 0.0112289 0.00948767 0.00519304 0.0032936 0.00357404 0.00091152
threshold=-0.13298424773079157 -1.7848352496201734 0.26215134023656933 0.20693753588729877 0.19237925330226283 0.1450192397197739 0.32885578940492971 0.49237940028934013 -0.136113290591349 -0.077081667418976554 0.018404922183013411 -0.036657019959532418 -0.10823900287931006 0.045824440329971343 -0.25567407074618048 -0.14883366446775978 -0.33624916819060829 0.10985591213230732 -0.019396720561659638 -0.51363923087430619 0.25134052773914628 0.1450192397197739 0.32092833005349575 -0.27567585958545365 0.24043886785840804 0.27216827779598846
decision_type=2 2 2 2 2 2 2 2 2 2 2 2 2 2 2 2 2 2 2 2 2 2 2 2 2 2
left_child=8 -2 3 4 5 10 18 -8 21 -10 11 12 14 17 -3 -9 -14 -12 -5 -4 -20 23 -23 24 -1 -25
right_child=1 2 19 6 -6 -7 7 15 9 -11 13 -13 16 -15 -16 -17 -18 -19 20 -21 -22 22 -24 25 -26 -27
leaf_value=-0.063435399288425953 0.062225097017835879 0.061409671919031808 0.062979635971487397 0.034230789004099135 -0.071496939670091131 0.04692383554723361 -0.040263857950561033 0.058312542844511088 -0.0039333311509537712 -0.067940523665340646 0.021804171143999709 0.074916773231465228 -0.0090192253103706429 -0.055447878695592236 -0.0013725191163442693 0.020750518210393629 -0.047715550191244543 -0.014758839173386731 0.067595575912188996 0.045054522282242701 0.063712915432164882 -0.064529259729428176 -0.06219639975665793 -0.061327461904301828 -0.061224732912007487 -0.060167746382446631
leaf_weight=3.7515020072460157 5.71706199645996 4.5142623037099812 3.8956018090248108 3.6540855020284653 4.749104067683219 7.6804912537336341 5.5025656074285534 6.312089309096339 6.9098773598670959 3.6919741630554181 4.5340685397386533 4.7989268749952378 4.759477287530899 5.268789365887641 5.5492437928915033 6.8956026434898332 5.6382112354040128 4.6345415264368057 3.7655712962150591 3.1947645992040625 3.6839582473039627 6.1463577896356565 3.898689866065979 4.0141250044107473 3.5664653927087784 2.9318966716527939
leaf_count=23 37 23 25 20 24 39 29 33 31 21 20 21 24 25 28 35 25 23 20 20 22 37 25 27 24 21
internal_value=-0.000545509 0.0182093 0.0153829 0.0119632 0.00146441 0.00877795 0.0303195 0.0154785 -0.0514462 -0.0262231 0.00139767 0.012556 -0.00206998 -0.0181253 0.0267902 0.0387018 -0.0300025 0.00332233 0.0553274 0.054903 0.0656755 -0.0624467 -0.0636238 -0.0616178 -0.062358 -0.0608379
internal_weight=129.659 94.7484 89.0314 81.941 52.1271 47.378 29.8139 18.7103 34.9109 10.6019 39.6975 25.2601 20.4612 14.4374 10.0635 13.2077 10.3977 9.16861 11.1036 7.09037 7.44953 24.309 10.045 14.264 7.31797 6.94602
internal_count=702 493 456 411 252 228 159 97 209 52 189 121 100 68 51 68 49 43 62 45 42 157 62 95 47 48
is_linear=0
shrinkage=0.05


Tree=24
num_leaves=28
num_cat=0
split_feature=14 17 17 16 17 14 14 3 18 18 17 18 18 17 17 18 18 17 18 17 15 3 18 18 14 1 14
split_gain=45.9833 8.2719 7.35192 6.47096 9.52042 4.58568 3.8469 3.74636 3.17807 4.82576 5.17394 7.32885 6.20522 8.39487 6.91566 5.97602 2.84432 2.03952 0.675713 0.0511809 0.0188219 0.010485 0.00795019 0.00436898 0.00275076 0.00298771 0.000324804
threshold=-0.13298424773079157 0.25025140034646959 1.7579599905816743 1.0000000180025095e-35 0.88998651486116132 0.012262746495922263 -0.136113290591349 -0.077081667418976554 0.21260991583549302 0.15671568731595784 -1.2229021272179155 0.091728327224866249 -0.33624916819060829 -1.1127610984080236 -0.93932623695865602 -0.024081358250630614 0.55307264485411578 0.58541118079250321 0.44280382938609636 -1.4665442161836808 -0.043270870585461842 0.064046018149433018 0.1450192397197739 0.32092833005349575 -0.27567585958545365 0.24043886785840804 -0.18621633881044164
decision_type=2 2 2 2 2 2 2 2 2 2 2 2 2 2 2 2 2 2 2 2 2 2 2 2 2 2 2
left_child=6 8 3 -3 5 17 22 -8 9 10 19 12 13 -12 -14 -16 20 -5 -10 -2 -6 -15 24 -24 25 -1 -26
right_child=1 2 -4 4 16 -7 7 -9 18 -11 11 -13 14 21 15 -17 -18 -19 -20 -21 -22 -23 23 -25 26 -27 -28
leaf_value=-0.062620744610500587 0.062114958301537675 0.048656359030846835 0.06230610192622002 0.0043703387907348913 -0.070733613643776921 -0.021946481070143818 -0.0037400977146375782 -0.066838123398067523 0.064719268504910596 -0.026276476215540856 -0.026547931741082654 0.069829612558975782 0.035544823569167321 0.060830238552563531 -0.081054213059778751 -0.00080177657991316407 -0.017362008425219119 0.050856195136948085 0.039063492505812272 0.070234090602562013 -0.065854831354040883 0.064433534785719268 -0.063645135837662917 -0.061464620621752245 -0.060527874690194432 -0.060560338169205287 -0.059828858075523843
leaf_weight=3.613780811429022 3.9857073128223419 4.3496389836072913 4.1499906033277503 4.2256969511508995 3.7212106138467789 7.4714730083942404 6.9036909639835358 3.5683599114418012 6.3780380338430387 4.3079227954149237 3.8505569249391511 6.1598612219095221 4.7598107010126123 5.4841842949390411 4.3791601210832587 4.9326068460941341 4.2254420071840286 5.3428528308868408 4.2944979518651962 3.7836057245731345 4.2173227220773679 3.1950536817312241 5.9257441237568838 3.7515775114297867 3.554149001836775 3.4287988692522049 3.1212366223335319
leaf_count=23 26 22 27 20 20 34 31 21 37 21 19 31 25 38 19 22 19 29 22 19 24 19 37 25 25 24 23
internal_value=-0.000530621 0.0175985 -0.000474443 -0.00823928 -0.0167133 0.00740682 -0.0504282 -0.0252408 0.0298738 0.0240371 0.0293848 0.0206852 0.00930519 0.0348967 -0.0134823 -0.0385431 -0.0505022 0.0303269 0.0543957 0.0660689 -0.0681418 0.0621567 -0.0617024 -0.0627998 -0.0609283 -0.0616176 -0.060201
internal_weight=127.082 93.2146 37.7036 33.5536 29.204 17.04 33.8673 10.4721 55.511 44.8385 40.5305 32.7612 26.6014 12.5298 14.0716 9.31177 12.164 9.56855 10.6725 7.76931 7.93853 8.67924 23.3953 9.67732 13.718 7.04258 6.67539
internal_count=702 493 195 168 146 83 209 52 298 239 218 173 142 76 66 41 63 49 59 45 44 57 157 62 95 47 48
is_linear=0
shrinkage=0.05


Tree=25
num_leaves=27
num_cat=0
split_feature=18 17 17 18 18 17 18 18 18 17 17 18 17 18 17 15 0 2 17 2 1 15 3 2 18 18
split_gain=8.5249 11.2041 4.31557 3.58817 4.40565 10.2991 4.99283 9.27491 3.86174 2.59001 6.66786 6.57523 5.1844 4.8387 4.45579 2.60871 1.60868 1.2646 0.965091 0.952322 0.547147 0.403791 0.269575 0.258489 0.0287159 0.0148157
threshold=0.66436057690957917 0.88998651486116132 1.2797714249517649 -1.7848352496201734 0.12985752975632933 -1.2361048384980327 0.18924110454803614 0.21260991583549302 0.32092833005349575 -0.54930706823138664 -0.25973157263546282 0.022852641763411247 -0.93932623695865602 -0.036657019959532418 -1.1127610984080236 -0.003782041168447573 0.76724606015523589 -0.014103096309241251 -0.041229067547159236 -0.051205654866170375 -0.26827102226652516 0.046616758175538411 0.71765381613964208 -0.24231695358307351 0.17728602356108705 0.16840071579572166
decision_type=2 2 2 2 2 2 2 2 2 2 2 2 2 2 2 2 2 2 2 2 2 2 2 2 2 2
left_child=1 3 22 19 5 -5 18 -8 21 12 -11 13 14 -12 15 -7 20 -10 -6 -1 -2 -9 25 -13 -20 -3
right_child=16 2 -4 4 6 9 7 8 17 10 11 23 -14 -15 -16 -17 -18 -19 24 -21 -22 -23 -24 -25 -26 -27
leaf_value=0.06045523224944184 0.040884401518360758 -0.067946631804936736 -0.0075242135994609749 0.051864821508335768 0.057248951702238315 -0.0057286656077170598 -0.053117274308169052 0.03218797835518647 -0.023167035093703159 0.036703740308325898 -0.029087725524447373 -0.04735610832533399 -0.069444443061820321 0.040249875464219591 0.021524534255947591 -0.059920145246485583 0.012522983186355875 0.016173897459710151 0.025647930065519312 0.020382980331905054 0.066200537370270041 0.055150752156338828 -0.048765963708513861 -0.065575718274853326 0.031109439713168825 -0.063378342025888643
leaf_weight=3.0864004045724869 4.5484065264463416 3.5546382367610949 6.1855565458536139 6.2264878228306761 4.2898463606834403 4.0322669297456741 6.0762180835008648 3.4790025949478141 4.2908743619918823 6.7041028738021842 5.1313585862517357 3.9809116572141647 5.8976594954729036 4.9368798583746045 5.5167382732033738 4.9432671889662743 3.4971055388450614 3.8987085074186307 4.055972144007681 2.8533138781785956 4.0211180746555319 4.2571287006139755 3.5345556363463402 3.8097333237528792 5.9192034751176834 3.5446481257677078
leaf_count=22 26 20 34 38 23 22 32 22 22 37 26 20 34 26 35 26 20 22 22 20 24 26 21 20 26 22
internal_value=0.00120246 -0.00316614 -0.040732 0.00359969 0.00104536 -0.00840203 0.0143774 -0.000560667 0.0194915 -0.0167497 -0.00581491 -0.0217761 -0.0299224 0.00491141 -0.0138388 -0.0355746 0.0411012 -0.00443851 0.0374174 0.0412054 0.0527636 0.0448242 -0.0600484 -0.0562657 0.0288888 -0.0656657
internal_weight=122.272 110.205 16.8194 93.3861 87.4464 51.1794 36.267 22.0019 15.9257 44.9529 24.563 17.8589 20.3899 10.0682 14.4923 8.97553 12.0666 8.18958 14.265 5.93971 8.56952 7.73613 10.6338 7.79064 9.97518 7.09929
internal_count=688 618 97 521 479 284 195 124 92 246 129 92 117 52 83 48 70 44 71 42 50 48 63 40 48 42
is_linear=0
shrinkage=0.05


Tree=26
num_leaves=25
num_cat=0
split_feature=14 18 17 17 18 18 17 18 17 18 18 18 17 4 18 18 17 1 14 16 18 18 17 17
split_gain=40.6414 7.97125 13.9163 5.97799 3.56651 3.04978 8.34274 6.43982 7.72066 3.92978 8.61874 4.8351 4.07355 4.44652 2.5979 1.99314 0.866012 0.272837 0.190239 0.0579123 0.00262714 0.00189359 0.000819334 0.00252162
threshold=-0.136113290591349 0.66436057690957917 0.88998651486116132 1.2797714249517649 -1.7848352496201734 0.12985752975632933 -1.2361048384980327 0.18350511540890146 -0.3710210888637317 0.018404922183013411 -0.024081358250630614 0.061584055125527469 -1.1127610984080236 -0.074878177502804608 0.32885578940492971 0.21260991583549302 1.7168751626577043 0.058257244447993482 -0.012858941030101198 1.0000000180025095e-35 0.23639676727808881 -0.33624916819060829 -0.54930706823138664 0.45399204403358673
decision_type=2 2 2 2 2 2 2 2 2 2 2 2 2 2 2 2 2 2 2 2 2 2 2 2
left_child=19 2 4 17 -2 6 -6 -7 -9 10 12 -11 -8 -14 15 -10 -3 -4 -17 -1 21 -21 -23 -24
right_child=1 16 3 -5 5 7 9 8 14 11 -12 -13 13 -15 -16 18 -18 -19 -20 20 -22 22 23 -25
leaf_value=-0.067659665207988703 0.059832320954239807 0.067115327135849931 -0.065390302029858557 0.0096854584089125367 0.063931648284686032 0.068379457950609734 -0.04883001931802506 -0.046727923485600856 0.017256431681189829 -0.054445860809406978 0.067377417290576933 0.011877972419201232 0.034308684633086638 -0.023148445027395742 -0.00023716069979998154 0.047007835021814881 0.036418009229539861 -0.047605218889002272 0.062962996530641954 -0.060963663315137785 -0.061367884728241187 -0.059082253346369164 -0.060960913983715337 -0.058994852138530854
leaf_weight=3.0693465918302563 4.8642757236957541 6.6763023138046247 5.9610479623079282 4.8030448108911505 5.4378385767340651 7.3060625344514873 4.3935073465108845 4.2077930122613969 5.5230496376752836 6.6047539189457876 4.9769027531147065 4.7057930529117584 6.9836707860231364 6.5024135261774099 5.6564272791147223 3.1257889568805757 3.5030582398176193 3.3786353468894958 4.6438332349061904 3.3460981547832516 4.0266240090131751 4.4545248001813915 3.2095260173082307 3.3157669231295586
leaf_count=16 36 35 35 26 34 39 20 20 24 32 23 24 38 33 27 20 24 20 29 23 27 35 22 26
internal_value=0.00115548 0.0146357 0.00984566 -0.0356449 0.0184316 0.0155574 0.00640879 0.0274516 0.0145387 -0.00274623 0.00918232 -0.0268516 -0.00701667 0.00660531 0.0281434 0.0402202 0.0565514 -0.0589565 0.0565441 -0.0613027 -0.0602395 -0.0599224 -0.059605 -0.0599619
internal_weight=120.676 99.2542 89.0748 14.1427 74.9321 70.0678 39.6049 30.463 23.1569 34.167 22.8565 11.3105 17.8796 13.4861 18.9491 13.2927 10.1794 9.33968 7.76962 21.4219 18.3525 14.3259 10.9798 6.52529
internal_count=688 539 480 81 399 363 204 159 120 170 114 56 91 71 100 73 59 55 49 149 133 106 83 48
is_linear=0
shrinkage=0.05


Tree=27
num_leaves=29
num_cat=0
split_feature=14 18 17 17 18 4 4 18 1 4 1 17 14 18 18 15 15 3 17 14 1 14 16 4 3 14 17 17
split_gain=38.0528 7.43157 12.8096 5.63074 3.42871 2.95461 3.77025 6.81125 6.53094 3.1938 2.89099 2.33926 2.079 1.80002 2.18024 3.16593 3.13994 0.91411 0.823482 0.31934 0.279668 0.0901521 0.0478864 0.0021988 0.001228 0.00111327 0.00131805 0.00203023
threshold=-0.136113290591349 0.66436057690957917 0.88998651486116132 1.2797714249517649 -1.7848352496201734 -0.10823900287931006 0.019161814479975777 -0.10372700421305721 -0.25410119458587499 -0.081130090347695194 0.23208179609633503 -0.32574403118753831 -0.048359395888816471 -0.25567407074618048 0.061584055125527469 0.12637822462052148 -0.27974053681056438 0.91555389728549064 1.7168751626577043 0.087272243166365296 0.058257244447993482 -0.10004411574032347 1.0000000180025095e-35 -0.11669450348805528 0.86724630822034143 -0.18938641183005003 0.43381353587731525 -0.84401671738224204
decision_type=2 2 2 2 2 2 2 2 2 2 2 2 2 2 2 2 2 2 2 2 2 2 2 2 2 2 2 2
left_child=22 2 4 20 -2 13 7 -7 12 21 19 -11 -9 -6 15 -15 -16 -18 -3 -8 -4 -10 -1 24 -24 26 27 -25
right_child=1 18 3 -5 5 6 10 8 9 11 -12 -13 -14 14 16 -17 17 -19 -20 -21 -22 -23 23 25 -26 -27 -28 -29
leaf_value=-0.066508373576841487 0.059265222538478261 0.065658918659488016 -0.064446073547823085 0.0092145184906169669 0.060916707789820924 -0.04602507207914866 0.062561533722315085 0.0022810470047378911 0.050212814001268292 -0.025471294794147076 -0.0026042585684132391 0.027027555252556526 -0.046269336257558961 0.033383332560144231 -0.00610614315314577 -0.028862472794408151 0.036801864752179121 0.068535370509527724 0.035365175352905544 0.040914479782634225 -0.046201598641427921 0.040634519633934496 -0.061089038156061176 -0.058882794474182626 -0.059657947474261799 -0.05836784903676704 -0.058533533445415689 -0.060681926484242144
leaf_weight=2.9689012169837978 4.6701927185058585 6.4879655987024289 5.7512840256094915 4.7962731122970572 3.7483462244272259 6.6557996869087139 3.7371836677193624 3.9439036548137665 5.8517519384622521 3.6748707145452499 3.6038238927721977 5.0209714919328885 5.001036390662188 4.2151814848184603 3.2004890292882946 3.9636712595820427 4.9173782467842049 4.2141871601343155 3.4288894534111023 3.13112972676754 3.3090076372027397 4.2341831773519516 3.2048003152012869 2.7846412584185627 2.8162960559129715 2.77162137627601 2.460824228823185 3.5890569090843192
leaf_count=16 36 35 35 26 21 32 25 21 25 18 19 26 24 22 18 20 29 22 24 19 20 22 22 22 21 23 20 25
internal_value=0.00112195 0.0141597 0.0095176 -0.0345925 0.0178014 0.0149996 0.00739685 -0.000603338 0.0103002 0.0270468 0.0336633 0.00484149 -0.024863 0.0290569 0.0232346 0.0032175 0.0365103 0.0514468 0.0551844 0.0526931 -0.0577828 0.0461917 -0.0606338 -0.0596443 -0.0604197 -0.0592421 -0.0595164 -0.0598959
internal_weight=118.154 97.5575 87.6407 13.8566 73.7841 69.1139 44.8547 34.3825 27.7267 18.7818 10.4721 8.69584 8.94494 24.2593 20.5109 8.17885 12.3321 9.13157 9.91686 6.86831 9.06029 10.0859 20.5961 17.6272 6.0211 11.6061 8.83452 6.3737
internal_count=688 539 480 81 399 363 231 168 136 91 63 44 45 132 111 42 69 51 59 44 55 47 149 133 43 90 67 47
is_linear=0
shrinkage=0.05


Tree=28
num_leaves=26
num_cat=0
split_feature=14 18 18 18 18 16 18 18 18 18 14 18 18 18 18 14 3 3 18 16 2 18 18 14 18
split_gain=35.6269 6.94573 5.7185 4.86799 6.11382 8.12959 3.8272 5.34177 4.04761 8.24058 3.81571 3.56409 4.883 1.812 2.51237 1.44452 1.24725 0.565464 0.26565 0.039698 0.0309638 0.00184219 0.00133346 0.000509581 0.0002736
threshold=-0.136113290591349 0.66436057690957917 0.40783597496342339 0.23639676727808881 0.018404922183013411 1.0000000180025095e-35 -0.024081358250630614 -0.077007340679053959 -0.13537873423231561 -0.33624916819060829 -0.042264435204320334 0.061584055125527469 0.19237925330226283 0.14738234739921738 0.11727140279591015 -0.12585959333121635 -0.31215442526064113 0.020496432128697634 -1.3424638668372559 1.0000000180025095e-35 0.041168131260938025 0.23639676727808881 -0.33624916819060829 -0.18938641183005003 0.018404922183013411
decision_type=2 2 2 2 2 2 2 2 2 2 2 2 2 2 2 2 2 2 2 2 2 2 2 2 2
left_child=19 2 3 4 6 15 7 8 9 10 -2 -7 13 14 -13 -6 -5 -3 -12 -1 -18 22 -21 24 -24
right_child=1 17 -4 16 5 11 -8 -9 -10 -11 18 12 -14 -15 -16 -17 20 -19 -20 21 -22 -23 23 -25 -26
leaf_value=-0.065449721284304471 0.00033462117054365023 0.066389132506467052 -0.036241077684694881 0.021010650939986098 0.01435198173212732 -0.052459933891290979 0.065294852243068288 -0.041731796274650929 0.064017602067120261 -0.036357907538536002 0.044908816283617925 0.030105125328912852 -0.044176693384011312 0.036838398588420807 -0.022385410497364616 0.050391757088275473 0.062481288889138425 0.042177211882391652 0.063421584723655972 -0.059720718725980018 0.0554918052401039 -0.060071290925908016 -0.059073704548000719 -0.057991127972882021 -0.058452063291328141
leaf_weight=2.8686194121837643 4.7283612191677156 4.6654687970876676 6.4192829877138129 3.2454788833856583 6.1898947954177856 6.4573891162872341 4.8450932651758185 3.3832022622227695 5.2841244563460341 5.5893770307302466 3.0724887326359793 3.5257489979267138 6.9150964692234984 3.7747574895620337 6.4498491287231445 5.0476194918155652 3.2912409305572492 4.9915180429816246 5.2470816597342429 3.0901830345392254 3.0556721836328506 3.7214524000883094 3.5766610950231579 3.0287794023752168 3.5041215792298317
leaf_count=16 29 28 36 20 26 32 23 15 34 26 24 19 39 21 35 27 21 31 33 23 20 27 28 26 29
internal_value=0.00108444 0.0136555 0.00916647 0.0128054 0.00825904 -0.00521966 0.0243415 0.0170745 0.0253915 0.0144401 0.0362005 -0.0200356 -0.00990394 0.00733193 -0.00383329 0.0305402 0.0462236 0.0538744 0.0565847 -0.0600108 0.0591163 -0.0590888 -0.0588117 -0.0585339 -0.0587661
internal_weight=115.969 96.1787 86.5218 80.1025 70.5101 38.3604 32.1497 27.3046 23.9214 18.6373 13.0479 27.1228 20.6655 13.7504 9.9756 11.2375 9.59239 9.65699 8.31957 19.7898 6.34691 16.9212 13.1997 10.1096 7.08078
internal_count=688 539 480 444 383 199 184 161 146 112 86 146 114 75 54 53 61 59 57 149 41 133 106 83 57
is_linear=0
shrinkage=0.05


Tree=29
num_leaves=27
num_cat=0
split_feature=18 17 17 18 18 17 18 18 18 4 17 18 4 18 0 18 18 0 4 17 2 4 0 3 18 18
split_gain=6.28933 8.79464 3.63272 2.90617 3.4648 8.37007 3.9898 7.58069 3.21578 2.26749 3.35738 6.31006 3.81703 2.56162 2.10521 1.82565 1.52258 1.42036 1.34481 0.943222 0.792781 0.614245 0.41233 0.308765 0.0126818 0.00512123
threshold=0.66436057690957917 0.88998651486116132 1.2797714249517649 -1.7848352496201734 0.12985752975632933 -1.2361048384980327 0.18924110454803614 0.21260991583549302 0.32092833005349575 -0.10823900287931006 -0.5350532553945635 0.022852641763411247 -0.014403447740531912 -0.036657019959532418 0.16017517467299511 -0.019253824282148158 -0.014707924920730026 0.76724606015523589 -0.10317476626005967 -0.041229067547159236 -0.051205654866170375 -0.11966087355567655 -0.29044170224666072 0.71765381613964208 0.16840071579572166 0.18350511540890146
decision_type=2 2 2 2 2 2 2 2 2 2 2 2 2 2 2 2 2 2 2 2 2 2 2 2 2 2
left_child=1 3 23 20 5 -5 19 -8 22 14 12 13 15 -12 16 -11 -7 21 -10 -6 -1 -2 -9 24 -3 -21
right_child=17 2 -4 4 6 9 7 8 18 10 11 -13 -14 -15 -16 -17 -18 -19 -20 25 -22 -23 -24 -25 -26 -27
leaf_value=0.058527344066756616 0.032140818151805368 -0.065317050706569096 -0.0068122387344786775 0.0498644031837178 0.054644949015708634 0.0032447190976585857 -0.049610469358457657 0.028930505424383815 0.015581126321599635 -0.081116344984648744 -0.0051210784847952459 -0.048188029309568621 -0.006988732132195502 0.04989126538827017 0.030797487111494104 -0.034662955070611116 -0.036764252425108043 0.0093459893886243713 -0.025907091712290355 0.026916613527337999 0.019578340602958315 0.06085605256303428 0.053227629657075372 -0.044065911873328312 -0.060832681125109471 0.024607371068420644
leaf_weight=2.6770368814468384 3.1906926482915878 3.2114573344588262 5.921075575053691 5.5911491513252249 3.997588336467742 6.5270451605319968 5.7150428518652943 3.1210394501686087 4.1480467766523361 4.9742249697446743 4.5169473215937606 5.4727091714739791 5.1470078155398395 3.9811978861689701 4.1694516167044631 3.6796571612358084 3.7408398613333622 3.2242929562926292 3.6914282366633415 4.7229669094085676 2.5518547147512427 4.4732699394226056 3.963681921362876 3.2092589810490608 3.0969631224870682 4.8833334594964981
leaf_count=22 21 20 34 38 23 38 32 21 24 27 25 31 35 21 25 23 21 20 20 28 20 29 27 21 22 20
internal_value=0.00105409 -0.00277641 -0.0375622 0.00337732 0.00107389 -0.0076229 0.0132138 -0.000642381 0.0181094 -0.0152378 -0.0235935 -0.00631484 -0.041085 0.020651 0.000835187 -0.0613642 -0.0113315 0.0371879 -0.00395472 0.0342358 0.0395191 0.0489012 0.042524 -0.0566922 -0.0631156 0.0257427
internal_weight=113.599 102.711 15.4388 87.2722 82.0434 47.8002 34.2431 20.6392 14.9242 42.2091 27.7717 13.9709 13.8009 8.49815 14.4373 8.65388 10.2679 10.8883 7.83948 13.6039 5.22889 7.66396 7.08472 9.51768 6.30842 9.6063
internal_count=688 618 97 521 479 284 195 124 92 246 162 77 85 46 84 50 59 70 44 71 42 50 48 63 42 48
is_linear=0
shrinkage=0.05


Tree=30
num_leaves=29
num_cat=0
split_feature=18 18 16 18 17 18 18 17 18 18 18 17 1 18 3 18 18 2 1 2 18 3 1 2 2 1 3 15
split_gain=6.63909 6.53579 4.87659 5.55302 8.93143 4.97905 7.12036 5.82856 4.50378 5.39312 3.77978 5.09921 2.77372 3.13487 2.42753 1.84091 2.22447 1.45558 1.35949 1.1566 0.719308 0.582867 0.463939 0.434013 0.417286 0.392517 0.28751 0.0196557
threshold=0.66436057690957917 0.40783597496342339 1.0000000180025095e-35 0.24295524760259435 0.88998651486116132 -0.25567407074618048 -0.13537873423231561 0.6593538642688126 -0.077007340679053959 -0.036657019959532418 0.018404922183013411 -0.25973157263546282 -0.11487637097863292 -1.7848352496201734 -0.41528369057560072 0.19237925330226283 0.13195881194974476 0.15999029402620721 -1.0524273814538705 0.091249841186283334 0.12546425673486442 -0.27281916084232533 0.20698246787841248 -0.15909583679160547 -0.43337027919096377 -0.04392110709019427 -0.072391157937866921 0.068746456212540871
decision_type=2 2 2 2 2 2 2 2 2 2 2 2 2 2 2 2 2 2 2 2 2 2 2 2 2 2 2 2
left_child=1 2 22 4 5 12 -7 8 25 -10 21 15 18 -14 -5 16 -12 -3 -4 -2 -13 -11 26 -16 -20 -8 -1 -6
right_child=19 17 3 14 27 6 7 -9 9 10 11 20 13 -15 23 -17 -18 -19 24 -21 -22 -23 -24 -25 -26 -27 -28 -29
leaf_value=0.027192943220748458 0.053261642711465662 -0.069673572321736113 0.0085632712892121463 -0.0035593293195551449 -0.068000731488366675 -0.082637360482350625 0.041739274848727678 0.045499157825164852 -0.079751018934002063 0.0037318956060476828 -0.011087399701257042 -0.069899972993451395 0.038215629752458402 -0.022253011842417951 0.061497008091252948 -0.027589481731644161 0.039965116636234851 -0.023694935535335405 0.062953532684331279 0.021596152627189589 -0.039490423389317575 0.032914274881165578 0.040033719316269048 0.035974395302904624 0.037925898720795492 0.014682185300296528 0.010153693443020251 -0.062455059531423655
leaf_weight=6.6962756663560858 5.6580119654536229 3.92989458143711 3.0453382134437561 3.4745384305715561 3.4311309605836859 3.3566460385918537 2.8500227555632591 4.7047283947467795 3.4214291349053267 3.2512831538915634 5.7448856234550387 4.2429872006177982 3.2590157464146614 6.2612697407603175 3.1402639895677567 6.1031114161014566 3.3944117873907089 3.0628962814807892 2.9404636472463608 5.8811333626508713 3.5899406149983406 3.6119554638862956 4.5098492205142966 3.5472329780459386 3.8409507125616091 2.5305634960532108 3.9278150498867026 2.9903059303760529
leaf_count=31 39 24 21 22 21 18 21 25 18 20 35 24 26 38 21 36 20 19 19 37 22 20 24 25 27 19 22 21
internal_value=0.00112568 -0.00283559 0.000501165 -0.00427247 -0.00911985 -0.00365466 -0.0124744 -0.00705354 -0.0134356 -0.0202823 -0.0134861 -0.0231751 0.017681 -0.00155319 0.0303443 -0.00632574 0.00787393 -0.0495346 0.0363154 0.0371228 -0.0559629 0.0190899 0.0265971 0.0479591 0.048778 0.029014 0.0208934 -0.0654182
internal_weight=116.398 104.859 97.8664 82.7325 72.5704 66.149 46.802 43.4453 38.7406 33.36 29.9386 23.0753 19.347 9.52029 10.162 15.2424 9.1393 6.99279 9.82675 11.5391 7.83293 6.86324 15.1339 6.6875 6.78141 5.38059 10.6241 6.42144
internal_count=715 639 596 519 451 409 278 260 235 195 177 137 131 64 68 91 55 43 67 76 46 40 77 46 46 40 53 42
is_linear=0
shrinkage=0.05


Tree=31
num_leaves=25
num_cat=0
split_feature=14 18 18 14 18 18 17 18 17 18 18 17 18 18 17 17 17 18 18 14 18 1 17 4
split_gain=35.6843 5.35134 9.44364 4.60902 3.69683 12.1395 6.71041 4.83709 5.28571 5.15188 5.75705 6.06868 4.79365 4.71235 1.76984 0.791762 0.0626775 0.0159286 0.00573395 0.00326928 0.00317711 0.00201588 0.00109172 0.000957928
threshold=-0.13298424773079157 0.66436057690957917 0.40783597496342339 -0.136113290591349 0.20693753588729877 0.19237925330226283 -1.2229021272179155 0.15671568731595784 0.36246011855434829 0.091728327224866249 -0.33624916819060829 -1.1127610984080236 0.11727140279591015 -0.024081358250630614 0.25025140034646959 1.7168751626577043 -1.3355155469392497 -0.93510121811638625 0.12985752975632933 -0.19619846494971521 1.0000000180025095e-35 0.021596927528314738 0.094026144966926364 -0.10520102512338879
decision_type=2 2 2 2 2 2 2 2 2 2 2 2 2 2 2 2 2 2 2 2 2 2 2 2
left_child=3 2 4 18 5 6 16 8 9 10 11 -8 -10 -12 23 -3 -2 -13 20 22 21 -1 -20 -6
right_child=1 15 -4 -5 14 -7 7 -9 12 -11 13 17 -14 -15 -16 -17 -18 -19 19 -21 -22 -23 -24 -25
leaf_value=-0.060188528549197685 0.058920199717244576 0.064940700922328704 -0.046781733441097179 -0.018225583827013225 0.061088533080181244 -0.066255862371242757 -0.020050653192576914 0.06696271448486027 0.0017083051037616902 0.065898872888046661 -0.03953170838043122 0.057651482632998387 -0.06757461259346205 0.019018067370693052 0.024312113604864401 0.034848811742799878 0.068027497516094451 0.062176638499305117 -0.060506307510047402 -0.061828864085051394 -0.057389860978618694 -0.058637659453100725 -0.059095656924179313 0.06232625430145608
leaf_weight=3.7550144195556658 4.4795484244823456 5.7631514221429807 6.018466316163539 10.16544356942177 2.8922044932842255 4.4454587474465361 3.3854422271251616 3.7156436294317237 7.2518897205591184 4.7793972790241233 7.4031267315149307 3.6213503330945906 3.8074209094047546 6.4140162020921867 6.3280622512102127 3.5216773375868797 3.2669666558504025 4.200255110859878 2.7820724844932556 3.1643981486558896 2.8340693712234488 4.7407076880335808 2.7052172422409058 3.4020782858133298
leaf_count=28 36 35 36 52 20 26 17 21 35 27 38 32 21 30 38 27 17 28 20 22 26 39 22 22
internal_value=0.00108087 0.0177091 0.0132991 -0.0456352 0.0185099 0.0130682 0.0198075 0.0123433 0.00737681 0.0183312 0.00924616 0.0358751 -0.0221439 -0.0123525 0.0429847 0.053527 0.0627611 0.0600815 -0.0595797 -0.060549 -0.0588395 -0.0593231 -0.0598109 0.0617575
internal_weight=114.843 84.6962 75.4113 30.1469 69.3929 56.7705 52.3251 44.5785 40.8629 29.8036 25.0242 11.207 11.0593 13.8171 12.6223 9.28483 7.74652 7.82161 19.9815 8.65169 11.3298 8.49572 5.48729 6.29428
internal_count=715 506 444 209 408 328 302 249 228 172 145 77 56 68 80 62 53 60 157 64 93 67 42 42
is_linear=0
shrinkage=0.05


Tree=32
num_leaves=27
num_cat=0
split_feature=14 14 16 16 17 17 17 17 17 17 4 17 4 14 17 17 3 14 17 17 17 17 15 2 3 14
split_gain=33.4144 4.36293 5.72816 4.09784 5.50753 7.52065 4.69431 4.66042 3.95771 4.51705 3.27984 4.70547 6.63404 2.41342 2.29788 1.35346 1.14605 0.770192 0.00358072 0.00239386 0.00365042 0.00300551 0.00178664 0.00175552 0.000982921 0.000657375
threshold=-0.136113290591349 -0.12684515503708918 1.0000000180025095e-35 1.0000000180025095e-35 0.36246011855434829 1.7579599905816743 0.88998651486116132 0.58541118079250321 -0.14762224453009304 -0.25973157263546282 0.14752885866552226 -0.61032682907669811 -0.19995809445399582 0.0055037571109632808 -0.39570008292934827 1.3358426241250945 -0.48690960362624663 -0.0067072655921438101 -1.1889433049537408 -0.53026270094844996 1.0000000180025095e-35 -1.1889433049537408 0.039264902841650698 -0.15909583679160547 -0.17585057692831227 -0.22187378803131422
decision_type=2 2 2 2 2 2 2 2 2 2 2 2 2 2 2 2 2 2 2 2 2 2 2 2 2 2
left_child=19 2 -2 17 8 6 7 -6 9 10 11 12 -5 -14 22 -8 -10 -3 -12 21 -21 -1 -13 -22 -23 -25
right_child=1 3 -4 4 5 -7 15 -9 16 -11 18 14 13 -15 -16 -17 -18 -19 -20 20 23 24 -24 25 -26 -27
leaf_value=-0.059856652464001785 0.016659454468679596 0.064347094545887926 -0.057327107733974286 0.061698623152190962 -0.026468208040281084 0.058579806591440436 -0.060258421738146252 0.031285142317973733 0.030572233968659004 -0.025137443674546997 0.057650837302311145 0.061056963640307244 -0.0016030743136961419 -0.048158322234002321 0.014457605048474834 -0.021645129393505769 0.06519938510042482 0.033702108112085259 0.060207377062699047 -0.060665548001402496 -0.0577293199681993 -0.056854806993012832 0.062769309005291735 -0.058826255438160058 -0.058256271561629963 -0.059953869833304009
leaf_weight=2.2308710739016533 5.7841653674840927 4.5899411886930466 4.7763010412454587 3.2762736380100206 6.8538252413272911 4.0488230362534514 5.0913356617093068 7.1237820386886597 3.9030509069561958 5.5591532588005128 2.810437023639679 2.931195467710495 7.6415807679295558 4.3790350258350372 4.3722081482410413 4.0944532603025436 6.1620330512523633 3.705583915114401 2.6716296523809424 4.168214336037634 2.4688934385776529 2.1854263246059418 3.1716082468628883 2.7904277965426454 2.926410265266898 2.4077563285827619
leaf_count=17 24 28 31 22 37 33 38 39 22 32 25 22 39 22 24 20 39 20 20 30 22 21 21 23 25 19
internal_value=0.00105528 0.0134539 -0.0168033 0.0173323 0.013601 -0.00429151 -0.015281 0.00296618 0.0239874 0.0163909 0.0237775 0.0163071 -0.00137253 -0.0185629 0.0421251 -0.043047 0.0517716 0.0506581 0.0588967 -0.0590346 -0.0594746 -0.0583254 0.0619469 -0.0588271 -0.0576571 -0.0593486
internal_weight=112.124 92.9464 10.5605 82.3859 74.0904 27.2122 23.1634 13.9776 46.8782 36.8131 31.254 25.7719 15.2969 12.0206 10.475 9.18579 10.0651 8.29553 5.48207 19.178 11.8353 7.34271 6.1028 7.66708 5.11184 5.19818
internal_count=715 558 55 503 455 167 134 76 288 227 195 150 83 61 67 58 61 48 45 157 94 63 43 64 46 42
is_linear=0
shrinkage=0.05


Tree=33
num_leaves=28
num_cat=0
split_feature=14 18 18 16 14 17 17 17 18 18 14 14 17 17 18 18 14 17 16 14 18 15 17 17 18 18 14
split_gain=31.3612 6.48561 7.75842 4.66764 7.42586 5.91063 4.42248 6.66219 4.25416 4.90655 6.6334 3.29188 2.65238 7.21069 1.57616 1.50489 1.32504 0.860397 0.0231013 0.0191167 0.0119368 0.00695307 0.00206506 0.0016384 0.00143331 0.000732006 0.000470063
threshold=-0.136113290591349 0.66436057690957917 0.40783597496342339 1.0000000180025095e-35 -0.12438257993678173 0.88998651486116132 0.6593538642688126 0.25025140034646959 0.21260991583549302 -0.077007340679053959 -0.0414448307104592 -0.12684515503708918 -1.2229021272179155 -1.1127610984080236 -0.33624916819060829 0.10985591213230732 -0.018861176252987052 1.7168751626577043 1.0000000180025095e-35 -0.061487781273662605 -0.93510121811638625 -0.078677259605591146 0.50911024019845608 -0.53026270094844996 -0.080622416975115116 0.12985752975632933 0.09460554971224662
decision_type=2 2 2 2 2 2 2 2 2 2 2 2 2 2 2 2 2 2 2 2 2 2 2 2 2 2 2
left_child=18 2 3 11 -5 6 7 8 9 12 -11 -2 21 -14 20 -12 -9 -3 -1 -13 -15 -6 23 24 -20 -25 -10
right_child=1 17 -4 4 5 -7 -8 16 26 10 15 19 13 14 -16 -17 -18 -19 22 -21 -22 -23 -24 25 -26 -27 -28
leaf_value=-0.063222926969085089 0.012792704656118689 0.064873372108019939 -0.04591384184526584 -0.055526836551467763 0.062145937469391524 -0.037352626770207502 0.070634638786114576 -0.0051340337365674248 0.061217717132790075 0.036365630145010368 -0.046558042454411308 0.062116768565150388 -0.033571811757120394 0.056885469303446845 0.015841260065701267 -0.0070830798512047811 -0.043719226162395312 0.032942506411541728 -0.058127421408513819 0.067475820700829234 0.06125110700453841 0.058678206040543947 -0.056669899511097924 -0.058035007378236941 -0.056581762761929888 -0.059103802337238859 0.060330768626115895
leaf_weight=2.2907658070325878 5.5478630065917969 5.7424383386969549 6.0453788936138144 4.3522233292460433 2.7671048864722252 5.4794995784759513 3.6065283864736548 4.151525042951107 3.0475020557641974 5.9485824331641188 5.8782275468111127 3.1822312697768211 4.3142150193452737 3.3396727442741279 3.2032155394554342 4.0972019582986832 4.7946872115135175 3.3348611891269684 4.0734757706522977 3.4881514161825162 2.9478888735175133 3.0266171693801782 2.9861065521836272 2.6714896410703641 2.373963475227356 4.0017310753464699 2.930093489587307
leaf_count=14 23 36 38 29 19 36 18 24 21 33 27 21 21 32 20 22 24 27 35 19 21 26 30 23 24 31 21
internal_value=0.00102679 0.0130366 0.00860495 0.0129357 0.00752043 0.0121296 0.0171457 0.0133217 0.0217581 0.0151912 -0.00542424 0.0412504 0.0319413 0.0200252 0.0443887 -0.0303445 -0.0258136 0.0531425 -0.0585248 0.0649192 0.0589323 0.0603344 -0.0578566 -0.0581267 -0.0575583 -0.0586759 0.060783
