tree
version=v4
num_class=1
num_tree_per_iteration=1
label_index=0
max_feature_idx=26
objective=regression
feature_names=congress_buy_count_90d congress_sell_count_90d congress_net_sentiment congress_recent_activity_7d institutional_volume_ratio volume_concentration dark_pool_volume_30d price_momentum_20d volume_trend_30d price_volatility_30d put_call_volume_ratio put_call_oi_ratio large_block_call_pct large_block_put_pct avg_call_premium_above_mid avg_put_premium_above_mid oi_skew_call_put near_money_call_concentration far_otm_call_activity protective_put_ratio high_delta_call_volume_pct long_dated_call_ratio net_gamma_exposure iv_rank_percentile iv_skew_25delta avg_call_vol_oi_ratio avg_put_vol_oi_ratio
feature_infos=[0:11] none [0:1] [0:1] [0:0.38095238095238088] [0.10080210572937311:0.78314210485136304] [317969:33529714350] [-0.54773869346733672:0.96686031159228958] [0.29418410965040848:2.4708658858898271] [0.0011234021181188:0.27594416094853641] [0:1.4579439252336448] [0:2.7051597051597049] [0:0.89991559905773277] [0:0.84483536310329277] [-0.0152434065862122:0.0135541325731936] [-0.029528837520466499:0.055144153947228998] [-0.46021220159151188:0.89263377345378736] [0:0.56972111553784865] [0:0.86785009861932938] [0:0.99276982707215278] [0:0.45203426124196999] [0:1] [0:10.895792999999998] [0:0.74958654906284461] [-0.076134444444444394:0.048759166666666597] [0:0.1818181818181818] [0:0.0454545454545454]
tree_sizes=2885 2951 2897 2889 2922 2905 2893 2871 2929 2911 2960 2959 2918 2945 2923 2880 2945 3012 2949 2912 2951 2918 2914 2926 2904 2933 2938 2956 2965 2988 2871 2945 2951 2930 2974 2929 2910 2980 2879 2965 2877

Tree=0
num_leaves=31
num_cat=0
split_feature=7 4 6 9 8 6 8 4 4 8 4 7 5 6 7 8 6 6 8 4 7 8 9 9 7 7 9 8 4 7
split_gain=0.749112 0.143568 0.124094 0.113332 0.129569 0.113621 0.0879826 0.0838022 0.0793307 0.0982618 0.0703514 0.0693771 0.104641 0.0722119 0.0631904 0.0594207 0.0962364 0.0624192 0.0806575 0.132314 0.0634345 0.062781 0.0581759 0.0577634 0.207312 0.0880615 0.0564239 0.0636533 0.0549835 0.0523582
threshold=-0.11286602078407024 0.1073190789473684 11266255.500000002 0.033967569878274907 1.2165159574939801 451631284.50000006 0.75817988956858484 0.11571038251366116 0.16530054644808737 1.2527262881771219 0.19201228878648233 -0.16015395322791992 0.46386540407187943 91498970.500000015 -0.07797888794869888 1.350144161976234 255545564.00000003 166184820.00000003 0.82146978135334503 0.097567424643046005 0.069918010489767618 0.69752764987843585 0.045526334528285306 0.040497288795198504 0.079436552908517574 0.14842061159207473 0.053315752631933312 1.4317745772493928 0.10084745762711866 0.069918010489767618
decision_type=2 2 2 2 2 2 2 2 2 2 2 2 2 2 2 2 2 2 2 2 2 2 2 2 2 2 2 2 2 2
left_child=2 15 -1 7 10 26 -4 -3 11 -10 14 12 13 -8 -5 17 -17 -2 19 20 21 -19 -13 28 -25 -26 -6 -28 -20 -16
right_child=1 3 6 4 5 -7 8 -9 9 -11 -12 22 -14 -15 29 16 -18 18 23 -21 -22 -23 -24 24 25 -27 27 -29 -30 -31
leaf_value=0.0033370373422672655 0.005360984766966552 0.0062675188112724179 0.0096976349866397926 0.0091837637664137252 0.0055577802565459234 0.0080559918520448012 0.0064309332954671505 0.0055417319552271208 0.0091794324335237841 0.0061705234093824331 0.0089731360476369114 0.006107615585283113 0.0057839885276700208 0.0085461248568022598 0.0055980443584476578 0.005122065367895088 0.0023971883755634915 0.0035638811857814641 0.0056741242335608885 0.0095626169032956062 0.0079686343510840738 0.0061009942852016602 0.0084191757066982287 0.0021461644614550975 0.009286912102946205 0.0048497004313108796 0.0013944794084783958 0.0054925316450212813 0.0035870778602053901 0.0071988613504881498
leaf_weight=21 6931 486 34 26 109 35 65 2144 86 46 49 348 83 153 95 188 41 30 1628 32 35 128 31 50 20 22 21 22 32 114
leaf_count=21 6931 486 34 26 109 35 65 2144 86 46 49 348 83 153 95 188 41 30 1628 32 35 128 31 50 20 22 21 22 32 114
internal_value=0.00561102 0.00551078 0.00703154 0.00580398 0.00651913 0.00552244 0.00712941 0.00567397 0.00701522 0.00816995 0.0071928 0.00678337 0.00736166 0.00793904 0.00679903 0.00541073 0.0046112 0.00543186 0.00567778 0.00656948 0.00604552 0.00559804 0.00631057 0.00556607 0.0043458 0.00684764 0.00490495 0.00337004 0.00563076 0.00647688
internal_weight=13105 12238 867 3101 471 187 846 2630 812 132 284 680 301 218 235 9137 229 8908 1977 225 193 158 379 1752 92 42 152 43 1660 209
internal_count=13105 12238 867 3101 471 187 846 2630 812 132 284 680 301 218 235 9137 229 8908 1977 225 193 158 379 1752 92 42 152 43 1660 209
is_linear=0
shrinkage=1


Tree=1
num_leaves=31
num_cat=0
split_feature=7 6 4 8 4 7 5 7 9 9 4 9 8 4 8 9 7 8 6 6 8 5 9 9 8 6 9 9 4 6
split_gain=0.67881 0.122569 0.122078 0.083553 0.123499 0.0821525 0.0790614 0.0790527 0.073935 0.0658784 0.0629544 0.0848529 0.0907135 0.12808 0.0617765 0.0703036 0.0553079 0.0541388 0.0844225 0.0614743 0.0912346 0.11764 0.0729344 0.0509929 0.0505852 0.0461559 0.0823508 0.0455149 0.0621526 0.127637
threshold=-0.10967563511388029 10756832.500000002 0.11024305555555557 1.2275483446436226 0.16530054644808737 -0.079838888489082688 0.45114219433368336 -0.098436218576596735 0.042402822511444511 0.020091308791496003 0.11200716845878136 0.033967569878274907 1.1169015843709966 0.14400921658986174 0.80842038465817112 0.031482998290993755 0.27043474000722628 1.325910173292175 255545564.00000003 166184820.00000003 0.82146978135334503 0.33229359113557655 0.026368130713870404 0.021754687082806656 0.86129692464179763 230859827.50000003 0.040497288795198504 0.022346066177733253 0.054093567251461951 150045037.00000003
decision_type=2 2 2 2 2 2 2 2 2 2 2 2 2 2 2 2 2 2 2 2 2 2 2 2 2 2 2 2 2 2
left_child=1 -1 17 4 9 7 8 -4 -5 -3 24 -12 13 -13 15 -11 -14 19 -19 27 21 -21 -23 -9 -7 26 -15 -2 -29 -30
right_child=2 3 5 6 -6 10 -8 23 -10 14 11 12 16 25 -16 -17 -18 18 -20 20 -22 22 -24 -25 -26 -27 -28 28 29 -31
leaf_value=-0.0024498478680923213 -0.00016597260394906612 2.8936218957535363e-05 -5.4458654892531419e-05 0.00079953984586057011 0.003536035152667059 0.0018094806837640415 -0.00015028877186975268 0.00059369584906356922 0.0036619498807141946 0.0056948151995573557 -9.0525983587813632e-05 -0.00050159147999895987 0.00044496485744687875 0.0014101919148153206 0.0014364107018004853 0.0016353828377000453 -0.0014918355242309971 -0.00043130244432968388 -0.0027470100177507738 0.00015094249265614097 -3.28629656274306e-05 0.0011820905722741376 0.0044121109741934068 0.0028399428995662013 0.00035017606171413354 0.00056120568039887857 0.0047113959786099693 -0.00097321814405122427 -7.3182887708391243e-05 -0.0034639287711188353
leaf_weight=20 5727 78 72 102 86 90 139 49 32 21 2094 47 196 44 409 32 45 225 50 152 1775 50 33 72 211 29 43 453 700 29
leaf_count=20 5727 78 72 102 86 90 139 49 32 21 2094 47 196 44 409 32 45 225 50 152 1775 50 33 72 211 29 43 453 700 29
internal_value=1.2436e-05 0.00132308 -8.60049e-05 0.00141284 0.00173615 0.000190603 0.000652788 0.00119101 0.00152261 0.00143964 0.000119795 3.53717e-05 0.000700155 0.00161224 0.00166694 0.00334569 6.21146e-05 -0.000176566 -0.000871361 -0.000154573 8.70041e-05 0.00101328 0.00253025 0.00197284 0.000803575 0.00251147 0.00310276 -0.000225578 -0.00051011 -0.000215383
internal_weight=13105 919 12186 899 626 2992 273 193 134 540 2799 2498 404 163 462 53 241 9194 275 8919 2010 235 83 121 301 116 87 6909 1182 729
internal_count=13105 919 12186 899 626 2992 273 193 134 540 2799 2498 404 163 462 53 241 9194 275 8919 2010 235 83 121 301 116 87 6909 1182 729
is_linear=0
shrinkage=0.05


Tree=2
num_leaves=31
num_cat=0
split_feature=7 4 5 9 9 8 6 4 7 7 4 8 5 6 7 8 6 7 9 6 9 9 4 5 7 6 5 4 8 6
split_gain=0.614908 0.117449 0.0983904 0.100774 0.0896967 0.126568 0.109702 0.0906899 0.0844728 0.0827337 0.0663691 0.104514 0.0747666 0.0607983 0.0847783 0.0561801 0.150405 0.118433 0.070876 0.0698193 0.091424 0.0710654 0.0924399 0.0630584 0.0554241 0.0506075 0.0460405 0.0451367 0.0416397 0.0798665
threshold=-0.11590145204150423 0.11024305555555557 0.47981837261903865 0.042402822511444511 0.033967569878274907 1.2165159574939801 451631284.50000006 0.11200716845878136 -0.13415645856038169 -0.07797888794869888 0.14400921658986174 1.0773566752499724 0.37359919971861261 68839862.000000015 -0.030984708001865247 0.80031373277274465 862346012.00000012 0.0066349334935759006 0.032214573987955304 112650746.00000001 0.030202415403644853 0.022041046212613703 0.054093567251461951 0.37424430049159246 0.023054255721687105 40908364.000000007 0.42999873664169619 0.17601126472094217 1.3906704566338106 307336746.00000006
decision_type=2 2 2 2 2 2 2 2 2 2 2 2 2 2 2 2 2 2 2 2 2 2 2 2 2 2 2 2 2 2
left_child=2 15 3 27 7 9 13 -3 25 -6 12 -12 -11 24 -15 16 17 18 -2 21 -21 -19 -23 -24 -7 -4 -14 -1 -17 -30
right_child=1 4 8 -5 5 6 -8 -9 -10 10 11 -13 26 14 -16 28 -18 19 -20 20 -22 22 23 -25 -26 -27 -28 -29 29 -31
leaf_value=0.0010945791452436936 0.00072560497299358059 0.00088796327968614509 -0.0024110043868906311 0.0028068672279109256 0.0036835624016416458 0.0024229054103375638 0.002332010520807868 -3.2982691786417258e-05 0.0030529229910159269 0.0026534882808493363 0.0026901057276675932 0 -0.0022079430266669325 -0.0041333873181157504 -0.00059955505479514291 -0.00019439540255461506 0.0040672593157838914 -0.00040689412834005292 -0.0021146962641052504 0 0.0036811032809724851 -0.0037801313755727209 -0.0023208531004316477 0.0016022982281998764 -0.00070641903794761696 0.00013363878010052321 0.0003478764297491294 0.0027757021572199971 -0.00053938177275592318 -0.0038265296675231118
leaf_weight=468 530 302 23 144 39 23 35 2257 22 20 102 61 32 24 74 7888 24 393 22 118 20 40 20 20 33 110 33 49 157 22
leaf_count=468 530 302 23 144 39 23 35 2257 22 20 102 61 32 24 74 7888 24 393 22 118 20 40 20 20 33 110 33 49 157 22
internal_value=1.18991e-05 -7.59762e-05 0.00134128 0.00160812 0.000193174 0.000824394 -0.000156539 7.37792e-05 0.000170787 0.00148762 0.00112079 0.00171118 0 -0.000755711 -0.00151928 -0.00016479 0.000153931 6.85331e-05 0.000602986 -0.000406149 0.000563206 -0.000699591 -0.00207274 -0.000235485 0.000491741 -0.000270327 -0.000835027 0.00126409 -0.000212308 -0.000973217
internal_weight=13105 12289 816 661 3035 476 189 2559 155 287 248 163 85 154 98 9254 1187 1163 552 611 138 473 80 40 56 133 65 517 8067 179
internal_count=13105 12289 816 661 3035 476 189 2559 155 287 248 163 85 154 98 9254 1187 1163 552 611 138 473 80 40 56 133 65 517 8067 179
is_linear=0
shrinkage=0.05


Tree=3
num_leaves=31
num_cat=0
split_feature=7 6 4 8 9 8 6 4 8 6 8 7 5 9 7 8 6 9 6 6 8 6 6 8 5 9 9 7 7 7
split_gain=0.557067 0.10842 0.0999016 0.0760624 0.0742854 0.104492 0.0665409 0.0634521 0.0708767 0.0614386 0.0620698 0.0556549 0.0815674 0.0553847 0.0927619 0.0515938 0.135246 0.0707281 0.0628921 0.0504787 0.045679 0.0542253 0.0511645 0.0651341 0.116954 0.0631482 0.0585414 0.175801 0.0888399 0.0524318
threshold=-0.10967563511388029 10756832.500000002 0.1073190789473684 0.85469064829757935 0.019380335649292903 0.80568338714486298 198387398.00000003 0.16530054644808737 1.2527262881771219 22583701.500000004 0.69752764987843585 -0.16015395322791992 0.46386540407187943 0.025314468082281851 -0.13928843351098938 1.2122023519278129 451631284.50000006 0.036117019646550556 80529521.000000015 91498970.500000015 1.3374715571625291 255545564.00000003 166184820.00000003 0.82146978135334503 0.33229359113557655 0.026368130713870404 0.040497288795198504 0.079436552908517574 0.14842061159207473 -0.10123310390220704
decision_type=2 2 2 2 2 2 2 2 2 2 2 2 2 2 2 2 2 2 2 2 2 2 2 2 2 2 2 2 2 2
left_child=1 -1 20 6 -4 9 13 11 -9 -6 -11 12 19 -3 -15 17 18 -7 -17 -5 22 -22 -2 24 -24 -26 29 -28 -29 -25
right_child=2 3 4 7 5 15 -8 8 -10 10 -12 -13 -14 14 -16 16 -18 -19 -20 -21 21 -23 23 26 25 -27 27 28 -30 -31
leaf_value=-0.002347396275686536 -0.00020625166233408248 0.0011194894319815094 -6.0620498078374849e-05 0.0006457815088793421 -0.00017995045029876037 0.00027036453762839958 0.00046863512606504042 0.0030721662763010089 0.00046919585228847129 0 0.0034873738962669641 0.00050310102627293353 7.7339565225264487e-05 0.0020939441121614727 0.0071291208028863955 7.9799767267432816e-05 0.0020743587728317514 0.0013203101568934317 -0.0012850852756264234 0.0025167813737350612 -0.00045537642719545545 -0.0024298465065245092 0 0.0024662793824676743 0.0011076124628983481 0.0041279511819903112 -0.0032678926259952184 0.003516648301738947 -0.0010089881320912125 1.0205102973794157e-05
leaf_weight=20 6893 21 1636 59 21 755 29 81 46 20 58 392 84 23 21 165 56 211 160 143 203 45 141 22 50 33 50 20 21 1626
leaf_count=20 6893 21 1636 59 21 755 29 81 46 20 58 392 84 23 21 165 56 211 160 143 203 45 141 22 50 33 50 20 21 1626
internal_value=1.13781e-05 0.00119872 -7.77631e-05 0.00128342 0.00016749 0.000429017 0.00266794 0.00111523 0.00216981 0.00200532 0.00265716 0.000910024 0.00144992 0.00357013 0.00462119 0.000309312 -0.000173696 0.000504989 -0.000576952 0.00199563 -0.000161339 -0.000834635 -0.000141911 8.14719e-05 0.000884269 0.00237216 -1.91059e-05 -0.00125496 0.00108017 4.6174e-05
internal_weight=13105 919 12186 899 3082 1446 94 805 127 99 78 678 286 65 44 1347 381 966 325 202 9104 248 8856 1963 224 83 1739 91 41 1648
internal_count=13105 919 12186 899 3082 1446 94 805 127 99 78 678 286 65 44 1347 381 966 325 202 9104 248 8856 1963 224 83 1739 91 41 1648
is_linear=0
shrinkage=0.05


Tree=4
num_leaves=31
num_cat=0
split_feature=7 4 6 7 8 7 5 9 4 9 8 8 4 4 8 16 8 6 7 9 6 9 9 4 5 9 7 9 8 5
split_gain=0.505983 0.0959366 0.0855352 0.0806665 0.0680589 0.0580406 0.0534791 0.0686055 0.105608 0.109506 0.0960918 0.0913354 0.0683647 0.0520957 0.0698033 0.0554192 0.0484443 0.131573 0.106183 0.0666445 0.0600516 0.0787967 0.0640692 0.0834451 0.0569431 0.0447067 0.0442632 0.0427147 0.0409047 0.0404746
threshold=-0.11590145204150423 0.11024305555555557 11266255.500000002 -0.079838888489082688 0.75817988956858484 -0.098436218576596735 0.55550688274343762 0.033967569878274907 0.14400921658986174 0.039694781841446654 1.0773566752499724 1.408769904287509 0.11200716845878136 0.16530054644808737 1.2527262881771219 0.20744643724932713 0.80031373277274465 862346012.00000012 0.0066349334935759006 0.032214573987955304 112650746.00000001 0.030202415403644853 0.022041046212613703 0.054093567251461951 0.37424430049159246 0.040497288795198504 0.16966523611375217 0.021754687082806656 1.2647578039153595 0.32118464245321537
decision_type=2 2 2 2 2 2 2 2 2 2 2 2 2 2 2 2 2 2 2 2 2 2 2 2 2 2 2 2 2 2
left_child=2 16 -1 5 -4 -3 7 12 9 -9 25 28 -5 15 -15 -6 17 18 19 29 22 -22 -20 -24 -25 -10 -27 -7 -12 -2
right_child=1 3 4 6 13 27 -8 8 10 -11 11 -13 -14 14 -16 -17 -18 -19 20 -21 21 -23 23 24 -26 26 -28 -29 -30 -31
leaf_value=-0.0019062674439868971 0.0016128469926034979 0.00020969687343261927 0.0037161617369647834 0.0007562345155799192 0.00090873992179960983 0.00055966336381348526 -0.001583191573088524 0.0013630005142523463 0.0013503796648895484 -0.0015307896130607123 0.00044305028277162486 0.002574576922643586 -7.2574618822150301e-05 0.0030515318592457949 0.00042909208554225449 0.0036717811393185483 -0.00019309383638947371 0.0038074486580758483 -0.00037624466485061556 -0.0020615297020939749 0 0.0034091385820444985 -0.0035813092388807242 -0.0021951264479378265 0.0015328432113110738 0.0049811277209016874 0.0014735473199418529 0.0026303863157856881 -0.0015627409064780788 0.00046339013399880206
leaf_weight=20 101 115 30 282 621 49 46 53 51 82 76 40 2082 81 44 20 8067 24 393 22 118 20 40 20 20 30 20 72 37 429
leaf_count=20 101 115 30 282 621 49 46 53 51 82 76 40 2082 81 44 20 8067 24 393 22 118 20 40 20 20 30 20 72 37 429
internal_value=1.10323e-05 -6.86449e-05 0.00121696 0.000174537 0.00130195 0.00106424 9.77e-05 0.000127659 0.000743334 -0.000357531 0.00134803 0.000515865 2.42063e-05 0.0012004 0.00216948 0.00100331 -0.000148942 0.0001469 6.67397e-05 0.000572975 -0.000382449 0.000514912 -0.000654881 -0.00195908 -0.000207279 0.00255741 0.00368364 0.00183427 -0.000170306 0.000692133
internal_weight=13105 12289 816 3035 796 236 2799 2753 389 135 254 153 2364 766 125 641 9254 1187 1163 552 611 138 473 80 40 101 50 121 113 530
internal_count=13105 12289 816 3035 796 236 2799 2753 389 135 254 153 2364 766 125 641 9254 1187 1163 552 611 138 473 80 40 101 50 121 113 530
is_linear=0
shrinkage=0.05


Tree=5
num_leaves=31
num_cat=0
split_feature=7 6 8 5 9 8 9 4 6 8 5 9 7 5 5 8 9 8 9 8 9 6 5 6 7 5 8 9 7 4
split_gain=0.412066 0.158492 0.151666 0.0690664 0.067632 0.124473 0.141575 0.0860313 0.0667852 0.125993 0.109547 0.0857408 0.0621251 0.0838468 0.0820742 0.0702388 0.0877706 0.0671655 0.0579369 0.0554659 0.0531019 0.0477142 0.0473467 0.0890175 0.0471021 0.115428 0.0801819 0.0518192 0.0444844 0.0533894
threshold=-0.07485959237569513 45595375.500000007 0.76658932622411113 0.47981837261903865 0.036117019646550556 1.0773566752499724 0.058849667583034858 0.06504494976203061 180492962.00000003 1.0291185710303261 0.40893374238645358 0.039694781841446654 -0.15259734422021942 0.49368335341931729 0.38088338398902494 1.0366153712446122 0.040497288795198504 1.3145650334502172 0.035488137555321805 1.137376364388339 0.019593971527551355 32029784.500000004 0.37978926837924859 206627931.50000003 -0.03982819278718424 0.37978926837924859 0.81136091556569434 0.024301202049269454 0.023054255721687105 0.14877049180327867
decision_type=2 2 2 2 2 2 2 2 2 2 2 2 2 2 2 2 2 2 2 2 2 2 2 2 2 2 2 2 2 2
left_child=1 3 -3 20 18 6 8 -7 10 11 -6 -10 13 -4 17 16 -16 -14 19 24 -1 -22 23 -9 25 26 -2 -28 -24 -30
right_child=4 2 12 -5 5 7 -8 22 9 -11 -12 -13 14 -15 15 -17 -18 -19 -20 -21 21 -23 28 -25 -26 -27 27 -29 29 -31
leaf_value=-0.00040858961516046098 0.00086217146220634385 0.0032198800310819912 0.0018133082392261133 -0.0017537332121228138 0.0026312050795483052 -0.002317973920376418 0.0048928969141667812 -0.0006609254474519875 0.001213616787751704 0.0030138060311487623 0 -0.002478608233823826 0.00025658275343653125 0 0.0014223936491850832 0.00056586338574935303 0.0049676827280036298 -0.0026365722856215106 -0.0020526567281530404 -0.00039666473771172051 0.0011393038799773891 -0.00022122621037081993 0.00074893468255903342 0.0034644310312806127 -0.00013149077284362745 0.00095589432649183107 -0.00024853308568072564 -0.0019538675137459041 -0.0012410662261715948 0.00024156899263038314
leaf_weight=206 158 76 293 51 87 42 24 22 21 22 72 49 366 85 111 215 23 21 40 1756 176 93 94 27 7823 358 549 50 125 109
leaf_count=206 158 76 293 51 87 42 24 22 21 22 72 49 366 85 111 215 23 21 40 1756 176 93 94 27 7823 358 549 50 125 109
internal_value=-6.44737e-06 0.000715589 0.00103505 0 -0.000115309 0.00036095 0.00118964 -0.000171163 0.000813825 -0.000211588 0.00143833 -0.00129946 0.000881232 0.00141227 0.000601551 0.00115869 0.00207145 8.60327e-05 -0.000146571 -0.000138954 0.000180646 0.000650447 5.52961e-05 0.00151282 -8.77601e-05 0.000214561 -0.000129506 -0.00039953 -0.0001476 -0.00052927
internal_weight=13144 1716 1190 526 11428 694 275 419 251 92 159 70 1114 378 736 349 134 387 10734 10694 475 269 377 49 8938 1115 757 599 328 234
internal_count=13144 1716 1190 526 11428 694 275 419 251 92 159 70 1114 378 736 349 134 387 10734 10694 475 269 377 49 8938 1115 757 599 328 234
is_linear=0
shrinkage=0.05


Tree=6
num_leaves=31
num_cat=0
split_feature=7 6 5 9 10 6 5 9 4 4 4 4 5 9 7 9 7 5 14 5 9 7 9 6 9 5 5 5 6 9
split_gain=0.372235 0.143599 0.0622761 0.0612642 0.0759427 0.10233 0.0782173 0.144855 0.0944227 0.0973885 0.0626775 0.0558946 0.184919 0.0541616 0.0526793 0.0522736 0.0494476 0.0479261 0.0423227 0.0514625 0.10454 0.0567682 0.0792136 0.0682095 0.0532489 0.128517 0.0464294 0.0563745 0.037561 0.0363326
threshold=-0.07485959237569513 45595375.500000007 0.47981837261903865 0.036117019646550556 0.16906299086725643 576368915.00000012 0.46176963472682647 0.063549040268111659 0.14877049180327867 0.14174107142857142 0.12599206349206346 0.099180327868852461 0.3839019099170396 0.018827524068325951 0.025649291920667405 0.035488137555321805 -0.12912261417866991 0.47981837261903865 -0.00012184455851996631 0.47981837261903865 0.058849667583034858 -0.19048976816467925 0.037189934314874107 90114972.000000015 0.046839856714304205 0.38462272536444919 0.36777051648961295 0.38031464743562216 240529618.50000003 0.042402822511444511
decision_type=2 2 2 2 2 2 2 2 2 2 2 2 2 2 2 2 2 2 2 2 2 2 2 2 2 2 2 2 2 2
left_child=1 2 16 15 5 6 7 8 9 11 -7 -5 -13 -3 -14 -2 -1 -8 -15 20 21 -20 26 -24 25 -25 -23 -28 -10 -4
right_child=3 13 29 4 -6 10 17 -9 28 -11 -12 12 14 18 -16 -17 -18 -19 19 -21 -22 22 23 24 -26 -27 27 -29 -30 -31
leaf_value=0.0010871658236209128 -0.00013203045213048712 0.00021645206428079125 -0.00035353447790211222 -6.4371990140876987e-05 0.0025892579933200184 -0.0029513621979009291 -0.0018143985892945008 0.0047858849884225771 0.0022681921955768894 -0.0018796896356260018 0 0.0046264583858814075 0.0015305007187028726 -0.00077070488494290301 -0.0014621330422769216 -0.0019502797870062979 -0.00010196692580575172 2.3656117976217274e-05 0.002192173497089524 0.00032419773892395466 0.003872772383700757 0.0018523171855698635 -0.001996774743434009 -0.00044664978426241009 -0.00091837163950897699 0.0038125425398235963 -0.00076654468773239726 0.0011479555248475521 0 -0.003293950741247702
leaf_weight=113 10694 206 30 139 36 38 46 22 89 51 31 31 26 25 33 40 362 132 132 157 41 223 34 37 35 31 43 226 20 21
leaf_count=113 10694 206 30 139 36 38 46 22 89 51 31 31 26 25 33 40 362 132 132 157 41 223 34 37 35 31 43 226 20 21
internal_value=-6.03506e-06 0.000680198 0 -0.000109521 0.000343667 0.000212836 0.000433015 0.000816365 0.000577846 7.29241e-05 -0.00159221 0.000530241 0.00150313 0.000984283 -5.83847e-05 -0.00013929 0.000170567 -0.000424025 0.00113991 0.00119501 0.00135918 0.0012167 0.00100372 -2.4256e-05 0.000579675 0.00142437 0.00130007 0.000823169 0.00182781 -0.00166622
internal_weight=13144 1716 526 11428 694 658 589 411 389 280 69 229 90 1190 59 10734 475 178 984 959 802 761 629 137 103 68 492 269 109 51
internal_count=13144 1716 526 11428 694 658 589 411 389 280 69 229 90 1190 59 10734 475 178 984 959 802 761 629 137 103 68 492 269 109 51
is_linear=0
shrinkage=0.05


Tree=7
num_leaves=31
num_cat=0
split_feature=7 6 8 5 9 8 9 4 5 6 5 4 5 7 4 8 5 9 9 8 16 9 6 6 4 4 8 7 7 4
split_gain=0.335827 0.129931 0.135561 0.0565127 0.0553264 0.109622 0.123117 0.075966 0.0619416 0.077171 0.082605 0.0772148 0.118609 0.0522857 0.0741055 0.0834158 0.0700817 0.0692096 0.0471639 0.0502219 0.0471482 0.046083 0.0433095 0.0448668 0.0424274 0.0539714 0.0484123 0.0420959 0.0407213 0.0551708
threshold=-0.07485959237569513 45595375.500000007 0.76658932622411113 0.47981837261903865 0.036117019646550556 1.0773566752499724 0.058849667583034858 0.06504494976203061 0.32501085609081187 180492962.00000003 0.40248906852619842 0.051739518287243505 0.40893374238645358 -0.15259734422021942 0.16261237440507662 1.2316028920045587 0.49368335341931729 0.033049709895801659 0.035488137555321805 1.1851489572376079 0.16152965591750232 0.019593971527551355 32029784.500000004 28009661.000000004 0.1073190789473684 0.11200716845878136 0.72573484961405577 0.071050674190415872 0.18054643060225448 0.051739518287243505
decision_type=2 2 2 2 2 2 2 2 2 2 2 2 2 2 2 2 2 2 2 2 2 2 2 2 2 2 2 2 2 2
left_child=1 3 -3 21 18 6 8 -7 -6 11 27 -10 -13 16 -15 17 20 -16 19 24 -4 -1 23 -23 28 26 -26 -11 -2 -30
right_child=4 2 13 -5 5 7 -8 -9 9 10 -12 12 -14 14 15 -17 -18 -19 -20 -21 -22 22 -24 -25 25 -27 -28 -29 29 -31
leaf_value=-0.0003865360027445279 -0.00015531622416112799 0.0030009345667321684 0.0014425376241431866 -0.0015881564993039503 0.0030930797772845998 -0.0021891872772411606 0.004560458193401732 3.9642684716782348e-05 -0.0015142356547815684 -0.0038019189691145764 0.0012150310261718022 0.0031029783553385201 1.650729079966105e-05 0.00036296488749484418 0.0011667040544024027 -0.00037546965446489961 0 0.005306022007066708 -0.0018530089641280211 -0.00044443788714899294 0.0041227309827331395 0.00062826692663832135 -0.00022935194359611119 0.0027413591294094667 0.0029396538400933855 0 0.00050414944779372307 -0.00044668187836822103 0.0030533956916140009 0
leaf_weight=206 7424 76 273 51 26 42 24 377 22 22 27 65 66 668 25 20 85 23 40 1113 20 142 93 34 23 1747 321 23 23 43
leaf_count=206 7424 76 273 51 26 42 24 377 22 22 27 65 66 668 25 20 85 23 40 1113 20 142 93 34 23 1747 321 23 23 43
internal_value=-5.72993e-06 0.00064606 0.000935315 0 -0.000104043 0.000326521 0.00110452 -0.000172311 0.000752475 0.000458538 -0.000851781 0.00110797 0.0015873 0.000789649 0.000532269 0.00211904 0.00127729 0.00326099 -0.00013235 -0.000125429 0.00164389 0.000161523 0.000599793 0.0010662 -8.78444e-05 0.000109938 0.000682326 -0.00220268 -0.000143728 0.00108238
internal_weight=13144 1716 1190 526 11428 694 275 419 251 225 72 153 131 1114 736 68 378 48 10734 10694 293 475 269 176 9581 2091 344 45 7490 66
internal_count=13144 1716 1190 526 11428 694 275 419 251 225 72 153 131 1114 736 68 378 48 10734 10694 293 475 269 176 9581 2091 344 45 7490 66
is_linear=0
shrinkage=0.05


Tree=8
num_leaves=31
num_cat=0
split_feature=7 5 9 4 7 6 10 8 5 6 4 7 7 5 6 8 9 7 9 4 4 5 9 5 4 9 7 10 9 9
split_gain=0.303535 0.0980546 0.0794799 0.0788072 0.0845981 0.065483 0.0563571 0.0534659 0.0619233 0.0564104 0.0501067 0.0478577 0.0455927 0.0565482 0.0562787 0.0455732 0.0720574 0.0615494 0.0409058 0.0459083 0.0466826 0.048932 0.0734431 0.0428355 0.0715263 0.0416374 0.0395885 0.0407709 0.0389109 0.0398544
threshold=-0.11286602078407024 0.47981837261903865 0.058849667583034858 0.1073190789473684 -0.03982819278718424 45595375.500000007 0.46045932923112037 1.350144161976234 0.47187970732456713 255545564.00000003 0.11382866208355366 0.0086664686350667024 0.16966523611375217 0.37921947953261775 71585955.500000015 0.83113512853820504 0.025918938542000652 -0.14489425695769242 0.043396883626942807 0.11571038251366116 0.19201228878648233 0.49368335341931729 0.027650369748383103 0.52596593385496748 0.14877049180327867 0.058849667583034858 -0.22349134053081418 0.32539259014308503 0.058849667583034858 0.046839856714304205
decision_type=2 2 2 2 2 2 2 2 2 2 2 2 2 2 2 2 2 2 2 2 2 2 2 2 2 2 2 2 2 2
left_child=1 2 6 7 10 -3 15 12 9 -9 -5 -10 -2 -14 -15 16 -1 -18 19 -6 -21 22 -22 24 -20 -26 -17 -28 29 -7
right_child=3 5 -4 4 18 28 -8 8 11 -11 -12 -13 13 14 -16 26 17 -19 23 20 21 -23 -24 -25 25 -27 27 -29 -30 -31
leaf_value=0 -0.00014089439391314686 -0.0019913028654120766 0.0034171672046595203 0.0015931154566319558 0.00044567603531330078 5.2469946634050473e-05 -0.0013289441632760035 -0.00095374737616376855 0.0013176795578963641 -0.0035007461492223752 0.00043112333697724526 -0.0011506899071597307 0.0016741890702474144 -0.001639940418416604 0.001057031999825669 0.0021662460987162948 0.0016083813015669809 0.0053124609213822324 -0.00037069889524313161 -0.00024850053561686615 0.00031805169631097792 -0.0013474594616039923 0.0028608695758697567 -0.00072045401943343027 0.0011330862577219611 0.003548445461112409 0.00066840708720133295 0.0030500667064279241 -0.00091992335866236371 0.0023536246628253908
leaf_weight=22 8757 39 38 119 383 57 23 108 43 31 540 35 78 37 39 62 33 23 53 1651 165 29 36 39 82 28 503 20 39 32
leaf_count=22 8757 39 38 119 383 57 23 108 43 31 540 35 78 37 39 62 33 23 53 1651 165 29 36 39 82 28 503 20 39 32
internal_value=-5.31157e-06 0.000885253 0.00113814 -7.04854e-05 0.000145432 -0.000181218 0.00100413 -0.000144954 -0.000923862 -0.00155984 0.000648748 0.000146002 -0.000125415 0.000721884 -0.000190694 0.0010928 0.0022731 0.00322558 8.88032e-06 -4.99024e-05 -0.000153486 0.000506635 0.000799541 0.000692152 0.00106103 0.00179598 0.000926518 0.000769608 0.000332384 0.000937681
internal_weight=13144 891 724 12253 3125 167 686 9128 217 139 659 78 8911 154 76 663 78 56 2466 2264 1881 230 201 202 163 110 585 523 128 89
internal_count=13144 891 724 12253 3125 167 686 9128 217 139 659 78 8911 154 76 663 78 56 2466 2264 1881 230 201 202 163 110 585 523 128 89
is_linear=0
shrinkage=0.05


Tree=9
num_leaves=31
num_cat=0
split_feature=7 8 9 8 4 18 7 7 4 9 8 9 4 7 7 9 8 7 8 7 9 9 9 8 8 4 8 8 7 7
split_gain=0.279492 0.113172 0.0781493 0.0903599 0.0963673 0.0687867 0.0626447 0.054132 0.0487746 0.0587107 0.0789856 0.111494 0.0486467 0.0467164 0.0457439 0.0575601 0.0621344 0.100084 0.0801772 0.048181 0.0437127 0.0425527 0.0395818 0.0392987 0.0508643 0.0361943 0.0343784 0.0335264 0.0401088 0.1614
threshold=-0.07485959237569513 0.73660601204827925 0.019480295782681203 1.2217023928637656 0.16530054644808737 0.53553306132722345 -0.087939393939393887 -0.11286602078407024 0.051739518287243505 0.036117019646550556 1.0931055100109965 0.058849667583034858 0.062996031746031717 -0.25407595141902334 0.16966523611375217 0.022346066177733253 0.74778418067530572 -0.0017046280038022998 0.70599974472219584 0.20888267396453497 0.049439930001430155 0.058849667583034858 0.013256538670901952 1.2084028243495257 1.0147539204863365 0.016001024065540152 1.4317745772493928 0.82146978135334503 -0.025691042957238095 -0.0028332637803741996
decision_type=2 2 2 2 2 2 2 2 2 2 2 2 2 2 2 2 2 2 2 2 2 2 2 2 2 2 2 2 2 2
left_child=1 6 -3 4 5 -4 7 -1 14 12 11 27 -10 21 15 22 18 25 -17 -16 -15 -5 -2 24 -19 -18 -22 -11 -29 -30
right_child=8 2 3 13 -6 -7 -8 -9 9 10 -12 -13 -14 20 19 16 17 23 -20 -21 26 -23 -24 -25 -26 -27 -28 28 29 -31
leaf_value=0.0025458911584778469 -0.00034994572813280492 -9.1662696507095168e-05 0.00068855710480270635 0.0027338688560095332 0.002520351695240937 0.0035219624412782258 0.0047090195284680628 -0.00036620100211073978 0.00039643780055902676 0.0023798155607624703 0 0.0045918876613380713 -0.00010067584890723628 5.0559302202103201e-05 0.0024468187016443671 -0.00069271484919576718 0 -0.00028261029349709244 -0.0044718867084345372 -0.00042988996177372352 -0.0002065973224603478 0 2.0590450147025822e-06 -0.0014747400264245923 0.0011322929114675607 -0.0018032958772728918 -0.0029281111159729016 -0.0010112799159279291 0.0049275815609392329 0.00016639397896970657
leaf_weight=40 1647 412 736 28 93 23 23 22 529 30 367 22 6554 253 32 41 31 162 25 22 31 31 1496 38 101 146 24 33 21 131
leaf_count=40 1647 412 736 28 93 23 23 22 529 30 367 22 6554 253 32 41 31 162 25 22 31 31 1496 38 101 146 24 33 21 131
internal_value=-4.91875e-06 0.000589661 0.000493006 0.000694706 0.000977408 0.000781457 0.00238279 0.00143313 -9.46412e-05 -2.18638e-05 0.000450281 0.00116164 -6.28375e-05 2.4698e-05 -0.000242843 -0.000265125 -0.000742929 -0.00053025 -0.00220446 0.00118378 -0.000208361 0.00132424 -0.000180814 8.22348e-06 0.000241975 -0.00147368 -0.00148807 0.000785427 0.000498719 0.00085987
internal_weight=13144 1716 1631 1219 852 759 85 62 11428 7687 604 237 7083 367 3741 3687 544 478 66 54 308 59 3143 301 263 177 55 215 185 152
internal_count=13144 1716 1631 1219 852 759 85 62 11428 7687 604 237 7083 367 3741 3687 544 478 66 54 308 59 3143 301 263 177 55 215 185 152
is_linear=0
shrinkage=0.05


Tree=10
num_leaves=31
num_cat=0
split_feature=7 5 20 8 7 5 7 8 7 4 8 8 8 6 8 7 7 6 8 8 7 6 5 4 8 8 7 7 5 7
split_gain=0.277557 0.0949697 0.0977079 0.0819379 0.0873283 0.0652103 0.0969902 0.0581678 0.0520988 0.0508821 0.0452698 0.0447901 0.0539387 0.0532132 0.0439557 0.0427278 0.0468461 0.0357663 0.0669167 0.070677 0.0339842 0.065679 0.0335098 0.0363561 0.0300927 0.0299049 0.0400114 0.0368293 0.0284607 0.0507317
threshold=-0.10967563511388029 0.40009174670216768 0.16358745817468559 0.74302066185551874 -0.063999647052891587 0.47981837261903865 -0.22349134053081418 1.162575423137812 0.0020447348284347001 0.12599206349206346 1.2217023928637656 0.98838596952906876 1.4317745772493928 86054558.500000015 1.408769904287509 -0.13415645856038169 -0.25407595141902334 268374562.50000003 1.0291185710303261 1.0883818900091591 0.18054643060225448 141708193.50000003 0.31909925897187014 0.15707236842105263 1.1789389504563716 1.1539874337522942 0.018164350988085751 0.039864392582623261 0.34773509729211532 -0.057083356083669996
decision_type=2 2 2 2 2 2 2 2 2 2 2 2 2 2 2 2 2 2 2 2 2 2 2 2 2 2 2 2 2 2
left_child=5 2 7 8 11 6 -1 20 -3 14 17 13 -13 -5 -9 16 -7 -6 -19 -20 22 -22 -2 28 -18 26 -4 -27 -24 -30
right_child=1 3 25 4 10 15 -8 9 -10 -11 -12 12 -14 -15 -16 -17 24 18 19 -21 21 -23 23 -25 -26 27 -28 -29 29 -31
leaf_value=0.0025204479187462257 2.3853551752094517e-05 0.0030300348010135095 0.0011321673583035569 0.0010465908015241147 0.00021111985761546626 0.00075671514745495768 0.00079615187040824259 -0.00063551441759620501 0.0002080911118571327 0.00015989115407662643 -0.00035314133475749577 0.00025614115119368082 0.0030085632466335791 0.0039412203576238009 -0.0023743949232310274 0.0015260888706371076 0.00024825163322674248 -0.0019142204552180361 0.0028002417297654241 -0.00062361542942085879 0.0021011946988127458 -0.0006227937758576397 -0.00037507683168417803 0.00079848977364843632 -0.0016743683824609699 0.00023505466709849399 -0.00010748595792815252 0.003539043257092412 0.00037808497635791107 -0.00020270317290685226
leaf_weight=97 2214 41 130 72 1810 48 682 692 34 189 573 225 20 24 41 34 23 58 21 49 48 37 1958 87 68 20 117 21 419 3306
leaf_count=97 2214 41 130 72 1810 48 682 692 34 189 573 225 20 24 41 34 23 58 21 49 48 37 1958 87 68 20 117 21 419 3306
internal_value=0 -6.40406e-05 -0.000142675 0.000183531 0.000138699 0.000822328 0.00101757 -0.000172171 0.00181931 -0.00055004 3.4651e-05 0.00088998 0.000502364 0.00182563 -0.000739909 -2.80315e-05 -0.000444945 0.0001519 -0.000645985 0.000334744 -0.000128368 0.000857366 -0.000139499 -0.000203045 -0.00113381 0.000760523 0.000524923 0.00205349 -0.000219271 -0.000136024
internal_weight=13158 12206 9279 2927 2852 952 779 8991 75 922 2511 341 245 96 733 173 139 1938 128 70 8069 85 7984 5770 91 288 247 41 5683 3725
internal_count=13158 12206 9279 2927 2852 952 779 8991 75 922 2511 341 245 96 733 173 139 1938 128 70 8069 85 7984 5770 91 288 247 41 5683 3725
is_linear=0
shrinkage=0.05


Tree=11
num_leaves=31
num_cat=0
split_feature=7 5 20 9 7 4 5 7 9 5 7 7 9 5 7 9 5 6 9 6 6 6 6 9 4 9 9 23 5 7
split_gain=0.250876 0.0858754 0.0883911 0.0815806 0.142953 0.0986567 0.108024 0.0725323 0.113157 0.0585617 0.087354 0.0579131 0.0490386 0.061857 0.0489144 0.0456378 0.0454674 0.0482803 0.0442614 0.140661 0.0734138 0.053461 0.0527227 0.0518694 0.0701197 0.042557 0.0451645 0.0379828 0.0352559 0.0477836
threshold=-0.10967563511388029 0.40009174670216768 0.16358745817468559 0.039694781841446654 -0.066838081373342587 0.097567424643046005 0.37815227525049006 -0.063999647052891587 0.039694781841446654 0.47981837261903865 -0.22349134053081418 0.18054643060225448 0.026529267744994405 0.16106362941163127 -0.068230198339986489 0.045526334528285306 0.45531539651157643 105716977.50000001 0.038364623194975613 576368915.00000012 247993547.00000003 414708034.50000006 268374562.50000003 0.049439930001430155 0.14877049180327867 0.063549040268111659 0.046839856714304205 0.22908288492400639 0.3201926479937271 -0.055890260354446199
decision_type=2 2 2 2 2 2 2 2 2 2 2 2 2 2 2 2 2 2 2 2 2 2 2 2 2 2 2 2 2 2
left_child=9 2 3 11 -5 15 -7 8 14 10 -1 28 -4 -14 -3 -6 18 -18 21 20 23 22 -9 24 -20 26 -11 -15 -2 -30
right_child=1 7 12 4 5 6 -8 16 -10 25 -12 -13 13 27 -16 -17 17 -19 19 -21 -22 -23 -24 -25 -26 -27 -28 -29 29 -31
leaf_value=0.0023945552662952407 1.2272258834820107e-06 0.0002340644174864876 0.00030028029612893874 -0.0051358229677651909 -0.00047763592399062426 0.0027957451995462177 -0.00095910088173599038 0.00013237683797278922 0.0033028436733980506 -0.0002153335139905648 0.00075635010235371462 0.0011493077802610804 2.233109949015958e-05 0.0045370064865297823 0.0021225988221357048 -0.0031518462435847516 2.0528577572228041e-05 -0.00082845877790220415 0.00030985715954254077 -0.0028453348283942839 0.0038723671575149042 0.0019140078640503837 -0.0015608024345206653 -0.00035188261863445343 0.0030922202543353411 -0.0015496867565774532 0.0017096422603753614 0.0011607703095151915 0.0001552194963144308 -0.00026985892057160494
leaf_weight=97 2511 270 211 21 35 32 45 1533 42 93 682 85 33 23 41 40 518 240 56 21 27 41 47 47 44 37 43 21 736 5486
leaf_count=97 2511 270 211 21 35 32 45 1533 42 93 682 85 33 23 41 40 518 240 56 21 27 41 47 47 44 37 43 21 736 5486
internal_value=0 -6.06683e-05 -0.000135459 -0.000163535 -0.00124224 -0.000668416 0.000538106 0.000174716 0.000848228 0.000782021 0.000967036 -0.000141791 0.000723448 0.00181629 0.000499709 -0.00197276 8.03786e-05 -0.000241758 0.000217598 0.000933269 0.0014194 0.000128369 7.87502e-05 0.000932537 0.00158591 -2.22724e-05 0.00035737 0.00304529 -0.000154943 -0.000218771
internal_weight=13158 12206 9279 8991 173 152 77 2927 353 952 779 8818 288 77 311 75 2574 758 1816 195 174 1621 1580 147 100 173 136 44 8733 6222
internal_count=13158 12206 9279 8991 173 152 77 2927 353 952 779 8818 288 77 311 75 2574 758 1816 195 174 1621 1580 147 100 173 136 44 8733 6222
is_linear=0
shrinkage=0.05


Tree=12
num_leaves=31
num_cat=0
split_feature=7 5 20 8 7 5 7 8 7 4 8 8 6 8 8 7 7 6 8 8 4 6 6 7 6 7 8 6 7 4
split_gain=0.226319 0.0776445 0.0803094 0.0729136 0.0721548 0.0530381 0.0786656 0.0521092 0.0469508 0.0457781 0.0413017 0.0500166 0.0465428 0.0397696 0.0392063 0.0380419 0.0427737 0.0302146 0.0586979 0.0624812 0.0294146 0.0293433 0.0279914 0.0861733 0.056826 0.096762 0.0884391 0.0452897 0.0267949 0.0317148
threshold=-0.10967563511388029 0.40009174670216768 0.16358745817468559 0.74302066185551874 -0.063999647052891587 0.47981837261903865 -0.22349134053081418 1.162575423137812 0.0020447348284347001 0.12599206349206346 0.98838596952906876 1.2647578039153595 86054558.500000015 1.2217023928637656 1.408769904287509 -0.13415645856038169 -0.25407595141902334 268374562.50000003 1.0291185710303261 1.0883818900091591 0.14877049180327867 26978360.500000004 150045037.00000003 -0.14489425695769242 73565960.000000015 -0.14489425695769242 0.97616367765681911 634988732.00000012 0.13387474055282828 0.054093567251461951
decision_type=2 2 2 2 2 2 2 2 2 2 2 2 2 2 2 2 2 2 2 2 2 2 2 2 2 2 2 2 2 2
left_child=5 2 7 8 10 6 -1 21 -3 14 12 -12 -5 17 -9 16 -7 -6 -19 -20 -18 -2 24 27 -8 -26 -27 -24 29 -15
right_child=1 3 -4 4 13 15 22 9 -10 -11 11 -13 -14 28 -16 -17 20 18 19 -21 -22 -23 23 -25 25 26 -28 -29 -30 -31
leaf_value=0.0022749508390401004 -0.00027461516233019803 0.0028584311751947895 0.0006899835736856242 0.0009695502350421045 0.00019381278575317416 0.00072974770466880312 0.00058497199185898535 -0.00059410645165777201 0.00017294147920035526 0.00015953445235638477 4.5302502514067813e-06 0.0017023534278815544 0.0036872856095539505 -0.0013567274702948144 -0.0022389324670011707 0.001443808031155075 0 -0.0017824681052175093 0.0026418731539202319 -0.00057421575451308633 -0.0018713715497505488 -5.6037960963763376e-05 0.00052232284654929245 -0.00066385947399165922 0.00056684551943340055 0.0062452913646525998 0.0017115665032706657 0.0026888798680683632 -0.00099851770819329565 0
leaf_weight=97 2112 41 288 72 1810 48 309 692 34 189 186 59 24 48 41 34 40 58 21 49 51 5957 94 121 68 20 33 37 122 403
leaf_count=97 2112 41 288 72 1810 48 309 692 34 189 186 59 24 48 41 34 40 58 21 49 51 5957 94 121 68 20 33 37 122 403
internal_value=8.74551e-08 -5.74466e-05 -0.000128578 0.000166338 0.000123947 0.000742936 0.000919025 -0.000155362 0.00170944 -0.000512996 0.000806861 0.000434321 0.00170414 2.91861e-05 -0.000693222 -2.11604e-05 -0.000416224 0.000139213 -0.000593379 0.000321677 -0.00107571 -0.000113871 0.000718538 0.000271776 0.000968612 0.00190574 0.00352511 0.00117397 -0.000334181 -0.000143206
internal_weight=13158 12206 9279 2927 2852 952 779 8991 75 922 341 245 96 2511 733 173 139 1938 128 70 91 8069 682 252 430 121 53 131 573 451
internal_count=13158 12206 9279 2927 2852 952 779 8991 75 922 341 245 96 2511 733 173 139 1938 128 70 91 8069 682 252 430 121 53 131 573 451
is_linear=0
shrinkage=0.05


Tree=13
num_leaves=31
num_cat=0
split_feature=7 5 8 7 14 5 7 8 4 7 8 8 6 8 4 23 6 4 11 7 6 8 5 6 6 6 8 8 24 6
split_gain=0.205038 0.0702389 0.0660744 0.0655551 0.056009 0.0479626 0.0706713 0.0477284 0.0455495 0.0420594 0.0372343 0.0459779 0.0417059 0.0359401 0.0352756 0.0347004 0.0343623 0.0330525 0.0434568 0.0316771 0.0584555 0.0404294 0.0319592 0.0275009 0.0308759 0.0272944 0.0529293 0.0564754 0.0260946 0.041938
threshold=-0.10967563511388029 0.40009174670216768 0.74302066185551874 -0.063999647052891587 0.00074792987707080014 0.47981837261903865 -0.22349134053081418 1.1963306423859772 0.11765536723163837 0.0020447348284347001 0.98838596952906876 1.4317745772493928 86054558.500000015 1.2217023928637656 0.16530054644808737 0.24288550864582173 80529521.000000015 0.080005120327700921 0.72187518804705231 0.18054643060225448 141708193.50000003 1.0095028703278783 0.37767542587731623 40908364.000000007 82729731.000000015 268374562.50000003 1.0291185710303261 1.0883818900091591 0.0211875053497186 150045037.00000003
decision_type=2 2 2 2 2 2 2 2 2 2 2 2 2 2 2 2 2 2 2 2 2 2 2 2 2 2 2 2 2 2
left_child=5 4 9 10 7 6 -1 19 -9 -3 12 -12 -4 25 23 17 -16 -6 -19 -2 22 -22 -21 -7 -25 -5 -27 -28 29 -8
right_child=1 2 3 13 15 14 28 8 -10 -11 11 -13 -14 -15 16 -17 -18 18 -20 20 21 -23 -24 24 -26 26 27 -29 -30 -31
leaf_value=0.0021613204166322881 -0.000132334002602644 0.0027158573358465575 0.00092113996068294711 0.00018412268844189772 0.00028930501690990518 -0.0020478610700380372 0.00091427092014389859 -0.00083291266869977307 0.00014980375354230446 0.00016431975227239871 0.00018493180167445479 0.0027243753489737039 0.0035036863439017901 -0.00031787176403088886 -0.00014015909981638272 0.00013886997989473254 0.0024032963022396739 0.0038886479848015926 0.00072363189722656125 0.0028570179520822003 -0.0022376474836350081 0.00079838262746216495 0.00013264287094589809 0.00083355561356866282 -0.00088783878245568884 -0.0016934980532729905 0.0025104054226374509 -0.00054556342158817485 0.0025424132813972912 5.6847915179122141e-05
leaf_weight=97 8018 41 72 1810 68 23 429 457 148 34 225 20 24 573 21 438 25 21 33 33 20 21 22 46 58 58 21 49 20 233
leaf_count=97 8018 41 72 1810 68 23 429 457 148 34 225 20 24 573 21 438 25 21 33 33 20 21 22 46 58 58 21 49 20 233
internal_value=2.35963e-07 -5.4508e-05 0.000158302 0.000117857 -0.000122177 0.000707315 0.000874768 -0.000153713 -0.000584264 0.0016275 0.00076881 0.00041366 0.00162178 2.74375e-05 -1.78898e-05 0.000359834 0.00113591 0.00111142 0.00205181 -0.000120987 0.000773859 -0.000562794 0.00186023 -0.000475705 -7.83527e-05 0.000132125 -0.000563699 0.000302174 0.000684163 0.000620095
internal_weight=13158 12206 2927 2852 9279 952 779 8719 605 75 341 245 96 2511 173 560 46 122 54 8114 96 41 55 127 104 1938 128 70 682 662
internal_count=13158 12206 2927 2852 9279 952 779 8719 605 75 341 245 96 2511 173 560 46 122 54 8114 96 41 55 127 104 1938 128 70 682 662
is_linear=0
shrinkage=0.05


Tree=14
num_leaves=31
num_cat=0
split_feature=4 20 9 9 9 4 9 9 9 6 9 8 6 8 8 8 8 8 8 8 9 9 6 6 20 8 9 9 6 9
split_gain=0.110011 0.0702662 0.0897951 0.058552 0.0431861 0.108061 0.0713196 0.0599115 0.0464237 0.039415 0.0412753 0.0465481 0.0355072 0.0454672 0.0328164 0.0337153 0.0304531 0.113338 0.0544987 0.0291442 0.131634 0.085955 0.0602498 0.0615163 0.0259187 0.0263073 0.0329876 0.0224375 0.0217417 0.0208478
threshold=0.15831244778613199 0.16358745817468559 0.037761271590750205 0.079244980380858573 0.036117019646550556 0.054093567251461951 0.04796323277289271 0.037189934314874107 0.068808678190196662 1156677511.5000002 0.039694781841446654 1.2527262881771219 255545564.00000003 0.86695601813656076 1.2275483446436226 1.3145650334502172 0.86512995647588331 0.94365306237216151 0.81136091556569434 0.79417941845298567 0.032214573987955304 0.026368130713870404 67072806.500000007 157496619.00000003 0.19846255893735312 0.91011892654215254 0.019143720337256254 0.051068694390191412 347217977.00000006 0.063549040268111659
decision_type=2 2 2 2 2 2 2 2 2 2 2 2 2 2 2 2 2 2 2 2 2 2 2 2 2 2 2 2 2 2
left_child=1 3 24 4 19 6 12 -7 16 10 14 -12 13 -6 -2 -16 18 -18 -9 20 21 -1 -23 -24 28 26 -26 -13 -3 -19
right_child=9 2 -4 -5 5 7 -8 8 -10 -11 11 27 -14 -15 15 -17 17 29 -20 -21 -22 22 23 -25 25 -27 -28 -29 -30 -31
leaf_value=0.00010972141942643496 0.00063102449660437892 0.0021248029589868624 0.0030049672333499781 -0.0021276604837042897 0.0023672387425542176 0.0020902577107980618 -0.0027062234758068156 0.00059382258812864998 0.0021567062277429404 -0.0015174325393392375 0.0021564368604951932 0.0013251844503431903 -0.0018845745084103954 -0.00037064381996372516 -0.0013628581207984988 0.00039187917345517934 0.002709397361016322 0.00026490307095097354 -0.0022593996499536309 -0.00010555499931279927 -0.0029545841505047594 5.1778669526670695e-05 0.0043190937201520339 0.00067623287879498267 -0.00021621955754359151 -0.00040674340270249005 0.0019469698364009342 -0.00034295552958295386 0.00047895858370572663 -0.0010856754352943493
leaf_weight=1154 449 31 37 34 20 58 42 32 36 20 89 35 24 55 46 61 49 515 31 9857 33 39 30 25 30 129 33 40 95 29
leaf_count=1154 449 31 37 34 20 58 42 32 36 20 89 35 24 55 46 61 49 515 31 9857 33 39 30 25 30 129 33 40 95 29
internal_value=4.60506e-07 -3.44537e-05 0.000657675 -5.5242e-05 -4.8951e-05 0.00028481 -0.000972298 0.00052791 0.000389454 0.00059304 0.00065881 0.00137051 -0.00018425 0.00029506 0.000439686 -0.000316377 0.000284536 0.000401096 -0.00073226 -7.61019e-05 0.00014662 0.00023286 0.00168972 0.00275822 0.000367986 0 0.00083893 0.00036966 0.000924904 0.00018353
internal_weight=13158 12418 355 12063 12029 891 141 750 692 740 720 164 99 75 556 107 656 593 63 11138 1281 1248 94 55 318 192 63 75 126 544
internal_count=13158 12418 355 12063 12029 891 141 750 692 740 720 164 99 75 556 107 656 593 63 11138 1281 1248 94 55 318 192 63 75 126 544
is_linear=0
shrinkage=0.05


Tree=15
num_leaves=31
num_cat=0
split_feature=7 8 7 5 8 9 5 20 9 7 9 6 6 9 8 11 5 9 8 8 6 6 6 6 9 8 7 9 7 6
split_gain=0.240605 0.0749669 0.0545935 0.088469 0.102493 0.075999 0.0441911 0.0359063 0.0346028 0.0336307 0.0332605 0.0460747 0.038292 0.0312719 0.0415542 0.0291307 0.0285491 0.0517413 0.0414386 0.0312051 0.0460135 0.0443689 0.0727005 0.0366545 0.0435305 0.0275537 0.0269341 0.0871501 0.0326642 0.029211
threshold=-0.10967563511388029 1.2727703765168126 -0.055890260354446199 0.37767542587731623 0.81588331191373287 0.040497288795198504 0.36662114632086412 0.16358745817468559 0.035488137555321805 -0.25407595141902334 0.042402822511444511 49165476.000000007 226350582.50000003 0.033049709895801659 0.82607813169885513 0.78475683225738679 0.49968217947553928 0.046839856714304205 1.0000195175929931 0.8379484669036853 357365029.00000006 154753206.50000003 70792964.000000015 172935041.00000003 0.027923459689884352 1.0713280417908677 -0.049269869956095093 0.027923459689884352 -0.048153969805826445 96954513.000000015
decision_type=2 2 2 2 2 2 2 2 2 2 2 2 2 2 2 2 2 2 2 2 2 2 2 2 2 2 2 2 2 2
left_child=1 15 3 4 6 -6 -2 26 -9 -3 11 -5 13 14 -13 16 17 19 -19 21 23 22 -1 -21 -25 -26 27 -4 -28 -30
right_child=2 9 7 10 5 -7 -8 8 -10 -11 -12 12 -14 -15 -16 -17 -18 18 -20 20 -22 -23 -24 24 25 -27 28 -29 29 -31
leaf_value=0.0012529756081873489 0.00071649176480863752 0.0011558178177790038 -0.00022122787420591878 0.00032284616399349099 -0.00025141399839984167 -0.0032607688524810873 0.0033747707426498895 0.00024174351366473436 0.0019900627330469945 -0.00031772027300682951 -0.00055805082005822351 0.0034474311201874888 0 0.0028776445896596965 0.00092825870010314327 -0.00043170755990910148 -3.6432778596341642e-05 0.00022855058346129108 0.0030132227270339446 0.00081924703136092769 0.002117478630345033 0 0.0051999530092400699 0.0012128671306606646 -0.0024699883911187253 0 0.0012212836535819538 -0.002780913015770371 -0.00015302280855748648 2.6198557820012917e-05
leaf_weight=40 98 49 267 320 649 22 21 239 34 183 47 20 50 38 197 28 44 22 64 355 62 26 20 24 25 20 47 39 6608 3400
leaf_count=40 98 49 267 320 649 22 21 239 34 183 47 20 50 38 197 28 44 22 64 355 62 26 20 24 25 20 47 39 6608 3400
internal_value=1.55465e-05 0.000776845 -4.45925e-05 0.000240993 -0.000112341 -0.000358003 0.00123002 -8.43279e-05 0.00047844 0 0.000663765 0.000763719 0.00120963 0.00145783 0.00118495 0.00102565 0.00109095 0.00117393 0.00236003 0.00098648 0.000812589 0.00190901 0.00265829 0.000609536 -0.000396676 -0.00136675 -9.96432e-05 -0.000564599 -8.49907e-05 -9.1637e-05
internal_weight=13058 962 12096 1462 790 671 119 10634 273 232 672 625 305 255 217 730 702 658 86 572 486 86 60 424 69 45 10361 306 10055 10008
internal_count=13058 962 12096 1462 790 671 119 10634 273 232 672 625 305 255 217 730 702 658 86 572 486 86 60 424 69 45 10361 306 10055 10008
is_linear=0
shrinkage=0.05


Tree=16
num_leaves=31
num_cat=0
split_feature=7 4 9 7 4 6 9 0 9 7 7 7 6 4 7 4 7 7 7 9 9 6 22 9 6 7 4 6 7 6
split_gain=0.217708 0.0529764 0.155808 0.0577716 0.0477957 0.0471572 0.0532477 0.0422812 0.0415482 0.047345 0.0739302 0.0432505 0.086186 0.0471631 0.0604768 0.03887 0.0388399 0.0419715 0.0375321 0.12883 0.0322885 0.0442015 0.0408883 0.0353732 0.0507937 0.0587422 0.048572 0.0398486 0.0479251 0.0511871
threshold=-0.10967563511388029 0.051739518287243505 0.039694781841446654 -0.055890260354446199 0.064004096262160706 94129729.500000015 0.022346066177733253 1.0000000180025095e-35 0.036117019646550556 -0.03196876310842884 -0.0038966840172765995 0.031335541637123911 95573477.500000015 0.15707236842105263 0.16125460030555058 0.16530054644808737 -0.057083356083669996 0.11428120069022281 -0.29658164713515262 0.055792739206891755 0.028473496060283703 36025157.000000007 0.16475250000000002 0.029583815974547002 230859827.50000003 -0.20631893280518587 0.066120218579234905 139328720.50000003 -0.13415645856038169 95573477.500000015
decision_type=2 2 2 2 2 2 2 2 2 2 2 2 2 2 2 2 2 2 2 2 2 2 2 2 2 2 2 2 2 2
left_child=15 2 5 7 -5 6 -2 -3 -6 -10 -11 12 -12 -13 -15 18 -8 -18 19 -1 21 -20 -23 -22 26 -26 -25 28 29 -28
right_child=1 3 -4 4 8 -7 16 -9 9 10 11 13 -14 14 -16 -17 17 -19 20 -21 23 22 -24 24 25 -27 27 -29 -30 -31
leaf_value=0.004888998401037889 -0.00017810162041401357 0.0003231540943196597 -0.0025503699172776083 0.00042010493083965457 -9.7992324027727684e-05 0.00012358713427254356 0.00011749054939053448 0.0023606246492801392 -0.0011069580901001839 0.0021239734216534716 0.0007408027708726495 0.0007714904726710206 -0.0026918690423604068 0.00086362806447962516 -0.0017657268663864353 0.0014977082536186167 -0.0014587354438061883 0.00014316316781398712 0 -0.00033984041200281478 -0.001478708752126887 0.0014968558286644323 -0.00071487780243380749 0.0014691502861921028 0.0029860655665861942 0.00042718273805405653 -0.0010219123326497643 -0.0016416955875550828 0.0013086734955635229 0.0010429444230373598
leaf_weight=21 2463 994 69 566 5976 1108 69 27 49 62 36 306 34 38 47 151 208 44 104 23 28 204 20 46 34 84 111 45 52 39
leaf_count=21 2463 994 69 566 5976 1108 69 27 49 62 36 306 34 38 47 151 208 44 104 23 28 204 20 46 34 84 111 45 52 39
internal_value=1.49188e-05 -4.2268e-05 -0.000192395 3.02171e-05 -1.95951e-05 -0.000149242 -0.000259622 0.000382157 -5.83716e-05 0.000346773 0.000492718 0.000262073 -0.00085663 0.000475305 -0.000531863 0.000739101 -0.000869295 -0.00115926 0.000591524 0.00204779 0.000501209 0.00088133 0.00127684 0.000205678 0.000332923 0.00120873 -3.02316e-06 -0.000297911 0 -0.000451401
internal_weight=13058 12096 3961 8135 7114 3892 2784 1021 6548 572 523 461 70 391 85 962 321 252 811 44 767 328 224 439 411 118 293 247 202 150
internal_count=13058 12096 3961 8135 7114 3892 2784 1021 6548 572 523 461 70 391 85 962 321 252 811 44 767 328 224 439 411 118 293 247 202 150
is_linear=0
shrinkage=0.05


Tree=17
num_leaves=31
num_cat=0
split_feature=7 7 5 7 9 5 9 6 15 9 9 6 20 11 5 9 6 9 9 7 9 7 6 6 9 9 9 9 9 7
split_gain=0.196827 0.0445228 0.0791714 0.0530362 0.0544551 0.0396229 0.0417562 0.0403238 0.0362778 0.03388 0.0335809 0.0324 0.0318805 0.0314438 0.0318286 0.0305014 0.0270775 0.0254053 0.0247741 0.0240127 0.076557 0.0297181 0.0246957 0.0637498 0.0391192 0.0597093 0.0524809 0.0334961 0.0315632 0.0638307
threshold=-0.10967563511388029 -0.055890260354446199 0.34024751844962337 -0.098436218576596735 0.013790875870042652 0.46898222204812362 0.045526334528285306 95573477.500000015 -0.00075395565526999988 0.037761271590750205 0.051068694390191412 316237060.50000006 0.16358745817468559 0.78475683225738679 0.34089695665588149 0.035488137555321805 49165476.000000007 0.028173309131233202 0.019271377057731603 -0.049269869956095093 0.027923459689884352 -0.048153969805826445 96954513.000000015 99852040.500000015 0.043396883626942807 0.049439930001430155 0.058849667583034858 0.041382317970959655 0.058849667583034858 0.16125460030555058
decision_type=2 2 2 2 2 2 2 2 2 2 2 2 2 2 2 2 2 2 2 2 2 2 2 2 2 2 2 2 2 2
left_child=5 2 8 9 -5 6 13 -7 -2 -4 16 -8 19 14 -1 -14 -6 18 -10 20 -3 -21 24 -24 27 -26 -27 -23 -25 -30
right_child=1 12 3 4 10 7 11 -9 17 -11 -12 -13 15 -15 -16 -17 -18 -19 -20 21 -22 22 23 28 25 26 -28 -29 29 -31
leaf_value=0.0014868176574994603 0.00083429581939730791 -0.00020638983695391591 -4.2679676863154449e-05 -0.00026320479613519424 0.00049540331362977021 -0.00056534276233612666 0.0022873111237527075 0.00089021211214897048 -0.00070746178127338935 -0.0022006445035456399 -0.0010073811404439279 0.00017566272719729184 0.00023047733351649403 -0.00091859592067727175 0.00057215720817896918 0.0018751233499333304 0.0011432843757677078 -0.0023341697407886389 0.0001949376749534141 0.0011694268382553825 -0.0026074584650323559 -0.00014994126601014022 0.0013935040971281055 1.1794951665245852e-05 0.001747308235250348 -0.0023511998732553209 0.00063885228390203901 -0.0021639949988057367 -0.0028428676766999502 0.00031741863082586927
leaf_weight=132 52 267 134 144 350 110 84 83 241 22 23 30 239 26 497 34 376 20 100 47 39 6457 83 3258 68 22 40 21 29 30
leaf_count=132 52 267 134 144 350 110 84 83 241 22 23 30 239 26 497 34 376 20 100 47 39 6457 83 3258 68 22 40 21 29 30
internal_value=1.42833e-05 -4.00727e-05 0.000217747 0.000450743 0.000601536 0.000702874 0.000864001 3.48648e-05 -0.000361912 -0.000380254 0.000774475 0.00177608 -7.59906e-05 0.000697378 0.000772259 0.000454225 0.000837942 -0.000548249 -0.00042819 -9.04479e-05 -0.000529495 -7.65842e-05 -8.2947e-05 2.53099e-05 -0.000139404 0.00071213 -0.000343696 -0.000157275 -7.45953e-06 -0.00115352
internal_weight=13058 12096 1462 1049 893 962 769 193 413 156 749 114 10634 655 629 273 726 361 341 10361 306 10055 10008 3400 6608 130 62 6478 3317 59
internal_count=13058 12096 1462 1049 893 962 769 193 413 156 749 114 10634 655 629 273 726 361 341 10361 306 10055 10008 3400 6608 130 62 6478 3317 59
is_linear=0
shrinkage=0.05


Tree=18
num_leaves=31
num_cat=0
split_feature=7 8 8 6 5 8 8 7 4 4 5 4 6 7 5 5 5 8 4 7 7 8 6 6 7 8 5 5 8 5
split_gain=0.177903 0.0648991 0.0537771 0.101201 0.0997129 0.10052 0.0844301 0.067589 0.0516902 0.0507804 0.0464865 0.042411 0.0401774 0.0327603 0.0414737 0.0347192 0.0326242 0.0317747 0.0308403 0.116346 0.0306773 0.0484024 0.0690339 0.0372562 0.0354559 0.0347244 0.0338814 0.0338007 0.0327347 0.0346614
threshold=-0.10967563511388029 1.2727703765168126 0.80031373277274465 63809763.000000007 0.36617608640780802 0.64949837971191493 0.71929960391760317 -0.0011841420481585499 0.18898809523809523 0.051739518287243505 0.30057408447403222 0.064004096262160706 126131736.50000001 0.015922509827231004 0.39219206681696556 0.38644585400892911 0.3201926479937271 1.1481586445230612 0.16001024065540193 0.16125460030555058 0.071050674190415872 1.0521188451496422 325457144.00000006 290061502.00000006 0.05402922880809511 0.81588331191373287 0.45114219433368336 0.57717042057243806 1.325910173292175 0.41367920204100433
decision_type=2 2 2 2 2 2 2 2 2 2 2 2 2 2 2 2 2 2 2 2 2 2 2 2 2 2 2 2 2 2
left_child=1 8 3 7 5 12 -6 16 -1 13 -7 -11 -5 15 -15 -4 -2 -16 20 -20 24 23 28 25 27 -22 -27 -13 -23 -30
right_child=2 -3 9 4 6 10 -8 -9 -10 11 -12 18 -14 14 17 -17 -18 -19 19 -21 21 22 -24 -25 -26 26 -28 -29 29 -31
leaf_value=0.00072988856691110025 0.0017633773199427893 -3.9790222464900353e-05 -0.00045100414095843537 0 0.0035259611058727166 0 0.00081468868957501974 -0.00046263537170924322 0.0020530169706721355 0.00042691425372050584 0.0011117671983348072 -9.342843749433022e-05 -0.0027441385238376266 3.1218411051331995e-05 -0.00016505735931261452 0.00020297153565614174 0.00023459523865336474 -0.0019522656067013121 0.00060713981564731708 -0.001754246832039079 -0.0018735947709296753 0.00040943542073535529 0.0016638887480893161 -0.0010482065135998659 -0.00057161341814282365 0.00023630225336980474 -0.0013051348247044669 0.0019023489419997656 0.00087291688670939444 -0.0013566902924005244
leaf_weight=640 41 232 1709 20 54 168 75 518 90 528 241 4643 32 1242 66 219 338 48 458 58 23 408 103 97 410 458 38 21 22 58
leaf_count=640 41 232 1709 20 54 168 75 518 90 528 241 4643 32 1242 66 219 338 48 458 58 23 408 103 97 410 458 38 21 22 58
internal_value=1.36063e-05 0.000668271 -3.80512e-05 0.000242722 0.000752165 0.000394523 0.00199022 -8.68353e-05 0.000900121 -7.78787e-05 0.000666607 -3.93789e-06 -0.00164672 -0.000241277 -4.86969e-05 -0.00037412 0.000413589 -0.000962439 -3.81485e-05 0.000331736 -6.93362e-05 0.000155388 0.000480638 -0.000148574 -0.000123781 1.01028e-05 0.00010789 -8.33297e-05 0.000220361 -0.000680802
internal_weight=13058 962 12096 1487 590 461 129 897 730 10609 409 7325 52 3284 1356 1928 379 114 6797 516 6281 1207 591 616 5074 519 496 4664 488 80
internal_count=13058 962 12096 1487 590 461 129 897 730 10609 409 7325 52 3284 1356 1928 379 114 6797 516 6281 1207 591 616 5074 519 496 4664 488 80
is_linear=0
shrinkage=0.05


Tree=19
num_leaves=31
num_cat=0
split_feature=7 8 8 7 6 9 9 4 9 8 6 4 4 9 5 4 5 7 8 4 5 9 7 5 6 8 4 7 9 6
split_gain=0.160523 0.058745 0.0487272 0.0938255 0.0775452 0.158473 0.128253 0.150877 0.068088 0.0541014 0.0514474 0.0464878 0.0458295 0.104594 0.0510204 0.0443801 0.0419177 0.0410958 0.0396538 0.0382777 0.0314778 0.0477893 0.0300763 0.0297581 0.0309782 0.0296359 0.0277689 0.105079 0.0480287 0.0642388
threshold=-0.10967563511388029 1.2727703765168126 0.80031373277274465 -0.03982819278718424 63809763.000000007 0.019949200666900903 0.022746659403642254 0.054093567251461951 0.016246522369305506 0.64949837971191493 37382073.000000007 0.18898809523809523 0.051739518287243505 0.039021469551975108 0.35453404592403809 0.099180327868852461 0.38462272536444919 0.16966523611375217 0.72573484961405577 0.064004096262160706 0.35795654656195858 0.026368130713870404 -0.25407595141902334 0.34659635464263833 33863824.000000007 0.64949837971191493 0.16001024065540193 0.16125460030555058 0.043396883626942807 118072796.50000001
decision_type=2 2 2 2 2 2 2 2 2 2 2 2 2 2 2 2 2 2 2 2 2 2 2 2 2 2 2 2 2 2
left_child=1 11 3 10 6 8 23 -8 -6 -7 -2 -1 13 17 -15 20 -9 -4 -17 -14 21 -11 -3 24 -5 -12 -21 28 -28 -30
right_child=2 22 12 4 5 9 7 16 -10 15 25 -13 19 14 -16 18 -18 -19 -20 26 -22 -23 -24 -25 -26 -27 27 -29 29 -31
leaf_value=0.00069339984199561801 0.00025286269640376242 0.001036020222806624 -0.00020700751746435212 0.00073096278103195833 0.00027581040029654556 -0.00011618293296009632 -0.0048927639057063212 -0.0016762791221056166 -0.001435292285408815 0.0007275336659955283 0 0.0019504800687474796 0.00040557256458771278 -0.0038336783283489315 -0.00076325623394173179 0.0051595169488799948 0.0010197788268265884 0.0015744624647813792 0.0019206541192221247 -6.5870348888751038e-05 0 0.0036779837323338417 -0.0003530438869965483 -0.00032482852119601439 -0.00040664189950952683 0.0020132692379718404 0.00038838181965479085 -0.0016666854726128191 0.0040938960157579215 0.00016288359554862951
leaf_weight=640 117 49 3188 186 250 27 31 32 75 41 22 90 528 29 35 22 24 32 30 6281 24 26 183 373 82 125 411 58 22 25
leaf_count=640 117 49 3188 186 250 27 31 32 75 41 22 90 528 29 35 22 24 32 30 6281 24 26 183 373 82 125 411 58 22 25
internal_value=1.2992e-05 0.000634871 -3.60579e-05 0.000231171 4.23468e-05 0.000528657 -0.000281477 -0.00208263 -0.000104 0.00176689 0.00108663 0.000855477 -7.39868e-05 -0.000229217 -0.00223635 0.00215721 -0.000431941 -0.000187702 0.00339418 -3.70815e-06 0.00139253 0.00195078 -3.78016e-05 -2.89294e-05 0.000364218 0.00171563 -3.62427e-05 0.000314654 0.000576789 0.00211387
internal_weight=13058 962 12096 1487 1223 495 728 87 325 170 264 730 10609 3284 64 143 56 3220 52 7325 91 67 232 641 268 147 6797 516 458 47
internal_count=13058 962 12096 1487 1223 495 728 87 325 170 264 730 10609 3284 64 143 56 3220 52 7325 91 67 232 641 268 147 6797 516 458 47
is_linear=0
shrinkage=0.05


Tree=20
num_leaves=31
num_cat=0
split_feature=7 9 8 5 8 9 8 4 9 5 7 6 8 7 8 6 7 9 8 9 6 7 7 4 16 8 9 9 9 7
split_gain=0.13985 0.109291 0.135132 0.0619044 0.0434322 0.156968 0.0738285 0.0654591 0.0631939 0.038257 0.0377593 0.0369394 0.0670566 0.0612116 0.0728376 0.0797682 0.0509827 0.11393 0.0794372 0.056846 0.0763754 0.0531101 0.050881 0.0568944 0.0572741 0.0480191 0.0445429 0.0827468 0.0427982 0.0408425
threshold=-0.16015395322791992 0.068808678190196662 1.4590809920774082 0.51555194042795338 0.64949837971191493 0.032597356322452108 0.67822961438027118 0.094494047619047616 0.017873821041478603 0.35347540991651466 -0.29658164713515262 84917096.500000015 0.71929960391760317 -0.03982819278718424 0.80842038465817112 46169866.500000007 0.069918010489767618 0.025102746815425656 0.84458121104638006 0.025918938542000652 92747013.500000015 0.042395745467863656 0.033316077055482507 0.15831244778613199 0.066130945340424768 0.69752764987843585 0.043396883626942807 0.049439930001430155 0.014180715454516503 0.20888267396453497
decision_type=2 2 2 2 2 2 2 2 2 2 2 2 2 2 2 2 2 2 2 2 2 2 2 2 2 2 2 2 2 2
left_child=3 4 -3 -1 5 9 7 -6 -9 -2 -5 13 25 14 15 -8 19 -18 -19 -14 -21 22 23 24 -22 -13 -15 -28 -27 -20
right_child=1 2 -4 10 6 -7 11 8 -10 -11 -12 12 16 26 -16 -17 17 18 29 20 21 -23 -24 -25 -26 28 27 -29 -30 -31
leaf_value=0.0011968567754592563 -0.00096538928848416839 0.003785627955398602 -0.00078716407900993014 0.001058504658971461 2.9066789534868994e-05 -0.0044782625956542458 0.00038034418464513345 0.00028046587634419288 0.0042846273328435375 0.00056905489574405178 -0.0013532225208291069 0 6.8120365597602829e-05 -0.0001967977405022219 4.6720897902113948e-05 0.0027387422471107743 -0.00018415411477497144 0.0034167072044721416 0.00099479524286964337 0.0018719617815420597 -0.00077149701893715708 -0.0017213829887744556 0.0017220444606988246 0.0010752758830294658 0.00088625362644921969 0.00019553830709299116 0.0018767295587894155 -0.00099027458863267599 0.0033729047843266712 -0.00013689392895312085
leaf_weight=341 81 41 24 24 53 25 126 20 27 78 43 35 2974 5720 1473 54 438 31 345 34 528 84 27 53 55 20 69 37 36 94
leaf_count=341 81 41 24 24 53 25 126 20 27 78 43 35 2974 5720 1473 54 438 31 345 34 528 84 27 53 55 20 69 37 36 94
internal_value=8.75562e-06 -2.04018e-05 0.00202179 0.000919956 -3.14223e-05 -0.000794428 -1.9627e-05 0.00133161 0.0026911 -0.000181332 -0.000414515 -3.10924e-05 7.72916e-05 -0.000100655 0.000166325 0.00111675 4.99315e-05 0.000386525 0.000928912 -3.01372e-05 -0.000410658 -0.000521481 -0.000361681 -0.000458258 -0.000606405 0.00142279 -0.000177264 0.000828867 0.00232963 0.000741112
internal_weight=12990 12582 65 408 12517 184 12333 100 47 159 67 12233 4754 7479 1653 180 4663 908 470 3755 781 747 663 636 583 91 5826 106 56 439
internal_count=12990 12582 65 408 12517 184 12333 100 47 159 67 12233 4754 7479 1653 180 4663 908 470 3755 781 747 663 636 583 91 5826 106 56 439
is_linear=0
shrinkage=0.05


Tree=21
num_leaves=31
num_cat=0
split_feature=9 19 5 0 6 6 4 4 8 6 9 9 5 5 8 6 6 4 8 8 9 6 6 6 9 5 9 8 9 4
split_gain=0.0873979 0.074342 0.0573199 0.0544312 0.0504606 0.0432714 0.0369569 0.0859349 0.0535579 0.0678607 0.0650442 0.043461 0.0429233 0.0449774 0.0444098 0.0626992 0.133165 0.0542628 0.0541051 0.0677876 0.0407498 0.0416882 0.077136 0.0365156 0.0360611 0.045642 0.0357858 0.0394043 0.0613547 0.0341352
threshold=0.036117019646550556 0.34575781374119613 0.33912688115076667 1.0000000180025095e-35 347217977.00000006 152392621.50000003 0.14174107142857142 0.10347903657448705 1.2217023928637656 357365029.00000006 0.058849667583034858 0.053315752631933312 0.3561294270001874 0.3498511871237478 1.1789389504563716 154753206.50000003 90114972.000000015 0.099180327868852461 1.2275483446436226 1.2527262881771219 0.040497288795198504 211861006.50000003 325457144.00000006 357365029.00000006 0.035488137555321805 0.4214685502355594 0.040497288795198504 1.1598605734866065 0.042402822511444511 0.094494047619047616
decision_type=2 2 2 2 2 2 2 2 2 2 2 2 2 2 2 2 2 2 2 2 2 2 2 2 2 2 2 2 2 2
left_child=24 2 4 6 5 -2 7 12 10 11 23 -10 13 -4 15 16 17 29 -16 -20 -17 -22 -23 26 -1 -26 -8 28 -28 -14
right_child=1 -3 3 -5 -6 -7 8 -9 9 -11 -12 -13 14 -15 18 20 -18 -19 19 -21 21 22 -24 -25 25 -27 27 -29 -30 -31
leaf_value=-2.6253171960402844e-05 -0.0018653165842560937 0.0022261954727371353 0.00016757543214234797 0.0023835705179307194 -0.0029410568949387473 0.0010578719566657038 7.1423617388356039e-05 -0.0026544865346314829 0.00019701384524213595 0.0019219466856727264 0.0029742711586220566 -0.0013100757603243791 -0.00010894686780692197 0.0034253468695305172 0.0021763434861465899 0.00011200996654293547 0.0026565693259594098 0.00055599266906147425 -0.0022226549861711483 0.00064341747544942231 -0.0041986759777519088 0.00087790179497270436 -0.0033675473450974964 -0.0008805951558919522 -0.0027724710909986516 9.3003446357408992e-05 0.0034264511856507522 0.0032953493933802116 0.00042545960833337884 -0.0028097262458286528
leaf_weight=11749 21 55 30 35 23 31 82 28 143 42 41 69 24 20 42 21 39 39 25 112 20 20 20 27 27 22 22 26 101 34
leaf_count=11749 21 55 30 35 23 31 82 28 143 42 41 69 24 20 42 21 39 39 25 112 20 20 20 27 27 22 22 26 101 34
internal_value=8.49393e-06 0.0004168 0.000324689 0.000422371 -0.000990636 -2.79916e-05 0.00035044 1.55389e-05 0.000628403 7.31224e-05 0.00108321 -0.000270314 0.000194929 0.00157472 7.73683e-06 -0.000460147 0.000162924 -0.000789886 0.000602806 8.27021e-05 -0.00156685 -0.00223686 -0.00112324 0.000762289 -3.23382e-05 -0.00138653 0.000976249 0.00144029 0.00100519 -0.00178033
internal_weight=12990 1192 1137 1062 75 52 1027 474 553 254 299 212 446 50 396 217 136 97 179 137 81 60 40 258 11798 49 231 149 123 58
internal_count=12990 1192 1137 1062 75 52 1027 474 553 254 299 212 446 50 396 217 136 97 179 137 81 60 40 258 11798 49 231 149 123 58
is_linear=0
shrinkage=0.05


Tree=22
num_leaves=31
num_cat=0
split_feature=7 9 8 9 7 5 8 9 8 4 9 8 6 9 6 8 7 6 9 4 9 5 8 6 9 6 4 5 7 4
split_gain=0.123091 0.093724 0.118198 0.0559027 0.0690302 0.03971 0.0387376 0.139882 0.0673047 0.0587627 0.0563581 0.0354579 0.035028 0.0456345 0.0348323 0.0335243 0.128355 0.050048 0.142085 0.138346 0.116159 0.148513 0.0790072 0.0433252 0.0594506 0.0317262 0.0329518 0.0304551 0.0292416 0.02796
threshold=-0.16015395322791992 0.068808678190196662 1.4590809920774082 0.055792739206891755 -0.25407595141902334 0.47981837261903865 0.64949837971191493 0.032597356322452108 0.67822961438027118 0.094494047619047616 0.017873821041478603 1.0614709486170923 109389954.50000001 0.020604325404460604 76621986.000000015 0.80842038465817112 0.0013626971917724501 63809763.000000007 0.020091308791496003 0.10347903657448705 0.025708164112404352 0.35855161992858126 0.75817988956858484 45595375.500000007 0.011040533952598552 102937366.00000001 0.097567424643046005 0.33081512442982475 -0.045418331270250294 0.15831244778613199
decision_type=2 2 2 2 2 2 2 2 2 2 2 2 2 2 2 2 2 2 2 2 2 2 2 2 2 2 2 2 2 2
left_child=3 6 -3 4 11 -5 7 12 9 -8 -11 -1 13 -2 -7 16 23 18 -18 22 -19 -22 -20 -10 -25 -26 27 -27 -28 -17
right_child=1 2 -4 5 -6 14 8 -9 15 10 -12 -13 -14 -15 -16 29 17 20 19 -21 21 -23 -24 24 25 26 28 -29 -30 -31
leaf_value=0.00086782762308174109 -0.0003081256519367752 0.003523444862913911 -0.0007448610928898901 0.0010227111339519406 0.00081517387494288787 -0.0027399092089490725 3.2389756812137005e-05 -0.0042280336255690011 0.00030259270846488904 0.00026781846119313318 0.0040669739059072908 0.0039522070794531673 -0.0014653170036565411 0.0018956406736728463 0 -7.7764767628794916e-05 -0.00014425465781547586 -0.00015413948769398206 -0.0057925227022351984 0.00073981700502049122 0.0057982303406023854 2.497805520904944e-05 -0.0016869025300770626 -0.00019633158415341065 0.002183917114825695 -0.00070775544632021854 0.00034405891968253516 0.0013361125861329384 0.0027982879771449522 0.00028251808778856851
leaf_weight=20 88 41 24 32 275 21 53 25 299 20 27 32 40 31 28 10322 368 254 28 21 20 29 28 57 111 40 27 32 34 563
leaf_count=20 88 41 24 32 275 21 53 25 299 20 27 32 40 31 28 10322 368 254 28 21 20 29 28 57 111 40 27 32 34 563
internal_value=8.18606e-06 -1.91446e-05 0.00187193 0.000863065 0.00115733 -0.000263214 -2.93791e-05 -0.000749996 -1.82166e-05 0.00127191 0.00256047 0.00286582 -0.000169394 0.000225093 -0.00120521 -2.91819e-05 0.000205196 -0.000226651 -0.000567652 -0.0025235 0.000257685 0.00249025 -0.00383551 0.000751845 0.00118126 0.0015235 0.000933537 0.000131875 0.00179616 -5.86683e-05
internal_weight=12990 12582 65 408 327 81 12517 184 12333 100 47 52 159 119 49 12233 1348 748 445 77 303 49 56 600 301 244 133 72 61 10885
internal_count=12990 12582 65 408 327 81 12517 184 12333 100 47 52 159 119 49 12233 1348 748 445 77 303 49 56 600 301 244 133 72 61 10885
is_linear=0
shrinkage=0.05


Tree=23
num_leaves=31
num_cat=0
split_feature=7 9 5 5 7 7 9 7 5 9 7 6 5 7 6 6 13 7 7 9 5 20 9 9 7 9 5 6 4 6
split_gain=0.111363 0.0842425 0.0988842 0.051764 0.0352118 0.0335178 0.068874 0.0792227 0.0878548 0.063933 0.0503704 0.0564769 0.0435694 0.044475 0.0433861 0.0369338 0.038929 0.0363388 0.0537788 0.0526595 0.0624787 0.0430465 0.0351692 0.117331 0.0587085 0.0741393 0.035941 0.0995338 0.0605029 0.0405471
threshold=-0.16015395322791992 0.068808678190196662 0.52596593385496748 0.51555194042795338 -0.29658164713515262 -0.03982819278718424 0.029892716737612055 -0.062541453436085886 0.37815227525049006 0.013978700267549202 -0.042516656593017343 58802269.000000007 0.33607869139920865 -0.051415871000802041 81640456.000000015 268374562.50000003 0.64014412615421523 0.10590722335724061 0.33513443418786765 0.020346303385720504 0.36069490843956498 0.21723513418475479 0.055792739206891755 0.051068694390191412 -0.087939393939393887 0.036117019646550556 0.3941411349520037 118072796.50000001 0.10347903657448705 67072806.500000007
decision_type=2 2 2 2 2 2 2 2 2 2 2 2 2 2 2 2 2 2 2 2 2 2 2 2 2 2 2 2 2 2
left_child=3 5 -3 -1 -5 6 9 22 -9 -2 12 -12 13 15 -7 -11 -17 -16 19 20 -19 -21 23 24 26 -26 27 -8 -29 -28
right_child=1 2 -4 4 -6 14 7 8 -10 10 11 -13 -14 -15 17 16 -18 18 -20 21 -22 -23 -24 -25 25 -27 29 28 -30 -31
leaf_value=0.0010747506082917221 -0.00017691119109218114 0.0031919006757403605 -0.00077093733976093626 0.001023344627168045 -0.0013040055981361827 -0.00015783122628286521 0.0020910384799820892 -0.0035797794905523803 -0.00050156300483809695 -0.00073765991963177502 0.00016141538593790976 0.0030219534269112455 0.00050321458487528491 0.0011193212336184225 -3.1110602492227229e-06 0.00078723364108694398 -0.0014092299685314977 0.00029686619353241472 -0.00177573551724394 0.00095119430099497746 -0.0023526900853231498 -0.0011849325380058257 0.0017031139057661297 -0.0036446210351728254 0 0.0028519090394943832 -0.0015982953254520115 -0.0018595270097753901 0.00096059247397310579 0
leaf_weight=341 627 43 22 24 43 5869 48 37 75 213 38 39 1153 62 3314 101 24 77 25 385 30 23 26 23 55 37 83 50 28 75
leaf_count=341 627 43 22 24 43 5869 48 37 75 213 38 39 1153 62 3314 101 24 77 25 385 30 23 26 23 55 37 83 50 28 75
internal_value=7.87236e-06 -1.81047e-05 0.0017747 0.000821018 -0.00039553 -2.78282e-05 0.000124146 -0.000381102 -0.00156536 0.000246584 0.000412555 0.00167715 0.000346532 -9.26233e-05 -7.20144e-05 -0.000329987 0.000324755 5.73737e-05 0.00043776 0.000555242 -0.000400818 0.000818263 -5.6958e-05 -0.000184576 1.46946e-05 0.00112421 -0.000327396 0.000272873 -0.000783222 -0.000837586
internal_weight=12990 12582 65 408 67 12517 2794 537 112 2257 1630 77 1553 400 9723 338 125 3854 540 515 107 408 425 399 376 92 284 126 78 158
internal_count=12990 12582 65 408 67 12517 2794 537 112 2257 1630 77 1553 400 9723 338 125 3854 540 515 107 408 425 399 376 92 284 126 78 158
is_linear=0
shrinkage=0.05


Tree=24
num_leaves=31
num_cat=0
split_feature=7 9 9 8 8 9 8 7 7 24 8 4 6 9 4 9 5 5 17 9 5 6 5 5 6 8 5 6 6 8
split_gain=0.103788 0.0623801 0.0583848 0.0972139 0.045529 0.167852 0.0600519 0.0556204 0.0386685 0.0410851 0.0425052 0.0382084 0.0554068 0.0382718 0.0365864 0.0376861 0.0395518 0.0886584 0.0333382 0.0332567 0.0422352 0.0319743 0.0319274 0.0399456 0.0278136 0.027353 0.0408008 0.0267592 0.0256749 0.0484852
threshold=-0.20631893280518587 0.055792739206891755 0.068808678190196662 1.4590809920774082 0.64949837971191493 0.032597356322452108 0.67822961438027118 -0.039093856516671237 -0.090280409535545628 0.025697172619047502 0.84683906008445897 0.11024305555555557 307336746.00000006 0.039021469551975108 0.04959016393442621 0.034986430393681059 0.37176849495522235 0.43139988841255911 0.048617610403659563 0.026529267744994405 0.35347540991651466 76621986.000000015 0.37359919971861261 0.44710055714568292 82729731.000000015 0.82607813169885513 0.3498511871237478 120077779.50000001 96954513.000000015 0.85922656038502154
decision_type=2 2 2 2 2 2 2 2 2 2 2 2 2 2 2 2 2 2 2 2 2 2 2 2 2 2 2 2 2 2
left_child=1 22 4 -4 5 19 7 -6 9 10 25 14 -13 -14 27 18 -17 -18 -16 20 -2 -3 -1 -24 -25 26 -8 -12 -10 -30
right_child=2 21 3 -5 6 -7 8 -9 28 -11 11 12 13 -15 15 16 17 -19 -20 -21 -22 -23 23 24 -26 -27 -28 -29 29 -31
leaf_value=0.000141462605686661 -0.0013800838255596047 -0.0015579046203861055 0.002879510727466048 -0.00090017930374469658 0.0036126905250935281 -0.004437940613782494 0.0025762427165680587 0.00054650094811240695 -9.9277041605981564e-05 0.0022922291740426321 5.9452988351607078e-05 0.00019218821273461818 0.00072972187962459063 0.0033911834649029242 3.8029578457219462e-07 0.00022470035638467246 -0.0039395564450496389 -5.5541362356711337e-05 -0.0019925911365102182 0.0014788265433719019 0.00033270719602408218 0.00069884231390705581 0.003044989802590973 0.0023903667098197933 0 0.0028809830192374438 0 0.0020634633863544113 0.00044833144464397962 -1.8889157749598118e-05
leaf_weight=32 68 25 44 25 20 27 21 80 7390 25 58 343 44 25 322 25 30 34 22 25 69 40 59 20 31 21 59 27 663 3316
leaf_count=32 68 25 44 25 20 27 21 80 7390 25 58 343 44 25 322 25 30 34 22 25 69 40 59 20 31 21 59 27 663 3316
internal_value=7.43255e-06 0.00111801 -1.0169e-05 0.00143838 -1.84349e-05 -0.000788701 -6.40629e-06 0.00121269 -1.663e-05 0.000272122 0.000218071 0.000106295 0.000468913 0.00176989 -0.000172504 -0.00036654 -0.00128883 -0.00195748 -0.000113089 -0.000147286 -0.000481354 -9.33922e-05 0.00170739 0.00211698 0.00094169 0.00119672 0.000689128 0.000756452 -4.38924e-05 5.77141e-05
internal_weight=12990 207 12783 69 12714 189 12525 100 12425 1056 1031 930 412 69 518 433 89 64 344 162 137 65 142 110 51 101 80 85 11369 3979
internal_count=12990 207 12783 69 12714 189 12525 100 12425 1056 1031 930 412 69 518 433 89 64 344 162 137 65 142 110 51 101 80 85 11369 3979
is_linear=0
shrinkage=0.05


Tree=25
num_leaves=31
num_cat=0
split_feature=7 8 9 5 7 4 8 4 4 4 16 9 9 5 7 5 8 9 5 7 9 7 7 8 5 8 5 8 9 7
split_gain=0.084512 0.0517297 0.0501155 0.0482828 0.0506487 0.0641621 0.0553801 0.0419999 0.0363643 0.0414486 0.0310522 0.0469139 0.0468385 0.0310142 0.0376323 0.0514506 0.0304168 0.0297997 0.0468725 0.0355618 0.0673406 0.0486197 0.0498807 0.055214 0.0458835 0.0639961 0.0402566 0.0920977 0.0406299 0.0320757
threshold=-0.10967563511388029 1.2727703765168126 0.029583815974547002 0.38761201262676315 -0.20631893280518587 0.15707236842105263 1.0730260470614232 0.11024305555555557 0.11571038251366116 0.11765536723163837 0.23850435512345938 0.049439930001430155 0.031816583801580554 0.36117902518543138 -0.015429941986996149 0.43866118217761463 1.3374715571625291 0.019380335649292903 0.45318877260229073 0.20888267396453497 0.043396883626942807 0.016479406626285404 0.056146215668946557 0.93314043295016347 0.3934853179045657 1.1929350775215906 0.3724659130686353 0.95525025224203064 0.021409466202605254 0.12840572968388628
decision_type=2 2 2 2 2 2 2 2 2 2 2 2 2 2 2 2 2 2 2 2 2 2 2 2 2 2 2 2 2 2
left_child=1 2 -1 -4 6 -6 -5 10 -9 -10 11 -2 -12 -13 -15 -16 -3 29 19 20 21 26 23 -23 -22 -26 27 -19 -28 -11
right_child=7 16 3 4 5 -7 -8 8 9 17 12 13 -14 14 15 -17 -18 18 -20 -21 24 22 -24 -25 25 -27 28 -29 -30 -31
leaf_value=0.00017676634807868607 -8.6650049939917455e-05 -0.0011358387268863726 0.0017562407518420774 0.0032352087282072023 -0.00047595276487580443 0.0015838273903512853 0.00038604481073980222 0.00056754563455188481 -0.0019922840128448901 -4.8282049856802819e-05 0.00018381551260724481 -0.0027531509473177774 0.0023604861859273427 -0.0024542715205852668 0.0014940066726426404 -0.0014786937746587641 0.00014973906537114391 -0.0032822286353296122 -0.00023241259579773719 -0.0008258932043494799 0 0.0030837768215394076 0.0003233955447741496 0.00078710293392729967 0.0037369656563484969 0.00037159441774401716 0.0014409741269132601 8.8261874579374065e-05 -8.1746254717655588e-06 -0.0020716610194336789
leaf_weight=317 8693 62 153 33 128 53 45 421 24 1269 406 25 27 20 30 28 161 29 352 50 29 42 266 94 41 27 57 58 274 20
leaf_count=317 8693 62 153 33 128 53 45 421 24 1269 406 25 27 20 30 28 161 29 352 50 29 42 266 94 41 27 57 58 274 20
internal_value=9.25449e-06 0.000463342 0.000668716 0.00103496 0.000589069 0.00010012 0.00165808 -2.55391e-05 0.000134612 6.34439e-05 -7.90605e-05 -9.98481e-05 0.000331602 -0.00116408 -0.000587869 0 -0.000185624 8.43544e-05 0.000252384 0.000434032 0.000508265 0.000353131 0.000745956 0.00153485 0.00176649 0.00247664 -1.27861e-05 -0.000980308 0.000226635 -8.37135e-05
internal_weight=13234 952 729 412 259 181 78 12282 3053 2632 9229 8796 433 103 78 58 223 2608 1319 967 917 820 402 136 97 68 418 87 331 1289
internal_count=13234 952 729 412 259 181 78 12282 3053 2632 9229 8796 433 103 78 58 223 2608 1319 967 917 820 402 136 97 68 418 87 331 1289
is_linear=0
shrinkage=0.05


Tree=26
num_leaves=31
num_cat=0
split_feature=7 8 9 5 4 7 9 9 4 4 4 7 5 6 6 16 9 9 7 8 5 8 4 8 6 13 6 7 9 5
split_gain=0.0765324 0.0467757 0.04525 0.0440096 0.0433729 0.0681724 0.0595678 0.0424322 0.0379289 0.0327995 0.0374375 0.0321634 0.0370585 0.0365279 0.0319821 0.02813 0.0425443 0.0422268 0.0278992 0.0678416 0.0277802 0.0346495 0.0287528 0.0274906 0.0359066 0.0272736 0.0289556 0.0315544 0.0270294 0.0424783
threshold=-0.10967563511388029 1.2727703765168126 0.029583815974547002 0.40571520299990388 0.16530054644808737 -0.20631893280518587 0.044572173806128761 0.046839856714304205 0.11024305555555557 0.11571038251366116 0.11765536723163837 -0.22349134053081418 0.39022036648404951 141708193.50000003 282730700.50000006 0.23850435512345938 0.049439930001430155 0.031816583801580554 0.18054643060225448 0.92241252324960843 0.36117902518543138 1.0110022854908032 0.099180327868852461 1.3374715571625291 46169866.500000007 0.18487248175541543 529944542.00000006 -0.036646094465450446 0.019380335649292903 0.45318877260229073
decision_type=2 2 2 2 2 2 2 2 2 2 2 2 2 2 2 2 2 2 2 2 2 2 2 2 2 2 2 2 2 2
left_child=1 2 14 7 5 6 -5 11 15 25 -11 -4 13 -13 -1 16 18 -17 -2 -20 -18 -22 -23 -3 -25 26 27 -10 -12 -30
right_child=8 23 3 4 -6 -7 -8 -9 9 10 28 12 -14 -15 -16 17 20 -19 19 -21 21 22 -24 24 -26 -27 -28 -29 29 -31
leaf_value=0.00038839076607660744 -9.3737883369782759e-05 -0.0010791382743360626 -0.00042330697719857897 0.0034678998743117705 0.0014572072087136109 -0.0008366113440586427 -4.2558270211571741e-05 0.003072033519380252 0.0013272213266570755 -0.0018930831726512937 -7.9730023951413875e-05 0.0029574495684678731 -5.6606014938594178e-05 0.00096747534832743306 -0.001020431127742644 0.00017462700308932568 -0.0026160418377833001 0.002242897433740846 0.0030407145055188676 3.9687131999823142e-05 0.001105867579014073 0 -0.0020940297679882753 -0.0012819119795574455 0.00054917134775159986 0.0019580062657448371 -0.00087235176577603053 0.00023469166120329186 0.00041328379398352933 -0.00022079526586600256
leaf_weight=271 8566 62 24 21 69 94 22 39 98 24 1289 46 28 69 46 406 25 27 24 103 20 22 36 33 128 33 37 253 967 352
leaf_count=271 8566 62 24 21 69 94 22 39 98 24 1289 46 28 69 46 406 25 27 24 103 20 22 36 33 128 33 37 253 967 352
internal_value=8.86112e-06 0.000440993 0.000636354 0.000984507 0.0004328 -4.73594e-05 0.00155991 0.00151148 -2.42304e-05 0.000127932 6.02338e-05 0.00111549 0.00140881 0.00180878 0.000167931 -7.5109e-05 -9.49156e-05 0.000315628 -8.23176e-05 0.000648096 -0.00110855 -0.000558631 -0.00121957 -0.000175244 0.000142257 0.000539175 0.000405145 0.000554261 8.01981e-05 0.000240273
internal_weight=13234 952 729 412 206 137 43 206 12282 3053 2632 167 143 115 317 9229 8796 433 8693 127 103 78 58 223 161 421 388 351 2608 1319
internal_count=13234 952 729 412 206 137 43 206 12282 3053 2632 167 143 115 317 9229 8796 433 8693 127 103 78 58 223 161 421 388 351 2608 1319
is_linear=0
shrinkage=0.05


Tree=27
num_leaves=31
num_cat=0
split_feature=7 8 9 5 9 7 9 5 6 6 7 5 6 6 6 9 9 9 6 5 6 7 8 5 9 5 7 8 7 9
split_gain=0.0689783 0.0423104 0.0408214 0.0396411 0.0380963 0.0315333 0.0587332 0.036357 0.0488178 0.0355973 0.029246 0.0337955 0.0326324 0.0289006 0.0276487 0.0653442 0.0525338 0.0661052 0.048651 0.0446205 0.0380226 0.0539507 0.0834178 0.0787762 0.0700282 0.0269581 0.0707373 0.0622689 0.0433062 0.0998475
threshold=-0.10967563511388029 1.2727703765168126 0.029583815974547002 0.40571520299990388 0.046839856714304205 -0.20631893280518587 0.045526334528285306 0.43705718465689336 63809763.000000007 70792964.000000015 -0.22349134053081418 0.39022036648404951 141708193.50000003 282730700.50000006 1237898310.0000002 0.049439930001430155 0.049439930001430155 0.044572173806128761 194375719.00000003 0.47981837261903865 91498970.500000015 0.061354467218689764 1.0730260470614232 0.48842156070586268 0.058849667583034858 0.37134911303837775 -0.023386447554115647 0.9995127556464668 0.011160739012626252 0.024893584503811253
decision_type=2 2 2 2 2 2 2 2 2 2 2 2 2 2 2 2 2 2 2 2 2 2 2 2 2 2 2 2 2 2
left_child=1 2 13 4 10 6 -5 8 -7 -9 -4 12 -12 -1 16 -16 17 25 19 -19 -18 23 -23 -22 -24 28 27 -27 -2 -30
right_child=14 -3 3 5 -6 7 -8 9 -10 -11 11 -13 -14 -15 15 -17 20 18 -20 -21 21 22 24 -25 -26 26 -28 -29 29 -31
leaf_value=0.00036897839767004398 -0.00021724815347851949 -0.00016652233042026938 -0.0004022294740459236 0.0026400373397003404 0.0029188246893770324 0.00080414631659401342 -0.00024883074182983873 -0.00031921702201722913 -0.0021376246250740193 0.001648112294811105 0.0028098978693122268 -5.3785785823874831e-05 0.00091917156305854173 -0.00096952024586660363 0.00022795144198556832 0.0031640079146101011 0.00019389145853360981 0.0022901070800354748 -0.00015050650287706119 -0.00015366567983361544 -0.0032920573097188935 0.0019297742361084271 0.00010281151649475819 0.00018790481630620077 -0.002977981320174349 0.00072504580411840317 -6.9669355565098875e-05 6.1249419883474231e-05 -5.7497232623544188e-05 0.00086453740785140767
leaf_weight=271 3586 223 24 37 39 20 28 41 36 44 46 28 69 46 255 21 63 74 48 20 51 27 35 20 33 625 3336 855 2907 326
leaf_count=271 3586 223 24 37 39 20 28 41 36 44 46 28 69 46 255 21 63 74 48 20 51 27 35 20 33 625 3336 855 2907 326
internal_value=8.45892e-06 0.000418723 0.000604605 0.000935409 0.00143606 0.000410045 0.00132033 0 -0.000998305 0.000641151 0.00105832 0.0013385 0.00172069 0.000158736 -2.29374e-05 0.000470521 -3.47016e-05 -1.96782e-05 0.00105115 0.00171741 -0.000785152 -0.00118671 -0.000343487 -0.00224258 -0.00132104 -3.31859e-05 5.67215e-05 0.000344977 -9.74173e-05 3.39536e-05
internal_weight=13234 952 729 412 206 206 65 141 56 85 167 143 115 317 12282 276 12006 11777 142 94 229 166 95 71 68 11635 4816 1480 6819 3233
internal_count=13234 952 729 412 206 206 65 141 56 85 167 143 115 317 12282 276 12006 11777 142 94 229 166 95 71 68 11635 4816 1480 6819 3233
is_linear=0
shrinkage=0.05


Tree=28
num_leaves=31
num_cat=0
split_feature=7 8 9 11 5 9 8 5 4 9 6 4 7 8 6 4 7 7 8 8 5 6 6 7 9 4 6 4 6 6
split_gain=0.0621646 0.0382707 0.0380025 0.0431409 0.046208 0.0485733 0.0465981 0.0357289 0.0334596 0.0903027 0.0571286 0.0474875 0.04186 0.0348521 0.032862 0.0296421 0.0312336 0.0335093 0.0296627 0.0286197 0.0282356 0.0394628 0.0588961 0.0392948 0.0526956 0.0727693 0.0413691 0.033225 0.026774 0.0570996
threshold=-0.10967563511388029 1.2727703765168126 0.034460937934271157 0.78475683225738679 0.3498511871237478 0.024893584503811253 0.90716719029247161 0.50804021810226552 0.051739518287243505 0.039021469551975108 5664508102.000001 0.062996031746031717 0.16966523611375217 0.99773157372663202 275709961.00000006 0.11024305555555557 -0.079838888489082688 -0.098436218576596735 0.74778418067530572 0.84458121104638006 0.47583199683892102 357365029.00000006 152392621.50000003 0.27043474000722628 0.043396883626942807 0.14877049180327867 194375719.00000003 0.18898809523809523 109389954.50000001 52866251.500000007
decision_type=2 2 2 2 2 2 2 2 2 2 2 2 2 2 2 2 2 2 2 2 2 2 2 2 2 2 2 2 2 2
left_child=1 2 3 4 5 -1 19 -4 9 12 11 28 -2 -11 -7 -13 17 -17 -18 -6 23 22 -22 24 -20 -26 -27 -24 29 -10
right_child=8 -3 7 -5 6 14 -8 -9 10 13 -12 15 -14 -15 -16 16 18 -19 20 -21 21 -23 27 -25 25 26 -28 -29 -30 -31
leaf_value=0.00033776749279624792 -0.00012370429294788875 -0.00015819997165079412 0.0012314566215775357 -0.0018965809854294806 -4.1316789889639708e-05 0.0041036553295788255 0.00039704674882676331 -0.0004820532646696192 0.00031459367428843992 -0.0033788738801484291 0.0021760706601131382 -8.5826699065895884e-05 0.0015780072256798888 -0.00089818314854807043 0.00093691053029099211 -0.0001458187341907509 0.00075950434304170749 0.0011431853562945675 5.1714865653413039e-05 -0.0022722146668650617 -0.00019306352686178444 0.0015949380426523994 -0.0030056121554019296 -0.0018350915241115854 -0.00051894850094470399 0.0029675723675284108 0.00038089410361657507 -0.00016947652917559169 -4.2633277918920939e-05 0.0017002726120213677
leaf_weight=66 3886 223 254 21 38 21 248 30 301 27 31 4637 36 47 22 68 148 143 2285 29 184 20 36 26 39 48 30 20 165 105
leaf_count=66 3886 223 254 21 38 21 248 30 301 27 31 4637 36 47 22 68 148 143 2285 29 184 20 36 26 39 48 30 20 165 105
internal_value=8.07778e-06 0.000397565 0.000574429 0.00027053 0.000390075 0.00127974 6.60479e-05 0.00103275 -2.1708e-05 -0.000140796 3.51206e-05 2.64488e-05 -0.00010677 -0.00187411 0.0026054 -5.60204e-06 0.000114844 0.000704214 6.9208e-05 -0.00108339 2.93137e-05 -0.000462875 -0.000655777 8.40954e-05 0.000107026 0.00114359 0.00203848 -0.00208394 0.00046644 0.000685602
internal_weight=13234 952 729 445 424 109 315 284 12282 3996 8286 8255 3922 74 43 7684 3047 211 2836 67 2688 260 240 2428 2402 117 78 56 571 406
internal_count=13234 952 729 445 424 109 315 284 12282 3996 8286 8255 3922 74 43 7684 3047 211 2836 67 2688 260 240 2428 2402 117 78 56 571 406
is_linear=0
shrinkage=0.05


Tree=29
num_leaves=31
num_cat=0
split_feature=7 5 19 9 4 4 4 5 8 8 7 4 9 6 4 7 8 4 4 4 6 9 9 6 9 9 5 9 4 8
split_gain=0.056034 0.035873 0.0493902 0.0561002 0.0439753 0.0524534 0.0514207 0.0548956 0.0435972 0.0348583 0.0453229 0.0302264 0.0818359 0.0515712 0.0428656 0.037809 0.0311135 0.0267307 0.0297577 0.0333941 0.0263436 0.0853561 0.0709149 0.0763244 0.0725554 0.0585314 0.0557236 0.0473305 0.0840132 0.0469965
threshold=-0.10967563511388029 0.36918445840539071 0.8513135907784789 0.023977844749433454 0.16530054644808737 0.14877049180327867 0.14174107142857142 0.45114219433368336 1.408769904287509 1.0730260470614232 -0.20631893280518587 0.051739518287243505 0.039021469551975108 5664508102.000001 0.062996031746031717 0.16966523611375217 0.99773157372663202 0.11024305555555557 0.11571038251366116 0.11765536723163837 162756820.50000003 0.021409466202605254 0.021285621544558302 176169612.50000003 0.028731693524347002 0.026368130713870404 0.35714873934410224 0.027650369748383103 0.047247023809523808 0.74302066185551874
decision_type=2 2 2 2 2 2 2 2 2 2 2 2 2 2 2 2 2 2 2 2 2 2 2 2 2 2 2 2 2 2
left_child=1 2 3 -1 5 6 8 -8 9 10 -3 12 15 14 -13 20 -14 -16 -19 -20 21 -2 26 -24 25 -25 -22 29 -29 -23
right_child=11 4 -4 -5 -6 -7 7 -9 -10 -11 -12 13 16 -15 17 -17 -18 18 19 -21 22 27 23 24 -26 -27 -28 28 -30 -31
leaf_value=0.00011040802497707379 -6.7439539609951411e-05 0.0024209209935582097 -0.0010941030372989217 0.0016677300173519234 0.00093752751678173336 -0.00088259497340711251 0.001973288512910384 -0.00026551693836178171 0.0015711756051712163 -0.00093465031240835958 -0.0001679006732844047 0.00044313555117314325 -0.0032105536278718701 0.0020676170263163912 -8.1535453323870546e-05 0.0014993254299123366 -0.00085336934328237408 0.00050094505603807569 -0.0018012738852332738 6.3448260397764664e-05 6.2664263996128203e-05 -0.0030170081792590775 0.0036691979500291191 0.00063520786447689029 -0.00086112121126981182 0.0035681654790443405 -0.0014978247051568964 0.0027884683580184141 -0.00054657949639491915 -0.00090818901169585598
leaf_weight=103 2766 20 27 157 145 138 73 38 33 126 92 571 27 31 4637 36 47 420 24 2603 392 32 24 81 54 24 66 22 128 297
leaf_count=103 2766 20 27 157 145 138 73 38 33 126 92 571 27 31 4637 36 47 420 24 2603 392 32 24 81 54 24 66 22 128 297
internal_value=7.63778e-06 0.000377436 0.000848949 0.00107029 0.000166326 -3.92459e-05 0.000252485 0.0011623 -0.000102016 -0.000355576 0.000251533 -2.06217e-05 -0.000133822 3.33677e-05 2.50978e-05 -0.000101366 -0.00178407 -5.32132e-06 0.000109021 4.44412e-05 -0.000117519 -0.000176144 0.000171445 0.00100682 0.000571474 0.00135593 -0.000151573 -0.00079328 -2.25962e-05 -0.00112935
internal_weight=13234 952 287 260 665 520 382 111 271 238 112 12282 3996 8286 8255 3922 74 7684 3047 2627 3886 3245 641 183 159 105 458 479 150 329
internal_count=13234 952 287 260 665 520 382 111 271 238 112 12282 3996 8286 8255 3922 74 7684 3047 2627 3886 3245 641 183 159 105 458 479 150 329
is_linear=0
shrinkage=0.05


Tree=30
num_leaves=31
num_cat=0
split_feature=7 6 8 9 9 4 9 7 6 6 9 7 9 8 8 8 6 7 6 8 6 7 7 4 9 6 6 9 6 6
split_gain=0.0583154 0.0582447 0.0406483 0.0374936 0.0316022 0.0306946 0.0475657 0.0750134 0.0321647 0.0288893 0.0372198 0.102149 0.0694542 0.0679739 0.0632356 0.0568667 0.0536851 0.0880574 0.0450972 0.0442013 0.0372879 0.0366517 0.147615 0.0311323 0.032145 0.0300621 0.0592431 0.0361909 0.0291189 0.0282449
threshold=-0.07485959237569513 91498970.500000015 0.96536065133455506 0.015732931934525452 0.040497288795198504 0.062996031746031717 0.035488137555321805 -0.16015395322791992 221535671.50000003 1237898310.0000002 0.049439930001430155 0.11428120069022281 0.036117019646550556 1.1066846220847635 0.90872902883037598 1.2575338428621834 172935041.00000003 0.039864392582623261 104227342.50000001 1.0165291405446197 180492962.00000003 -0.030011954044195346 0.0098652951585441514 0.033615819209039506 0.019380335649292903 84917096.500000015 109389954.50000001 0.041382317970959655 60459809.500000007 206627931.50000003
decision_type=2 2 2 2 2 2 2 2 2 2 2 2 2 2 2 2 2 2 2 2 2 2 2 2 2 2 2 2 2 2
left_child=1 4 3 -3 -1 8 -7 -8 -5 10 12 15 -2 -13 16 18 17 -14 -12 20 -16 -21 -23 -11 -25 28 -27 -28 -24 -15
right_child=9 2 -4 5 -6 6 7 -9 -10 23 11 13 14 29 19 -17 -18 -19 -20 21 -22 22 25 24 -26 26 27 -29 -30 -31
leaf_value=0.00013326552496112739 -5.3470002724146498e-05 -0.00067364864991492288 0.00036102089851834966 0.0013745392482165638 -0.00071639462373250637 0.001123948165942505 0.0010444164022125981 0.0055760047968421407 -0.00080419750643612284 -0.0012820464345760904 -0.0049931268054825154 0.0023120075796649957 0.00034907241361563504 0.00045545137141557598 0 -0.0003652998204221352 0 0.0047252906456563184 -0.0016510930149802709 -0.00072152386030523662 -0.0023458446201634598 0.0036466725903046325 6.4404361987744062e-05 0 0.0012527382475472088 0.0033238996707299138 0.0012733411585527309 -0.00056873643323568639 -0.001941041304725665 -0.0014059932015197891
leaf_weight=815 10467 21 555 39 126 95 23 20 27 20 20 31 24 37 46 42 23 28 35 43 25 39 78 98 120 20 50 53 22 39
leaf_count=815 10467 21 555 39 126 95 23 20 27 20 20 31 24 37 46 42 23 28 35 43 25 39 78 98 120 20 50 53 22 39
internal_value=1.29391e-05 0.000284422 0.000604064 0.00118093 1.4119e-05 0.00139658 0.00183267 0.00327619 0.000407727 -2.77516e-05 -3.98351e-05 -0.000709789 -2.68529e-05 0.000315839 0.00057968 -0.00189181 0.00191708 0.00280601 -0.00296398 0.000299177 -0.000794719 0.000570387 0.000801689 0.000515706 0.000704075 0.000280313 0.000815637 0.000277347 -0.000328342 -0.000434653
internal_weight=13081 1721 780 225 941 204 138 43 66 11360 11122 204 10918 107 451 97 75 52 55 376 71 305 262 238 218 223 123 103 100 76
internal_count=13081 1721 780 225 941 204 138 43 66 11360 11122 204 10918 107 451 97 75 52 55 376 71 305 262 238 218 223 123 103 100 76
is_linear=0
shrinkage=0.05


Tree=31
num_leaves=31
num_cat=0
split_feature=7 6 4 7 9 5 6 9 6 7 9 7 5 5 7 9 9 9 6 7 7 5 7 6 9 4 9 12 9 7
split_gain=0.0527376 0.0538722 0.0280118 0.048647 0.0884661 0.0906502 0.0521655 0.0350941 0.0345763 0.0318309 0.0692368 0.132308 0.0630459 0.0521431 0.0310636 0.0461944 0.0467233 0.0349442 0.0345062 0.0412418 0.177641 0.0342172 0.0557024 0.0502785 0.0476838 0.0306607 0.0368068 0.0291068 0.0261115 0.0690072
threshold=-0.07485959237569513 45595375.500000007 0.19201228878648233 0.13762022097601709 0.026368130713870404 0.47583199683892102 118072796.50000001 0.044572173806128761 1237898310.0000002 0.27043474000722628 0.051068694390191412 0.14183754246450167 0.43866118217761463 0.48383911835538085 0.20888267396453497 0.036117019646550556 0.036609522817482261 0.039694781841446654 551461417.50000012 -0.0017046280038022998 -0.025691042957238095 0.40248906852619842 0.033316077055482507 116122837.50000001 0.043396883626942807 0.033615819209039506 0.019380335649292903 0.66225341832106721 0.022481206035430853 0.0038794951575494506
decision_type=2 2 2 2 2 2 2 2 2 2 2 2 2 2 2 2 2 2 2 2 2 2 2 2 2 2 2 2 2 2
left_child=1 -1 8 4 -4 6 -6 -5 9 10 14 -12 -11 -14 15 28 -17 -16 19 20 -18 22 -21 -24 -23 -10 -27 -28 -2 -30
right_child=2 -3 3 7 5 -7 -8 -9 25 12 11 -13 13 -15 17 16 18 -19 -20 21 -22 24 23 -25 -26 26 27 -29 29 -31
leaf_value=-0.00014450727681244885 -2.5003491932345656e-05 0.00045686812506977916 0.00010338253603366882 0.00011306985787874491 0.0044434301750011411 -0.00044139854574655468 0.00092520834337390294 -0.0023251823335113117 -0.0012182630612445414 0.0024613507847600388 -0.0023548009497681849 0.0014904888047951937 -0.0021345497815212083 0.001297654076985071 -0.00025186257194082754 0.002485518434641757 -6.969268933502638e-05 -0.0028301614672122124 -0.0013114100172983158 -0.0028858722030041524 0.0046133881714835101 -0.00017234184105265833 -0.0011901116778291634 0.0011586878650412438 0.0016790653571418946 0 0.0019558560865749444 0.00017749774361595406 -0.00065164690194365656 5.2004786818526484e-06
leaf_weight=525 8493 1196 183 29 35 21 21 24 20 37 82 29 21 22 49 28 60 21 28 20 29 68 44 47 63 98 74 43 637 1034
leaf_count=525 8493 1196 183 29 35 21 21 24 20 37 82 29 21 22 49 28 60 21 28 20 29 68 44 47 63 98 74 43 637 1034
internal_value=1.23273e-05 0.000270513 -2.63488e-05 0.000438696 0.000730881 0.00215529 0.00321722 -0.000899182 -3.99815e-05 -5.34472e-05 -6.12957e-05 -0.00130473 0.000935771 -0.000263593 -4.78177e-05 -4.03553e-05 0.000494317 -0.00109961 0.000324442 0.000478278 0.0014036 0.000116881 -0.000503292 0 0.000680492 0.000558047 0.000747019 0.00134568 -6.12099e-05 -0.000242228
internal_weight=13081 1721 11360 313 260 77 56 53 11047 10812 10732 111 80 43 10621 10551 387 70 359 331 89 242 111 91 131 235 215 117 10164 1671
internal_count=13081 1721 11360 313 260 77 56 53 11047 10812 10732 111 80 43 10621 10551 387 70 359 331 89 242 111 91 131 235 215 117 10164 1671
is_linear=0
shrinkage=0.05


Tree=32
num_leaves=31
num_cat=0
split_feature=7 8 9 24 4 8 4 4 9 8 9 7 9 7 9 8 9 5 5 9 4 7 9 5 9 7 8 9 7 7
split_gain=0.0475367 0.0300244 0.0337503 0.0273751 0.029216 0.0337898 0.027838 0.0450154 0.050613 0.0564489 0.107276 0.0558808 0.0436407 0.0380373 0.0410231 0.0315138 0.0525737 0.0425751 0.0290891 0.0258349 0.0253799 0.0438059 0.0797281 0.0824496 0.0318559 0.0258088 0.116091 0.027845 0.0723356 0.0292647
threshold=-0.07485959237569513 1.2217023928637656 0.014459059027018552 0.025697172619047502 0.16001024065540193 1.16582331809961 0.14877049180327867 0.11024305555555557 0.039021469551975108 0.81136091556569434 0.024689341686629802 -0.20631893280518587 0.039694781841446654 -0.13928843351098938 0.025708164112404352 0.87844153772914424 0.035488137555321805 0.41168696705431451 0.32933131686689748 0.044572173806128761 0.19201228878648233 0.13762022097601709 0.026368130713870404 0.47583199683892102 0.044572173806128761 0.27043474000722628 1.0730260470614232 0.058849667583034858 0.11428120069022281 0.20888267396453497
decision_type=2 2 2 2 2 2 2 2 2 2 2 2 2 2 2 2 2 2 2 2 2 2 2 2 2 2 2 2 2 2
left_child=1 2 -1 4 6 -6 7 8 9 10 -4 -10 -9 -11 18 -8 17 -17 -15 -13 25 22 -22 -24 -23 27 -27 29 -29 -2
right_child=20 -3 3 -5 5 -7 15 12 11 13 -12 19 -14 14 -16 16 -18 -19 -20 -21 21 24 23 -25 -26 26 -28 28 -30 -31
leaf_value=-0.00038303186209753462 -3.0933947576442784e-05 -0.00011015584727576689 -5.156848830869905e-05 0.0019414054539208401 0.00071114437879434868 0.0030635724434523149 -0.002080973835240071 0.00071987309694582712 0.00073134264831920882 0.0010837289048358193 0.0031917161577121739 -0.003290655611007057 0.0028015981058254185 -0.00047795401379374262 -0.00072331611189414098 0.00032470842024955358 0.001454147926781707 -0.0018089304100685117 0.00062827037885961111 -0.00074889361978152172 9.8216230489894988e-05 0.00010743579075950168 0.0030612980827577942 -0.00041943325316842414 -0.0022094055963390313 0.0036935238920864592 -0.00032517111675908398 -0.0024079845897432999 0.0010415608277734014 -0.00098098411417484564
leaf_weight=126 10821 405 48 32 98 21 21 150 29 96 48 22 34 77 139 43 42 44 215 31 183 29 56 21 24 25 57 40 22 82
leaf_count=126 10821 405 48 32 98 21 21 150 29 96 48 22 34 77 139 43 42 44 215 31 183 29 56 21 24 25 57 40 22 82
internal_value=1.17057e-05 0.000256843 0.000373586 0.000457925 0.000412449 0.00117048 0.000320713 0.000429333 0.000238453 0.000397793 0.00151968 -0.000910256 0.00113301 0.000183691 -5.38754e-06 -0.000289592 0 -0.000697806 0.000319379 -0.00190234 -2.49934e-05 0.000417604 0.000695395 0.00204784 -0.000849723 -3.799e-05 0.000842146 -4.50356e-05 -0.00110373 -3.85467e-05
internal_weight=13081 1721 1316 1190 1158 119 1039 889 705 623 96 82 184 527 431 150 129 87 292 53 11360 313 260 77 53 11047 82 10965 62 10903
internal_count=13081 1721 1316 1190 1158 119 1039 889 705 623 96 82 184 527 431 150 129 87 292 53 11360 313 260 77 53 11047 82 10965 62 10903
is_linear=0
shrinkage=0.05


Tree=33
num_leaves=31
num_cat=0
split_feature=7 6 8 5 7 5 7 4 12 18 6 6 7 4 4 6 8 4 7 6 7 5 5 8 7 7 7 7 6 6
split_gain=0.0429569 0.0492525 0.035549 0.0267741 0.0327514 0.0304848 0.0326295 0.0263181 0.0251792 0.0280786 0.0252222 0.0248559 0.023777 0.0339578 0.02369 0.0398629 0.024606 0.0440198 0.0816221 0.0436243 0.0347602 0.031044 0.0262123 0.0376653 0.100095 0.097978 0.0514166 0.0419538 0.0344575 0.0484
threshold=-0.07485959237569513 91498970.500000015 0.96536065133455506 0.44898842937903244 -0.10967563511388029 0.34309365925781271 -0.10339178958567023 0.062996031746031717 0.72062043932743292 0.35195597542569729 1156677511.5000002 221535671.50000003 -0.098436218576596735 0.14174107142857142 0.051739518287243505 5664508102.000001 1.1041438682495339 0.048003072196620554 0.028927873806029156 384410778.00000006 -0.014787159474386699 0.33229359113557655 0.34309365925781271 0.81588331191373287 0.07217143081364906 0.060245195388660105 -0.0088058248723949482 -0.023386447554115647 104227342.50000001 57812116.000000007
decision_type=2 2 2 2 2 2 2 2 2 2 2 2 2 2 2 2 2 2 2 2 2 2 2 2 2 2 2 2 2 2
left_child=1 3 7 4 -1 -6 -7 11 9 10 -4 -3 -5 -14 16 -16 22 18 20 -19 21 -18 23 24 25 27 -25 28 29 -2
right_child=14 2 8 12 5 6 -8 -9 -10 -11 -12 -13 13 -15 15 -17 17 19 -20 -21 -22 -23 -24 26 -26 -27 -28 -29 -30 -31
